{"w1": [[0.08201529655854908, -0.9029530258283499, -0.8756504272999687, 0.6001450406895797, -1.1648363742068015, -0.04460748073770929, -0.3000377226002901, -0.23986503040703883, -1.4049831792484686, 1.8064999289474954, 1.1678810921668383, -1.3550033834546293, -1.6909391472510442, 0.45453035290573274, -0.06762174187796086, 0.2154002003068105], [-0.5736369546146145, 0.27097050951888496, -0.43679380498825593, 0.6590503073749007, 0.8076327438521086, -0.0893453384690771, -0.70664024276783, 0.7298818432630824, -1.8103927228150374, 0.2953702068403706, 0.2002561117342061, -1.7299480510303922, 0.970720702921132, 0.5011198171093135, -0.5241326624774139, -1.2678959187091134], [-1.1617799317623931, -0.2019037768764169, -2.7938334601660055, -0.40966725880556853, -0.07150890889240842, -0.23970330266653186, -0.7240747382098904, 1.1924296351333354, -0.4468077551380555, 1.0726190594682308, -1.3634496153677378, 1.913987218164073, -0.1179796445149636, 0.052719778291774516, -0.049860548710829955, -0.2635673318693168], [-0.3178749610492701, 0.3242356737561845, 0.03104358344981216, -1.2272252206166288, -1.086815608839913, -1.0246775188485409, -0.7178430511031423, -0.45349584614919997, -1.2701563388339017, 0.2542888487489137, -0.5785368854560751, -0.23366528958845623, -2.2895292268852474, -0.6510978311642761, 0.9625273519647779, 0.2845828309000962]], "b1": [2.7134986066157514, 2.548347561132422, 2.57110062768875, 2.58451727047386, 2.772981966946811, 2.751398543287594, 2.470851900985218, 2.7109723454620838, 2.502138749745562, 2.3110444259673315, 2.6714893499941907, 2.6349640707032362, 2.582256993306278, 2.558119252137155, 2.376542606058014, 2.5892271685050945], "w2": [[-0.48044710984309935, 0.3596993288280014], [-0.7104368284775566, -0.07405161127708522], [0.6195503658911065, -1.2824855302855371], [2.2998363628522616, -0.04110576252382259], [-0.559627656564039, 0.52917415501201], [0.47639462090425877, -0.827822204646605], [0.748738814191917, 0.6565953966804882], [-1.00963471510281, 0.3937533792404379], [0.000917585433289847, -0.6524625632924713], [-1.5597891691133987, -0.8787046458613426], [-0.45454578551712493, -2.041364622226921], [0.23364201216005895, -1.7158713618830284], [-0.25860576592516193, -0.9499566216329773], [-1.649303693902881, 0.855562431244808], [-0.47079760037606844, 1.0284525100883763], [-1.451479001072133, 0.8545745960079889]], "b2": [1.2821931385638972, 0.429458021088239]}