{"w1": [[0.19837059012640382, -1.0411676788682158, -0.6890096640364841, 0.9248190915597692, -0.9738585838717652, -0.3659486649188196, -0.5636121835008661, -0.143246589976779, -1.3492098906420822, 0.9702107396152861, 1.3429375471539358, 0.5353649879526962, -1.8694809401738135, 0.29343813760452286, -1.02206117331469, -0.2767494902999287], [-0.46389028726844544, 0.4599353272789343, -0.3122731242050741, 0.6979816027646141, 0.6285774107271169, -0.06389413866770326, -0.8383346844389203, 1.2563389034792505, -2.040215165030727, -0.9158536034157689, -0.07165039800404235, -2.5601348961452164, 0.451340255700948, 0.7981090666988491, -1.636691887667573, -1.5690118332800234], [-1.192792599661574, -0.12528365614357345, -2.62215297457868, -0.5267504506133837, 0.0939819129483618, 0.17625408534941273, 0.7917681390659492, 1.4091618979612575, -0.3435321852280493, -1.1022858873558992, -1.1578617120814847, 0.12523630821426832, -0.36165379041413015, -0.1424341042082178, -0.5803809413079456, -0.0819466934807685], [-0.32404588212284935, 0.24088336472631447, 0.22636347051303907, -1.353916775900939, -0.7392819355733763, -1.1574438462847638, -1.055396597579778, -0.43668167160244103, -1.22907153946555, 2.711437364153793, -0.4577381677362837, -0.377236947096932, -2.3872833868284573, -0.5091683098704722, 0.5208872816934623, 0.2849116897918738]], "b1": [2.506275968423137, 2.4391485064890426, 2.5932673728780298, 2.562577940075295, 2.863193655588754, 2.352172525272079, 2.421193236710296, 2.4216282992136877, 2.3898895630498234, 2.465544715285547, 2.347109793193129, 2.681921908110474, 2.668642012051577, 2.520687075027537, 2.4491925675327457, 2.4091965398585278], "w2": [[-0.19975539429199876, 0.40543762744843176], [-0.6826250259991148, -0.3662433514846315], [0.2852232241628042, -1.445905216552135], [1.9843877812218065, -0.17826494052662467], [-0.8033299268500964, 0.846847801068689], [0.6292384991210255, -0.35022725325032134], [0.8741063534360352, 0.5096615390520991], [-0.7752715262547332, -0.07120232254204642], [-0.27008780827817447, -1.0839691481737508], [-1.4906444037647972, -0.9078034583419912], [-0.5981374084694905, -1.8465647417293118], [0.2904225404382344, -1.5392875958767411], [-0.151827986360786, -1.0255675049136281], [-1.3735767666458845, 0.969541258455406], [-0.731850394750034, 0.9696273465221295], [-1.9342294320658975, 0.4284464665986303]], "b2": [1.5900308594669594, 0.6900597094798495]}