{"w1": [[0.08730097966768074, -1.1163185063433454, -0.7716979655647005, 0.37105811340426176, -0.9877831131031227, -0.5478190183542595, -0.3447550286607304, -0.19428425992892367, -1.2132913022653016, 2.032646191203303, 1.0967476034786994, -1.2524660144807338, -1.7846611940264852, 0.25684641548463305, 0.06769340942521831, -0.119381368192144], [-0.8195564432501418, 0.6055097387185706, -0.5562035132741812, 0.4629002708397458, 0.7121910285272411, -0.14886623200298674, -0.6485997020702219, 1.0596964644613283, -1.9406520824971953, 0.24654088162145382, 0.1856166951054921, -1.8112120256335698, 0.47606659944509455, 0.6278483880440686, -0.7874556511882216, -1.2500704507246168], [-1.1379804828748545, -0.03581557522045617, -2.907524397621908, -0.5688672464374291, -0.236495623908446, -0.397534981455796, -0.6903021060693159, 1.3757941356485768, -0.2132194319517913, 1.08788611722755, -1.197649233552324, 1.7913752255143363, -0.4473329710626721, 0.05737485479633052, 0.059169774440514106, -0.273360843114194], [-0.23840524208401564, 0.4466431266436533, 0.3491183994790402, -1.097110159941541, -0.7006722814960615, -0.8843124347450088, -0.61543100867045, -0.5110047119422718, -1.0010080449060346, 0.5568671567789648, -0.6551269972712676, -0.20550271767253142, -2.329266381029343, -0.6965581517243696, 0.5064779063734992, -0.12389645923939611]], "b1": [2.4281059398936917, 2.7546291075734213, 2.468968223186307, 2.5615804426714393, 2.82553861876297, 2.7709317024175046, 2.6504601653973614, 2.8039090596892273, 2.757090239404561, 2.4322883519859864, 2.8557293899024008, 2.615053556221861, 2.7909728093877617, 2.658326283500947, 2.4231312650300696, 2.537579194311946], "w2": [[-0.4130706877604048, 0.4150897745521974], [-1.0659271429682111, -0.027193214105452723], [0.5364507153881409, -1.4774684405437728], [2.085802452099376, -0.19285325995175193], [-0.5907445678567437, 0.3825636417999604], [0.7943817277034924, -0.13845533340480226], [0.5873814803718395, 0.03774180495626346], [-1.0311204439402983, 0.23346562407136456], [-0.0647877365568055, -1.084413936871061], [-1.4628173530677606, -1.063536757239508], [-0.4199200806668524, -1.9350564396673136], [0.11838301343067174, -1.6769206912598482], [-0.46425545279252656, -0.9999170710392977], [-1.8537685387584941, 0.86398777255943], [-0.66096413472861, 1.0040202869510477], [-1.5097525790622968, 0.7388805505065507]], "b2": [1.7718212109628417, 0.6743860396126895]}