{"w1": [[0.06800480525285363, -1.0242968615330161, -0.8510810481757535, 0.6393337606175443, -1.1965685281231222, -0.22622932471344823, -0.4508427105846299, -0.18333586835233465, -1.1161527861490703, 1.7941097460773217, 1.1168566278600076, -1.301169039313811, -1.8138371941041525, 0.4599321282053846, 0.15323585945073503, 0.20100289424079548], [-0.7468498636209095, 0.5748844253606643, -0.39280145159872026, 0.2243851394821753, 0.47226424507654047, 0.021561659482951398, -0.9663448867433586, 1.0474967286940677, -2.0343246070250522, -0.035794420730261206, 0.15264615483669514, -1.8762264437187837, 0.840105967427028, 0.6242082319634309, -0.7709149611462893, -1.3939654177675582], [-1.1863209570968944, -0.27066423300490133, -2.900482699579757, -0.5050007952162044, 0.3344424034090127, -0.15994737991022406, -0.5998510959268756, 1.4413088783652808, 0.04891818688072665, 1.1977854103935244, -1.1945856507567543, 2.0392336214678513, -0.3860128842836794, 0.036931257467878786, 0.2304226061479311, -0.6438783557286312], [-0.4306904043631579, 0.13131157912849725, 0.42169243877829315, -1.4757297855777975, -0.8008793000549411, -0.9720943828020097, -0.4300622604957988, -0.8528765085681007, -0.96496357344601, 0.09257203863518486, -0.659424742234432, -0.07986081588720018, -2.384648929357739, -0.4822405647134662, 0.8362041727643893, 0.009430770723545867]], "b1": [2.5068123301024383, 2.749261501485775, 2.578439063763133, 2.486336785783406, 2.807946456641989, 2.5389439250371946, 2.7151852164008523, 2.726012844751329, 2.575681469928387, 2.4509761304974376, 2.684688116952454, 2.8110687965412007, 2.6224140778872074, 2.381421129327149, 2.3806692301405104, 2.696118914327397], "w2": [[-0.39206583164666997, 0.6084109117516265], [-0.8927867511316164, 0.17090450317569528], [0.6454810737679175, -1.0863873893908718], [1.7806544010335408, -0.39952981903736456], [-0.7280808645726526, 0.6780899162654773], [0.5254434220951054, -0.38687628306234845], [0.5747246330439404, 0.24181481367225552], [-1.0298568337546838, 0.3188396257875271], [-0.12744469106354164, -1.0566888839271444], [-1.341395284749972, -0.8692266875545724], [-0.2780960048946521, -1.9581055703315666], [0.04170191201317941, -1.651877508485653], [0.04061912799008566, -1.0685039821891527], [-1.7523871237587914, 0.7113482558097646], [-0.4781120140905871, 0.6730640247481415], [-1.5977723307161444, 0.6052816580143691]], "b2": [1.888223390299613, 0.9953199041443301]}