{"w1": [[0.0630384216280952, -1.0288895251895225, -0.8883032077489318, 0.4828496716631516, -0.862541655366142, -0.5051510560346191, -0.44902373411662755, -0.49022459686395786, -1.2796072949163506, 1.93872684822548, 1.1901542506608485, -1.2792928797442977, -1.6569372879008402, 0.2801334314829824, -0.1317051847429715, 0.025628185770238884], [-0.263504806083098, 0.9326182802791826, -0.3778539829118651, 0.3587516324002356, 0.738990186893026, -0.13507480248251955, -0.7820988099803832, 0.7035895494915364, -1.9331939479638505, 0.33155858803745764, 0.11009340426344816, -2.0648363653684716, 0.7429432396767864, 0.6223479459121257, -0.7793397039029504, -1.532795890487008], [-1.3343029067772822, -0.2699932571634348, -3.018579406426173, -0.3825995697081067, 0.06551230828375093, -0.3456993730693853, -0.7648432231522833, 1.1159938035786925, -0.10067868622161111, 1.0911090877402645, -1.262063568578201, 1.9545729154745555, -0.2275416333405633, 0.21773926897941184, -0.2343745997512101, -0.29501241005017265], [-0.35552759618378715, 0.24455258082379466, 0.4486017136859872, -1.2240916967180466, -0.7743750681648767, -0.878104908639166, -0.4881321337530581, -0.5448447274033439, -1.2162921395713957, 0.39519000139642224, -0.8810798207747141, -0.18096761183153115, -2.392938324404654, -0.7453124880658512, 0.5286289631557965, 0.39196722811630186]], "b1": [2.469121144361396, 2.4402364198738726, 2.552028676747281, 2.7471465919597695, 2.801792155468242, 2.471111099052408, 2.5368824015179907, 2.8713814054589504, 2.5970609559033346, 2.2097067398552515, 2.36866908849468, 2.6624985333970708, 2.620138336692986, 2.3679579198349536, 2.1265867461863337, 2.359515119188589], "w2": [[-0.49131000082667914, 0.49258503495253425], [-0.8822462705358972, 0.08361340923447896], [0.6260815659699701, -1.394833540727034], [1.9136050340435835, 0.0429019000820372], [-0.5263749504320486, 0.782170933296833], [0.704709263943211, -0.7039718644040498], [0.5103987272029737, 0.2541297389364606], [-0.835341610573809, 0.17172639067361045], [-0.38777717294533776, -1.143904335034641], [-1.5192824796871744, -0.8724141776672506], [-0.3060884232636786, -1.7964881893309663], [-0.14203255457288416, -1.4973263590921295], [-0.3834614010124647, -0.8330258812727663], [-1.880071992207277, 0.5483170259779795], [-0.20321401701895736, 0.9829936572003163], [-1.5060802940984142, 0.3792244254231052]], "b2": [1.8074028297272053, 0.6718730932420194]}