{"w1": [[-0.06620189389518014, -0.8602499424571566, -0.8003649512071378, 0.4873740368175351, -0.9079129288154436, -0.17834418694305765, -0.4263596561707703, -0.26984310852000926, -1.6468876026558799, 1.868314665155741, 1.03653172898769, -1.0979853278190306, -1.6316398417791913, 0.1162611750018524, -0.26349393360205076, 0.040558145839949405], [-0.9884378670203658, 0.5321158408889308, -0.4348447213934651, 0.48686849644184466, 0.9131586667047126, -0.16518614055274106, -0.7928358765714689, 0.7526670722250993, -1.8073104321954874, 0.524931514052057, -0.0009808213996843063, -1.8812955272267038, 0.850365201588334, 0.7968490275546941, -0.7821666125161877, -1.1768325243641853], [-1.4607249638294313, -0.2686473493450526, -2.795121877130655, -0.5354251013728277, -0.019065221353011697, -0.4531047247255886, -0.7857364637644058, 1.2011339482016847, -0.19111051025546819, 0.9999469903085304, -1.248080711919581, 1.9147962412736161, -0.24181062779600251, -0.015426986660463174, -0.21741502532681767, -0.2992654622608705], [-0.24480974723788232, 0.3539782212795896, 0.16215449435612658, -0.9979112813754273, -0.8701282341492693, -1.0349688532020571, -0.7873258692063858, -0.2728415383572579, -0.9644338272950481, 0.3166917320047248, -0.7711570182031838, 0.021708513033832547, -2.373357445294803, -0.5355444876034, 0.5784704201202591, 0.038577747117115146]], "b1": [2.6886574996151142, 2.4767290088807514, 2.6160949690879334, 2.6291370202770565, 2.5748477899894286, 2.696876170928109, 2.4262174649757564, 2.8843207442638916, 2.639029132779908, 2.464203795214061, 2.7663828437009057, 2.5846356486903135, 2.5935366579628605, 2.435608329667908, 2.4183227693906266, 2.5749691235396464], "w2": [[-0.31625584681885166, 0.26535904932833543], [-0.8069502135839983, 0.12073561395684812], [0.5000568099439069, -1.4719342297645723], [1.9494840881304862, -0.20773383660828948], [-0.5354420393201117, 0.5557265105495545], [0.63305389628613, -0.8216798028189428], [0.5333006018408223, 0.295285277919105], [-0.9122445261366042, 0.3733415788348548], [-0.3264316233811766, -0.7807233513107641], [-1.6196737050687622, -0.7252911231330276], [-0.35741209563466925, -2.1577626762171596], [-0.14461424146168417, -1.7163216988991574], [-0.06821907355188465, -1.0362281443817998], [-1.6771123519161304, 0.8324907377162448], [-0.6203384745571332, 1.0417011756627095], [-1.622981349764462, 0.7521849112635058]], "b2": [1.823437222253159, 0.44943941532113635]}