{"w1": [[0.3514459656170857, 0.43726739804230774, -0.7428885174020918, 1.7107933368207882, 1.0685559386679127, -1.5365070647389238, 1.4764628966252533, -1.7830405467495125]], "b1": [4.631920056544215, 4.665299790450301, 4.787129513298298, 4.500005456405589, 4.526243894530897, 4.975802666607031, 4.6560100132229065, 4.410243853311738], "w2": [[0.5141563610939408, -0.5199273059158966, 1.8182145568054955, -0.30660773469766417], [-0.6614350651545575, -1.5605146917977626, 1.5042196916078239, -0.4302758089978507], [1.4233640808135102, 0.024389089493523433, -0.47859867349483276, 1.4568537821671221], [-0.6822815584949379, 0.32073652620793397, -0.1527254659797168, 0.8502006737456912], [-0.5187254397814026, 1.2232413658712395, 1.5477752490692118, -0.6308458727738426], [-0.6720395307309831, 1.0323585389288779, -0.9551616509217041, -1.6981605249883467], [0.8457833279858218, 0.5993087813633449, -0.9480715349884409, -0.8110016186998528], [-0.8147770145243433, 0.5643747451510364, -0.19777701213538348, 2.3720430763563045]], "b2": [1.909134170747244, 4.163340908331117, 4.213476334003245, 4.293753376875801]}