{"w1": [[-0.9428092416271364, 0.20096558554347185, 0.8432412694694883, 0.09889618327571252, -1.6869307603900274, 0.17897893830217826, -0.8240596391307556, 0.07025655357416404]], "b1": [7.602325390992441, 8.064966042434724, 7.548810036425833, 7.561834791574605, 7.701360678258142, 7.531640568357276, 7.1963013977604975, 6.999636644851238], "w2": [[0.3414548097905641, -0.9029504645747412, 1.257332992453827, -0.4523381227875297], [-0.6134528955837427, 0.11970079740064943, -0.4828732642326992, -0.36197368883416936], [-0.38326279123435303, 0.6153963000649889, 0.004047798180004045, -0.7075687294433705], [0.5443838333063797, -1.859958346981359, 0.15895890921462075, -2.081410555720849], [-0.27103249220238723, -0.8302324770188587, -0.11219562853624523, 2.138030977528265], [-0.19355655183528464, -0.38281273838792407, -0.14393943589772926, 0.43649922254311235], [0.48595936705641807, 1.6992351426108827, 0.3453602424331274, -0.3704344108699318], [0.8608502529783683, -1.6523200087260002, 1.2546633659754618, -0.2924519340485821]], "b2": [5.953256058852821, 7.1784283540850735, 6.69981115583794, 7.328027626180133]}