{"w1": [[0.5428021632062027, -0.4765012976629256, -1.5666884596769104, -0.18660531716425982, -0.8683869989258626, -0.04979462444232095, -0.3492553228318924, -0.19275311515931096]], "b1": [6.6314878291815305, 7.4705019066567235, 7.322834841436054, 7.169910281728151, 7.678338211460321, 7.670446332593975, 7.126847709220862, 7.501276107977057], "w2": [[-1.0979294474754897, 0.4433511139096367, 0.32474537967469397, -0.5478280966792083], [-0.6275212542022699, -0.11576083759996778, -0.41831572104529197, -0.9099666290120235], [-0.8090455507549448, 0.5525147201402665, -1.030288106508781, -1.3960209414621407], [0.06662435012160602, 2.751455029016206, 0.03748728809901018, -0.7784666870093242], [-2.081226993903606, -0.07035194418190534, 1.6386135283704757, -1.0091777536516169], [-0.6404532093227105, -1.7737883756539516, -0.37807669462655424, 0.6132163751614572], [-1.1434686482600636, -0.05609331845195843, 0.284067113106142, -1.0188726903811427], [0.9538116942075945, -0.42981724686700606, 1.8374447707102213, 1.246018169151981]], "b2": [4.733468939877245, 7.5529630010071065, 5.392713039322193, 6.588046131694828]}