{"w1": [[1.2174615666331083, -0.41217490671509177, -0.8953492526114841, -0.3323892053404559, 0.6313217894488151, -0.3089531622158036, -0.7217340133941131, -0.09467806123908276]], "b1": [3.0146128986641547, 2.9626122364147554, 2.956516095768152, 3.3173863125940013, 2.6875729281318463, 3.098435476536573, 3.078352884917207, 2.693366251062183], "w2": [[-1.3338349673226289, 1.367740064443582, 1.0950603546541293, -2.5821577018343835], [0.001492141754519491, -1.1469771646887927, -1.5351277814972804, 1.3997349573692128], [-0.8371788806930571, -0.3430625868524398, 0.8935952434038912, -0.5984705130278609], [0.7800338048908723, -0.36721233278365295, 1.3228082583903502, -0.10640850053552912], [-1.305998552499657, -0.6170198987518911, -1.4493430832170417, -1.2169510168075164], [-0.00043245996836324685, 0.8255937796503996, 1.7911074766488815, 1.493399098006999], [-0.8881415518390161, 1.1896449521508734, -2.1078227492127337, -0.8421973412559502], [1.12999559824506, -2.208866152028613, 0.011012989644017535, -0.34802552320120284]], "b2": [0.6502724826531503, 0.8143082947776159, 1.83030164035203, 2.2690842785828225]}