{"w1": [[0.4765776603075734, -0.30725577473597576, 0.04608923827577609, 0.16862821254571722, -0.40619166353526004, -0.43927834631626106, -0.642054724778755, -0.9414641228833838]], "b1": [3.1671363821175946, 3.047797914257761, 3.007496032840943, 3.2221267648137086, 3.6495216336079834, 3.1217193602193807, 3.601377302443515, 3.3820992305690982], "w2": [[-2.475965875302997, 0.8439166397046751, -0.32635899867640256, -0.36619869980037206], [0.4744471082580429, 1.1284201052307286, -0.9517550430968107, 1.8570552490056407], [0.017780765025911804, -1.4866356171247737, 0.06313764331869161, -1.6911415537011898], [-0.49992657343924374, 0.20874127954680863, 1.029752300321171, -0.36571089292999137], [-0.9825771391451733, -1.1048750042847932, 1.0728825248700466, 1.5788469089154347], [0.3209134408869815, -0.170063175996939, -0.6816909013705706, 0.9779650986996891], [-0.9857402025715076, 1.9569859077987992, 0.8491806789651916, -2.6395518213908677], [-1.3155819089223126, -0.09692000757947422, 0.8073383026530591, 2.020428914917545]], "b2": [4.483603055239109, 1.6935208854769803, 2.8503607759612195, 1.2213872677285482]}