{"w1": [[-0.9984037873152409, -0.3538735715508856, -0.13739731959524965, -0.2606400746832422, -0.30278830609981416, 1.3220290505897931, -0.7122088701809006, 2.405196062954504]], "b1": [5.357284477313717, 5.131674510489191, 5.272154075732541, 5.739093501032943, 5.178796957988187, 4.975865336510451, 5.454636568160573, 4.939260962675818], "w2": [[-2.2844462317232628, -0.44216683646102434, -0.9373820060629023, -0.36982183437712707], [-0.30879238885754334, -0.07730402449726162, -0.3716595879602954, 1.1256116863809444], [-0.5133965577465094, 0.27584721862166484, 2.7302997434409364, 0.7385854891398083], [0.819502257544141, -0.1080822575185479, -0.09386406459366281, 0.43270272948136335], [-0.056258764762137405, -0.39521014480944605, -1.1045451787402434, 0.6708757380163931], [0.04139168468702825, 0.739671333097571, -0.044529554766936, 0.03509985188816607], [1.512045930426389, 2.372360012191736, 1.4412594441807967, -0.0038847069494487158], [0.15169237940533323, 0.7479903709812121, 1.007501186924773, -0.7276970160632872]], "b2": [3.8539327438058892, 3.0817628926537717, 6.203201899219859, 3.681939215039993]}