{"w1": [[-0.3866934861702198, 0.5174377921695915, 0.6274348756255493, 1.2112487891633368, 0.6677846496917416, -0.7715901130440669, -0.4892583375184093, 0.0020332642861726202]], "b1": [2.30700695113092, 2.482307838090022, 2.559361545815532, 2.434785366296426, 2.7749682135751637, 2.528756818526216, 2.427950389928086, 2.5897240800958583], "w2": [[1.2213903079389825, 0.5442981247015597, -0.0443455109216597, 0.7344355392170905], [-0.23394080950494844, 2.5911103703187788, -2.14642238972396, 0.2744591921581834], [-0.9393079612643145, -0.8679100500114465, -0.6033207696959269, -0.1112528343245347], [-0.9814860576089887, -0.6830165637960894, 0.3811712375851338, -0.5961242006688078], [-0.7659292941948844, -0.9426131432166338, 0.7600070475924466, -0.9037228543430744], [-0.7186933997355871, 0.203727748998135, 0.18571163081749273, -0.5427639420170286], [0.8251344764528603, 0.7035959061228099, 0.4692794417982014, 0.8046077314310602], [1.2941543600955918, -1.5102625189048393, -0.7144845977303779, 0.3651493523618368]], "b2": [1.8425670866770514, 1.4999537138745351, 2.164825751601003, 1.3601193914539296]}