{"w1": [[-0.23739163765630725, 1.2201030296490658, 0.09373417404892018, -0.8932798542014199, 0.1347344054759041, 0.4617411551093941, 1.0036425585583868, 0.2952949892512369]], "b1": [2.6219297243723987, 2.8347593708093553, 2.9820448408473146, 2.7332202302464443, 2.7587422509366437, 2.971159444185854, 2.6413442296626113, 2.7513181011442827], "w2": [[-1.0431059749242353, -2.6905090811678143, -0.6312603922985809, -0.541214635717678], [-1.1401484177929364, 0.4918788306649053, -1.304985429819001, -0.519763731715579], [1.2991336943522644, -0.06046087748914479, 2.767572252579447, -0.16207959999476132], [-0.15498894702203894, 1.7741281227922308, 2.255361567631012, -0.4315633382575035], [2.447909099390942, 1.0185997396698887, -0.520130614736026, 1.0914912221451905], [-2.345810695230414, -0.45756877884586156, 0.03092832487767172, -0.767923324284626], [0.133247226460972, -0.4572998066071337, 0.6563178470634031, -0.5436741806397593], [0.2013154827327021, -0.817193613363443, 0.3613405713069681, -0.052437035058944974]], "b2": [1.6385994636096846, 2.360257977335848, 3.6334703729172704, 3.3564851068100015]}