{"w1": [[0.9907758947028682, -1.6717231378237765, -2.0987466814426705, 1.032803210534766, -0.19278516089559108, -0.9889251566561558, 1.8336324875018708, -1.4598239912515503]], "b1": [6.477530805956031, 5.613304638883845, 6.22793686066713, 6.459239670540908, 5.511146052938982, 5.90679474226425, 5.6466625798124035, 5.857665693894212], "w2": [[-0.6507795054388832, -0.8514423893889966, 0.44562361573744463, -1.935732379011637], [0.3249388913423108, 0.8053847567991435, 1.4348611760714927, 1.5433728393402015], [-0.6009368557040495, -0.26115837102639106, -0.5513086733024096, 1.3367442100979172], [-0.8903100822650984, 1.1818296138770856, 0.1663026775388063, -0.776281532814448], [-0.5689787538309183, -1.578775745793142, 1.705516292658994, 1.5384344688091494], [-0.2854805915445176, 1.1373245613825398, -1.2418452161962046, 0.2468156446303112], [-0.33098014300980283, -0.40408212442544594, -0.6073139166775826, -1.1276427119360393], [-0.2894908847545507, 1.581285286695968, 1.0326112342014748, 0.6833720461409236]], "b2": [6.29649815267955, 3.6752957474993373, 6.266607954079884, 5.522955802719977]}