{"w1": [[0.5669411051889163, 0.8681933055839389, -0.6106258892193523, -0.4265349288447977, -0.4724093520761157, 0.7529095312548447, 0.11542841536071273, -0.21860983270683623]], "b1": [2.551552036578544, 2.3252017769451827, 2.5075895216665804, 2.5377833251705484, 2.6251246903173437, 2.7493201956999624, 3.0649413919158746, 2.9553872148482085], "w2": [[-0.3759185108143878, -1.8663526804198214, 0.2905463097295623, -0.5862846909949144], [-0.9653454558181829, 1.8353934215967527, 0.20289652816642456, -0.5080606633705205], [0.3446727459974124, -1.7780469595528754, -0.19095849154053463, -1.2083034109281778], [1.2029845583985468, -0.32155655813771, 0.0013048126563637158, 0.1423443092948499], [0.1651873325196162, 0.37745647377216074, 2.563646574899997, -0.5686192952837396], [-0.08353096851083194, -0.3982983463348784, -0.6426847601575083, -0.3725846035839032], [-0.37383019894323277, 0.17849167768001034, 0.8185290902078652, -1.1764771503294367], [-0.026854303104221863, -0.9449402161752184, 1.3078552263215277, 1.427059009840575]], "b2": [1.7069540558016747, 2.348336018199126, 2.6856038666041693, 0.026605995267806846]}