{"w1": [[-0.16440910842862544, -0.8283742645516569, -3.138653835754006, 0.7805492546147578, -3.093685106657293, -1.2538584392212637, -0.07722395028140445, -1.2199850461284336]], "b1": [21.187976111148178, 21.517101026177755, 21.20018622390621, 21.70888046568988, 21.875727022176545, 21.583376026473662, 20.657587582158936, 20.92035758903548], "w2": [[-0.9288834443458565, -0.49342809293524553, 0.9720691883312477, -1.989326485565246], [1.3112373977715515, 1.9069968098354078, -0.898949856010088, -0.14446920696068669], [-0.4190520095559017, 0.6758827750687344, 0.9830083065467081, -2.6729716356036795], [-1.0535390331736127, -0.06600178481956684, -0.3609526586983001, -1.216225568557335], [-1.66068982266671, 0.6471811529042467, -1.17075015903382, 0.7730621629509395], [-1.7443944079293283, 0.3791431216125286, -0.9853143002652811, 0.994889185293108], [0.7564283048357754, -1.2621307311508005, 0.5347375387000626, -0.001705482483898138], [-0.21928438294416358, 0.5641114016034126, -1.3231026418662164, 2.024594646227905]], "b2": [18.91491483386185, 19.721483148696926, 20.163144185295625, 22.3653578917224]}