{"w1": [[-0.01864941154061689, 0.8141443104491548, 0.5469303754764797, -2.2082808549361426, -0.7867125284087877, 0.0018841475861237633, 0.4147104060742367, -0.45606818712956776]], "b1": [2.5614805044932663, 2.6043636716141165, 2.566083487691201, 2.7142664282236044, 2.491607864751316, 2.630384978340561, 2.7003817214431534, 2.4960593170972363], "w2": [[-1.2348006233698652, 0.22655862219320128, -0.3513679028345031, -0.10519104774310373], [-1.1472150119080542, 0.410013376699721, -0.2843101503546076, -0.26746125415950744], [0.4353903155245702, 0.588100193521985, 0.06695121746456957, 0.7398290527874711], [1.2653663858182318, -1.031650217468745, 0.7568389032373877, 0.479378303967566], [1.5427535989817551, 0.02644211715861107, -1.5191650421371348, -1.984417302289307], [-0.17593357148986388, -0.6744172701722809, 0.3995507159867233, -0.684715190414971], [-0.25118175146624977, -0.7707894490337697, 0.6546367946193539, -1.20088846899679], [0.8269325681529843, 0.3537965707526196, -0.22133331864445155, -0.4433738404171895]], "b2": [1.6231591916432029, 0.9695997749938032, 2.91826979935467, 2.4604224188103907]}