{"w1": [[-1.405702338357478, -0.4270338663687729, 0.2290998490501289, 0.9764179321196137, 1.6080118594283388, -0.3812976792379744, -0.096106291389223, 0.7298697318511078, -1.0778589859039573, 0.9335309915976868, -0.9680733887284602, 0.27443890167244034, -1.0712325885809093, 2.080367045112572, 0.7063559510254402, 1.8101058458032604]], "b1": [2.8295059277475536, 2.7010433530590894, 2.5233105831817118, 2.659910792817997, 2.8792102336953675, 2.469244469936424, 2.6906932930614853, 2.773063897009826, 2.4061668202597426, 2.5819271052798958, 2.7630174967192738, 2.6384842304615215, 2.707938773534108, 2.643154545331567, 2.6082664603950647, 2.37868592182165], "w2": [[-0.2251344253938346, -0.012711025256610706, -1.4204955383790805, 0.520879121538131], [0.06740089120542274, -1.9483343132079671, -0.08293690803354484, 1.1282742523920217], [-0.14164124252632387, 1.0318371503067127, -0.10317985616535226, -0.8513792342709045], [-0.9550282021545016, -2.203418923186782, 0.5366957258535385, -0.583815002100263], [-0.14902022462160125, 1.4706841805329987, 0.7657498077710321, -1.2148841747862742], [1.493225032863581, -0.7717047398130803, 1.3025020182654843, 0.08606627947029563], [0.9258685978171719, -2.327380238801564, -1.7586831772068905, 0.5923321732781051], [0.2964468298735874, 1.3984504392284371, 2.2368762634079116, 1.192471925680753], [-0.1612625119159349, -0.8930616831854284, 0.4318668179354544, -0.6390545378087489], [-0.302947494812237, -1.3639916785547177, 0.03345584841371985, 0.9219887628295044], [-0.2043287893265117, 0.576622833740465, -0.39049529690600165, 1.7288332830673063], [-0.11443245404668637, 0.09189916382150354, -0.3633687080811261, 0.43842310462781003], [0.2110400729366729, 1.035172988500634, 0.20873664959164717, -1.1181005263496815], [-1.0286016257199795, -0.595576472527086, -0.9991218831101283, -1.8572244424734436], [-1.0401421825255461, 0.5941775920977097, -0.6381856439909321, 0.6738131813977881], [0.6808296686393539, 1.2508907177786706, 0.7197751724325695, -1.0380695334704293]], "b2": [1.344839359774653, 0.47936739606420165, 0.5444029062326031, -0.5996271335042823]}