{"w1": [[1.5127354794217727, 0.6492708199470678, 1.2932942574138377, -0.37501697216365126, -0.07235873704985418, 0.770940989697929, 1.477698443192097, -1.2100024069302455, 0.36028711844782213, 0.36928809554531444, -0.508383871838028, 0.3594957945150117, -0.849371560630265, -0.27606174691957464, 0.02866128683855887, -0.963818633028637]], "b1": [2.468082369334172, 2.873760952748643, 2.6839388553186625, 2.489486992648951, 2.407507702189331, 2.60225436200931, 2.8167395440074783, 2.8054090755645236, 2.590803776588659, 2.4612240532651555, 2.5187209545909046, 2.4386618916679947, 2.5333367328037046, 2.589336918943967, 2.5694537185462374, 2.563947891203192], "w2": [[-1.0222685268056064, -1.3688527566206776, 0.7396494712463987, 0.6061780885442665], [-1.0602605072092295, 1.1996964562880186, -0.3489645168996005, -0.855632812768656], [-0.01307668939946658, 1.7743362637356175, -0.25176409951063006, -1.657623634497007], [-2.7004634581722295, 1.7151079330794006, 0.8024827017150264, -1.1359697618305544], [-0.5150673523206207, 0.8907478470415049, 0.3038164656399695, 1.8047037869565448], [-1.1044307958322364, -0.32387003310336715, 0.07831003495959224, -0.23440096754559636], [0.31847573268236495, 1.1780267391958485, -0.2355767703356354, -2.7983387546763066], [-0.14062841284599564, 0.07393355252965915, -0.14500119488811214, -1.6259800887817895], [-1.754336007631423, 1.315244962123823, 1.179960432334041, 0.03726560659966348], [0.6230612820869785, -0.2531280849898786, 0.11791963186017851, 0.1985474622364909], [0.9992533252426857, 0.18703287745074823, -1.1106912609094262, -0.21304274432057624], [-1.048557645947136, -0.5965297850476385, 0.3440010997651198, 1.1964484269587317], [-1.6375092757569434, 1.1063164300453916, -0.6151534546334168, 0.6158736732891251], [-0.7106152902628898, 0.8257773111821546, 2.5012726513667185, 0.09164540118121385], [-0.6851041785320275, -0.3144393803403585, 1.2358927758576628, -0.7890142502516797], [0.4998363076646108, -0.5594018604124962, -0.716782376391241, -1.6040599356035963]], "b2": [1.3009567705137788, -2.0515924603048385, 1.3203666326624488, 1.300822946055406]}