{"w1": [[0.1489631695832835, 0.6729771087440057, 1.3423535065065146, 0.6362537744614956, -0.19172016184901142, 0.2987929441175772, 1.2116585761134349, 0.4709439296959539, -0.16460340472822488, 1.0371164121289562, 0.11160429034735059, -1.0563194209284839, 2.7060943544377976, -2.3123925959102825, 1.0827615487290636, 0.17342761889467392]], "b1": [2.8495972239963243, 2.8825498794785975, 2.3228975869115516, 2.2442753740533634, 2.5477665946183703, 2.836880192994939, 2.536625641057411, 2.788203459897039, 2.5840536510535252, 2.5541218311780938, 2.6889361442052166, 2.546220493769689, 2.5418211660103474, 2.5256583318989017, 2.40514810064209, 2.598170769423514], "w2": [[1.000024036264573, -2.4277073416585595, -1.6944328916294775, -0.1542650492330196], [0.2766584581089441, 1.2113293760369814, -0.21650120389519048, 0.2907867880951587], [-0.3224018162525288, 0.9036871273868259, -0.8016331855278392, 1.6163088216270118], [0.006763978559710976, 0.028244859420995014, 1.1701992179435352, -1.5610994602336494], [-2.449998248502767, 0.3919531958048557, -0.22145943756748637, 0.688101630562403], [-1.5214971938096782, 0.7433606632579284, -0.4830584521704812, 1.1590023511458565], [0.21164871778567157, 0.07759920782413565, 0.4718010363866537, 0.6825369377327829], [-1.0738318461917502, -2.1372313313536146, -1.0548238099614689, -1.1563689729095439], [-2.648843112069396, -0.22994035055189613, 0.0519640675721027, 0.14745088395060202], [0.23706709448577357, 0.8621824084606673, 0.16289370513110485, 0.10431877984250756], [-0.8407197153759637, 0.3767127029160854, -0.28821819635848145, -1.303283917645447], [-0.4492963180470779, -2.659521791446784, -0.7511938636722795, -0.764378494070419], [0.1485828913530223, 1.805182135912139, 1.0287055826900504, -0.9544731244998493], [-0.1522320887940826, 0.04420592509211413, -1.771475488164192, -0.21326506547346857], [-1.639737027234193, 1.663359600039274, 0.5930480120737798, -1.0990699294560429], [0.6786232206527922, -0.3856384913642119, 0.10699659207063125, 0.8476769315394596]], "b2": [0.2471493389627013, 2.209760822392168, 1.682595960218775, 3.8130968208811304]}