{"w1": [[-0.7625026995004236, -1.060079327446375, 1.942982372426025, 0.45838232930856776, 0.5292534043466327, -0.3302324364631135, -0.31698166568795605, 0.14348511882157927, -0.7760497030091681, 1.3508407066081167, -0.2205320247855799, -0.3039050208097238, 2.039245190787257, 0.44888355377726724, -0.7151590296388917, 0.6628956874911867]], "b1": [2.686967540408774, 2.807271959214155, 2.4901407472223918, 2.5831816887028176, 2.5212266006498796, 2.6012806827544566, 2.8889151564933884, 2.7775645468360683, 2.8043526286471026, 2.7062627946532802, 2.614900825291797, 2.799971035127695, 2.4882792658878268, 2.436912670510513, 2.4368938580635917, 2.3733159212591604], "w2": [[0.5790150875230395, -0.9381773357978154, -2.4951554229950252, -1.103173401098793], [1.297263772647826, 1.2151560237438346, 0.6820285045944101, 0.061838945857175295], [-0.7177769529556768, 0.4412191626883475, 0.5973441174389286, -1.1562043037698153], [-0.849849172383907, 1.6215021352155787, -0.4662952066926187, -0.4125982944324225], [0.6377235743457144, -0.0056495894227295285, -0.8879172200402436, 1.0009730408745117], [0.34807704461986977, 0.6127835771927578, -0.42431500621149437, 0.8913440126707484], [-0.9521677715166857, -0.18805810663796102, -0.12314241024869105, -0.08386821103271824], [-0.552712991039999, -0.3051432218735054, 1.1381707112060975, 0.3086140313326176], [0.8271901305780449, -0.5168398021021983, -0.9683888726710184, 0.6421156000359195], [-0.808737830092855, 0.28405114028264977, -0.18613298433042796, -2.1768008245432413], [0.13050807143007334, 0.8338677336346154, -2.3942214217304905, -1.4309126713940485], [0.6394023092053335, -0.16117304885654687, 0.48146038545262665, 0.976349212576581], [-1.2106414787632087, 0.14588848776166846, 0.3029855295476622, -2.3666624677137604], [-0.3029003322750271, -0.5513790281420397, 1.066932043404334, -0.44788492028771953], [0.8708183569756943, 0.441434461354451, -1.3906486061627652, -1.861073296058468], [0.40883602506655115, -0.6454324428500816, 1.2049373698738988, 0.05013390642117474]], "b2": [1.153034336825819, 3.4027578263322873, 0.847912133335979, -0.21598911573604984]}