{"w1": [[-1.8524493620854208, 0.801242060822757, -0.34123040325022513, 1.3987329973471612, 0.4641060485944977, -0.8402275268866912, 0.8610720326643466, 0.6091538254631946, -0.17309752735422235, 0.4956400010030579, -0.17349711828179748, 0.013913006621131846, 1.1872351069800264, 0.9967337333160818, -2.1274287033917476, -1.5263321558563185]], "b1": [2.7239956745363574, 2.3568043850611673, 2.603515191823861, 2.4243334299680708, 2.584253177124193, 2.6087963666140603, 2.7151895067615825, 2.526872126665912, 2.643548099470128, 2.6624171579824747, 2.5126327782924514, 2.519320532310952, 2.6528617844643954, 2.543718711341908, 2.717044699696047, 2.661514907646223], "w2": [[1.3500560659489413, 1.4220782284180589, 1.1684498812702449, 1.9846436981076032], [-1.0581607063826763, 0.7669272598421759, 1.0223439451204686, -1.04519858819838], [1.0830647085699536, 0.4100242884242151, -0.6400027270934091, 0.881016424144443], [0.03619161567992095, 0.36116164413439, 0.38219546331923293, 0.7789993601899761], [1.2704143729472275, 0.20194358602963855, 1.1127389155156222, 0.6318502250356588], [2.685979206686073, 2.0707582787136065, -1.3313549801856406, -0.6972373422214607], [0.30686710917478227, 1.347246837403398, 0.4629911807147993, 1.7008539854309908], [0.4688443309158049, 0.607553750061588, 0.053384809079345105, 0.5144446547410684], [-1.3669912595794036, -0.6024968814268787, -0.03576424495490721, 0.5097511665279302], [-0.7593283108972722, 0.15906861676714612, 2.4079751989553624, 1.351634462299854], [-0.20737265716466796, 1.1867368165056318, -0.06034856333783929, 0.2746148788481004], [0.502194216819124, 0.4902141182194428, 0.2576157193834344, -0.40328466854289013], [0.3423671040361713, 0.00820594681279696, 0.9392166847844662, -1.1605621888808548], [-0.9843224512061574, -0.6846169390124578, -0.32410402265689786, -0.5225073141865042], [0.8386283602036958, -0.25857965106168224, 1.4887358000913644, -0.08860791912205865], [0.5758605723463424, -0.3948749497293004, -0.6752413843995526, -1.4403660299378138]], "b2": [2.480925023320787, 1.480620222039995, 1.623032778315081, 2.0440129208496054]}