{"w1": [[-0.8696202551070596, -0.9082603522552414, -0.05762248846790975, -0.8558363513952674, -2.6157563459483866, -0.4129144947595741, 0.3460458849716846, -0.5138010837543503, 0.8401151422241181, -0.4419371688802618, 0.498437567925357, -0.16840555375934227, -0.44053373527576933, -1.0347877942709853, 0.7289773613965005, 1.6135710629048012]], "b1": [2.3763839654071712, 2.7977323409731296, 2.4691162323789757, 2.3574068809142448, 2.787485570572816, 2.6059166110382077, 2.440336382658788, 2.394716172234178, 2.6132791414715215, 2.5733521176927243, 2.6639767384267046, 2.785347203212836, 2.4589751315073975, 2.513444891836546, 2.464172805411393, 2.289713564664218], "w2": [[-1.772446765680985, 1.7113419298098775, -1.9094807770385844, 2.0501691975511167], [-1.782630950788642, -0.3806502419474827, 0.5782879587043706, -1.5751783965523063], [0.5479806279379712, -1.0691982428921778, -1.1998321205953455, -0.7328942069041117], [1.8853766116634285, 0.202937616689095, 0.9792095527909068, -0.7828740609155668], [1.2162544739892054, -0.10197086490861765, -1.6550439213126384, 0.4057589529934755], [1.0488985193495879, 0.41778109112336453, 2.1250015645316176, -1.072068880049328], [0.19637371218183405, -0.5760855551701223, 0.5155591714040355, 0.9224705970134435], [0.5208998630080751, -1.4465921170254885, 1.3013407963797485, -1.4430862839410024], [0.5528609235613245, 0.10643625764953157, 0.02598913377385581, 0.7127588271151192], [0.23323835600090012, -0.07308224004620777, 0.9362776898401581, -0.6454981690485868], [1.1233151216784094, 0.3764546906542559, -0.5972756395877521, 0.02735397395309086], [-1.8273672179224387, -1.7172163973183012, -1.064177318244054, -1.6087405741636955], [-0.015929430353020524, 2.606658003697732, -0.3050695892651865, -0.6728443161968469], [0.29643773669150203, -0.6521463413343124, 1.3254320475153722, 0.8817319964858671], [-0.5864214924263821, 1.364939990625059, -1.030980051432249, -2.0317362457248733], [-0.47632382148519703, 1.1377100385122567, 1.276443140896967, -0.004071001517174072]], "b2": [0.007594780251993611, 1.0086103309091303, 1.9286500953870676, 0.7539082735249052]}