{"w1": [[-0.5299380876302627, -0.6487659061433668, -1.7141463209323298, 0.7224918678284592, -0.6088082681746454, 0.3422092902596986, -1.9876556091285078, 0.9132772037904313, 0.24386972438634413, 0.909402822578919, 0.10342065974513598, 0.5837853061494056, 0.018322223819478192, 0.354486278218629, 0.44226828355113984, 2.4097659141028887]], "b1": [2.6216145446465715, 2.6844968381855314, 2.3212052943049577, 2.559633030559811, 2.6302616365985547, 2.4122523427006004, 2.458731514716994, 2.5381760023313635, 2.6427609310894176, 2.6356618293735847, 2.592554354951775, 2.402880200069094, 2.6031126011019556, 2.708688627772011, 2.7891738205081267, 2.2636680192143537], "w2": [[1.3889011626059606, -0.61306652866522, 0.3245200370739054, -0.7717941219140375], [-1.160136691508387, -0.3573086544170811, 1.4695543939156102, -0.24905696538512181], [-0.92674562044123, 0.34648276167337055, 1.253616643940782, -0.2457540839121901], [0.21700858849417434, 0.7119063859198291, 1.062522251178328, 0.952760734763281], [0.3713154640178992, 1.066670230963044, -0.06622337533884187, 0.660309954731306], [0.19038227943634123, 1.340829378162003, -1.8916991448280132, -0.00031592218577043696], [0.18945174134517026, 1.559745713085357, 1.2235261519019285, -0.23047077591067885], [-0.3797720747644723, -1.623361586898473, -1.4851261288427915, 1.0700799565121293], [1.1912809728014673, -0.6210065318762805, -0.5904771947660017, 0.8238087434121458], [-1.6754463977263918, 1.229314148440997, -0.48347271553943894, -2.9508494609319746], [-0.565062035554481, -1.7533766645251407, -0.15133085074136066, 0.26676410597350775], [0.0014779266085686305, -0.5729500393498059, 0.23846164923230972, -0.9097096963017054], [-2.437851915249802, -0.7270228062802687, 1.2387591180478201, 0.4514858490915624], [-0.2911591293553272, -0.11475366431289413, 0.327289399679878, -0.33821637411876704], [1.4670782400227453, -1.0147795569856224, 0.16779721545696924, -0.8531962357498803], [-0.9831374210380849, 1.463965655367095, 0.3048094066228013, -0.4636720107370315]], "b2": [1.4634155107818505, 0.9877775644741525, 1.3564322533558233, 1.1267616621188459]}