{"w1": [[-0.457951289478149, -0.4340086922944581, -0.3630473978364098, -0.22878366320980326, 1.7014961371071857, 1.636627717291708, -0.1991122002902105, -0.9808066474697223, -0.03147047940829198, -1.4358540322992033, -0.7207252862821646, 1.0769006046445746, 2.1961386418792266, -0.49490639489554145, 0.3098211101191506, 0.5641230755449996]], "b1": [2.6441647701169106, 2.7283204509076238, 2.4927143537585326, 2.9456396594984136, 2.3290363862455896, 2.5678632513457864, 2.651345700165458, 2.3982531027790053, 2.7201174658373155, 2.405233781775832, 2.603082762046238, 2.812486204867986, 2.6424272525420953, 2.6604088318206633, 2.3594711895222793, 2.3790276469574354], "w2": [[-0.2330756188536462, 0.37247822841939626, 1.3138206045177043, -0.05838595378825913], [-1.127844969643565, -0.864879225177279, 1.058797309465931, -0.3883532647088432], [0.15907500520626433, 0.36604889430569043, -0.056412246990971485, 1.4556383739395153], [1.400183380227288, -0.45100044741021406, -0.45627754214250343, 0.7249976618690559], [0.1588088037901341, 2.046024729932489, 1.5998394811527412, -0.12410930935239367], [0.16221027539920882, -1.94646356530613, -0.6351408070101888, -1.9499703860184758], [-0.3336990567674627, 0.4104321780657073, -1.3008711028535709, -0.32305392413906575], [0.38058449628732954, -1.0708958924962668, -0.3286149798015596, 2.426650758865606], [-0.3838749589055864, -0.23103689077990056, 2.0880452536435907, 0.02562423765249236], [-0.489161238123928, 1.049007366527103, -0.9410231865267795, 0.4083619587830324], [0.7399044787576488, -1.2436442162506798, -1.114795485080426, -1.0827554072588905], [-1.649055550186791, 0.08246900159067423, 0.9256851635656589, 0.022459565327275707], [-0.6313734226105868, 0.4066883808026022, 0.5601990122744176, -0.994626171885541], [0.8370372357433234, -0.9394072168718698, -0.41585288659079034, 1.4560875089316876], [-1.4944579474187052, 0.5766718926253754, -1.0853753023779196, -1.4959041716969408], [-0.12784324492529453, -2.203809220046861, 0.7429297554112189, 0.10489076615803726]], "b2": [1.9542388070022, 2.2444218023695, 2.6661701226211236, 0.5003029676146803]}