{"w1": [[0.041797117877589295, 1.0234862832153548, 1.488251515498009, 1.0796155265195089, 0.1909503855536155, 0.3704494368979978, 1.317878110709687, 0.5016820358603129, -0.03530597149156692, 1.0149105085791037, 0.14473558577932516, -1.3359070045260273, 2.4936444756019926, -2.2192352749563384, 1.4859278805243554, -0.005736616414722721]], "b1": [2.4544245931980937, 2.8056007509785514, 2.726451831568176, 2.3553635311992207, 2.67075927967702, 2.53353260335948, 2.9925672309197315, 2.676777026262111, 2.726762289203284, 2.709238280936991, 2.7646085405201646, 2.4292045562088944, 2.5296904169499372, 2.4911771974025707, 2.454853405902915, 2.5190122207614665], "w2": [[0.9896256794184969, -2.220341107930949, -1.9070445944327907, -0.2060466874219932], [-0.08688578956094055, 1.2808535195068478, 0.09034839494182544, 0.22235157176128956], [-0.32186832321479303, 1.0286594085633713, -0.7751199309427714, 1.3854447415148092], [0.0838800881797509, -0.3435249328377539, 0.8470093059616529, -1.4535588523841896], [-2.4723538326374688, 0.31019620419896676, 0.1823767578641155, 0.7722973523133634], [-1.084631232365821, 0.6506235201065386, -0.5695859817865321, 1.10750735324785], [0.3078431245321371, -0.074013087881481, 0.6812760075884323, 0.9897468223660071], [-0.8490515227922009, -1.778777905366531, -1.8966998274556282, -1.0782921879856646], [-2.3035569403866543, -0.16151407535233797, 0.032719878105732014, -0.04677382754102567], [0.24508460756756756, 0.7456034780237017, 0.3100896629910984, 0.21664140872367615], [-0.9571721800615329, -0.252450433698092, 0.034863038386894696, -1.077026257008581], [-0.6023918701924543, -2.475102516078968, -1.2567569401352003, -0.6049102515444688], [-0.4268192968433093, 1.6623975139395453, 0.9563269338267875, -1.5157510809474735], [0.014618393720324224, 0.6750538005893566, -1.7084131093082653, -0.5978497642980902], [-1.0163120862311865, 2.1171865422134433, 0.38574084599825, -1.087048551027651], [0.5037006626531092, -0.26807202099305616, 0.18856500373602958, 0.6350521006880573]], "b2": [0.1510563473941768, 1.8133907600022938, 1.3947306237231514, 3.827268229510143]}