{"w1": [[0.028718331133215425, -0.12014449007679825, -1.105065731375434, 0.9873433988471781, -0.34406069818682755, 0.3357839696054177, -1.9588571937580481, 0.9304668811088622, 0.12183431415012616, 1.0923519079135444, 0.5430952511792333, 0.8686222290060226, -0.04218705749487021, 0.41400297877825043, 0.6437438777849467, 2.6987354637789567]], "b1": [2.6468525516386676, 2.2179368569519236, 2.685563215251222, 2.4338626522435254, 2.8181515378964948, 2.645783681809627, 2.592638592916159, 2.759734271054251, 2.3714129261788592, 2.4893364304338377, 2.6708135180666215, 2.757400434729844, 2.4181138623885885, 2.479124664991336, 2.623781698969288, 2.9210329444736964], "w2": [[1.4988457246128282, -0.4580742026142445, 0.6868869986956663, -0.5759510272921962], [-1.3074370611248278, -0.29780948760992454, 0.789813214149962, 0.02383524149478744], [-0.825916352812847, 0.3743661214431331, 1.0667710037123603, -0.021882613639261472], [-0.26742482610283763, 0.888950993692054, 1.4625780673253077, 0.9631204231836048], [0.3986117790539123, 1.5277882418023172, 0.4780172792335782, 0.689048978463901], [0.03870872463399855, 0.768905819718935, -2.267300281847712, -0.03629043992568037], [0.07646033096473714, 1.32932761810694, 1.2500667149708267, -0.35848310862854593], [-0.6290837074964218, -1.9261302510831633, -1.425787376379646, 0.950846026062559], [0.9706840272731242, -1.157621951594679, -0.5944966683391218, 1.1342545599976475], [-1.3848634583318864, 0.9908862153485064, -0.6581557218877124, -3.230947250578095], [0.1223683087547752, -1.8596086490249117, -0.22913063262541475, 0.17615129620139142], [-0.041041229810832275, -0.23019584249267014, 0.5594510324053544, -0.8630891610377559], [-2.0354074471017056, -0.7728866131961016, 0.8879173436424467, 0.3324358473639767], [-0.2811560908108664, 0.06629936622503593, 0.05044880063746929, -0.8562333408674466], [1.5178413224380445, -1.3013082300207603, 0.3542663554757095, -0.6817371671724308], [-0.5819959368129344, 1.1011158202241915, 0.31491459684434836, 0.16729983591098618]], "b2": [1.7728422881070152, 0.8193889053753478, 1.0215872434298987, 1.2519560680374733]}