{"w1": [[-1.3448213045244755, 0.022498274128223847, 0.5635856988532345, 0.5304781130682193, -1.7919168493853517, -0.7859124058023865, 0.4968411286514015, 0.8513740592098497, 0.4697719802776519, 0.9298697401359954, -0.2458407771204975, -0.49788271399594475, 1.3062746407583234, -0.3367799778004904, -0.44048192291091287, -0.7859370136507984]], "b1": [2.4392252654568165, 2.409090862728278, 2.2892663870646457, 2.6783624956592407, 2.6808525157407224, 2.436887292984771, 2.569852935226246, 2.710214168643167, 2.4084360698026077, 2.4765227569746804, 2.6161655040970713, 2.521225917452549, 2.6700992680170574, 2.695550756498363, 2.7561497044108867, 2.536533758723106], "w2": [[0.24931332150015947, -1.3659099206860028, 0.48467289992447776, -0.2509628771853187], [1.6726261300783798, -1.4268047362673266, -0.5656832113965446, -0.03521853211032072], [1.0142350136038294, 0.0737510002044303, 1.7401889528688301, -2.8839427009215757], [-0.44351361696601066, -0.09750807993959412, -0.7806616358544425, -1.7944836721818282], [1.4156465540077572, 0.02842556190750757, 0.016140759714367597, -2.634737485520316], [-0.9735880313929792, 0.5026819188003454, -1.020338838534127, -0.24750540562160184], [-1.159176946911788, 0.49798430511184943, 0.5931470933641684, 0.659464989526513], [0.8084831423750426, 0.6528224333148239, 1.0415744398315077, -0.5137015862727871], [-0.3687555420961581, 0.9908712836120408, -0.34386653344177365, -0.8192288217058005], [0.3315333505315323, -0.17225266074606685, 0.7730549335220057, 1.1528933932482746], [-0.8256236957035223, -0.18361795669387637, 0.05437406100806778, 1.2247862538133238], [-0.9341702665891574, -0.48723250099138676, 1.1073033579996685, 1.7829033327674464], [-1.4465127503678636, 1.5616374227659515, 0.11242574959349275, 0.7953313604736921], [-0.251693061549371, -0.26179573772204767, 0.0068052838154007145, -0.6252260461187562], [-0.9218289714827181, -0.09079366722784547, -0.3291543054057047, -0.9512428933889353], [-1.3386498374074556, 0.3248894868723733, -0.16905991969771383, -1.8223036503803736]], "b2": [1.1160219515123353, 0.9730568678811, 1.9846118135150181, 0.44475661179451836]}