{"w1": [[0.6649586611243116, 1.1062347821987732, 0.7155628758204852, 0.5251396081843724, -1.7446213840911546, 0.6067962282862748, -1.7686358880644544, -0.8463503558501726, -2.2696398920271728, -0.5513039492279435, -0.7936300892680679, 0.030520199748579113, -0.8950231408503398, -0.27817767405134497, -0.04719867538052655, -0.48163403859721865]], "b1": [2.6944617645307902, 2.529649795331675, 2.5119298170610107, 2.713301791348086, 2.8009386930645537, 2.9075461975087373, 2.6932776641970393, 2.637734319776255, 2.5539631643022407, 2.490028387346101, 2.508354782117889, 2.6820666145003824, 2.591446330533902, 2.603613114160873, 2.6885582428870918, 2.7787739532763815], "w2": [[-1.6458450228679775, -0.38801670207491934, 1.1849866539247698, 0.20876775878789317], [-0.6275613330775329, 0.4598286377451586, 0.17514441324603547, -1.319055074361432], [-0.7514538348575102, -0.17320749291727788, -0.27415329914378694, -9.790828940978158e-05], [-0.4075268171683195, 0.09639842307121615, -0.22795344367479098, -0.3041480797603867], [-0.3093079618556739, 0.24166997263750997, -0.2718288923013081, -1.057294439531992], [0.7791990850015134, 2.2235560606198406, -0.26272973143389355, 0.9846089243579125], [-0.423755012815426, 0.08873588589357678, 0.7877110440476465, 0.7800972144840145], [1.812698668623333, -0.5313590937279701, -0.03970061680607562, 1.1934818271086873], [1.3290259979590422, -0.9246884646966903, -0.00837226629928297, 0.8460311250543102], [1.113183260824122, -0.6711268649331439, 0.23109540720722516, -1.810722924620531], [0.8539240188246782, 1.8602159569677559, -0.7538588289889359, -0.282164325668488], [-1.4902198326446994, -0.37006722645459633, 0.4376321319555009, 0.7696102722502232], [0.6058608654615193, -1.6760237439827477, -0.8912585377349307, 1.5508334747114456], [0.13173055576344414, -0.3924955140039935, 0.21765038889617946, -0.459406875250664], [0.48104434830622456, -0.810457359521646, -0.8965562322000401, -1.632043562540965], [1.6929458253236862, 0.9440670915957785, 0.5918216828991619, 0.5950384211674463]], "b2": [2.2879274928212907, -0.30962132545153903, 2.5597246444263018, 2.207041167985465]}