{"w1": [[2.0150739719486968, 0.38302636624525443, 0.3940040461750035, -2.0115322697102376, -0.6140920068878882, 1.1341010722531293, 0.8838943638544081, -2.589325080294503, -2.4187728825781045, 0.7111267217596864, -0.6644915536356261, -0.07379395085273023, 0.5157385970157969, -1.7184451163857655, -0.8930281781681497, -1.0962380424498797], [2.5410508270361385, -0.7923746327637456, -1.4432156052319876, -0.41340227072056074, -0.5566160166173371, 2.2881364807011373, 0.3777677646615192, -0.9315985634518291, -0.7733012738703531, 1.3165814058458165, -1.6778534765446387, 0.42981889264645445, 1.6906476268337733, -1.0186915036622077, 0.2678539951121529, -0.8649532227610379], [0.7372481681392178, 0.33122640606953835, -3.046679701846552, -0.18733022074864317, -1.282826055779925, 2.2410874779892134, -0.8822439901055111, -0.5774653061033441, 0.7144803209851508, 2.296989639885527, 0.37883725705622273, -0.3774750350195196, -0.21796755581764768, -2.4017252581014183, -0.29678724394592737, -0.4267955676422124], [-0.12609194253214961, -1.2255963039040068, 0.18569337295141292, 1.6594264883512506, 1.0127078940661223, -0.14314947534859346, 0.9676313221251169, 0.7775681403166019, 1.9240251060862772, -1.1245845775422445, 0.80398917037123, 0.7229980949728567, 0.071888955579912, -0.6035029122748187, 1.0022117069196153, -1.0882451684266747]], "b1": [25.713071437637723, 26.045924845390154, 26.487730928141815, 26.5742765113338, 26.60154718480549, 25.786495650421358, 26.60885380782187, 26.882086967644213, 24.85441616211855, 26.79019831096791, 25.686732417547024, 26.720634466644835, 25.43443093182639, 26.42831168868897, 26.82704209098665, 26.260411603269937], "w2": [[3.7363354131628754, -3.1130610976441124], [-0.4110378240742242, 0.5480335036686554], [1.3348053933198172, -2.195305647092356], [-0.5211401062337268, 2.3114746939168533], [-1.8391071345481826, 2.2766727753825204], [-0.01580039808175309, -1.591962313273207], [0.4969956136610489, 0.6771203697444574], [-1.994304931998105, 1.2088969810226882], [-1.2895213581796887, 1.186549866208046], [1.46304694368402, -2.0395369622052226], [-0.6280274665911514, 1.7123134076156978], [-1.9343065785589364, -1.7348421674068377], [0.3333432324593797, -0.7708324136424378], [1.2388055469041237, -0.639754195737509], [0.9835923512357151, 0.584795395840307], [-1.6564989960551366, 0.7656730717242437]], "b2": [25.194094599795285, 25.223833386188993]}