{"w1": [[-0.57303853060633, 1.6898602552675779, -0.1398461553155684, 1.6135631793752816, 1.132329150880896, 0.8584875151045259, 0.028182778046104945, 0.34312329123283614, 1.5278980100772066, -2.0148490316054124, -0.5548131022229988, -1.49465488195548, 1.7130321100690513, 0.40298357733111256, 1.1627477448341217, -0.10677576564289123], [0.8319458694893875, -0.6526811074143534, -0.36664319049222904, -0.04576393223321562, 0.33433502673170334, 0.024324224938404415, -1.3869303878384451, 0.5539586483595725, 1.6663283958319548, -0.00882394881203466, -0.1440327161194787, 0.7122840002283782, 0.5081302603689416, -0.9817908953467168, -0.2775173104152434, 1.4171893244309517], [0.7548474649222837, -0.7634906837445761, 0.7556358870993917, -1.5322556233060523, 1.2246392670956494, 0.2451507932311342, -1.4815760020906616, -0.1817089697733811, -0.6844755415532431, 2.0819256666895867, 0.2817370143852219, 0.306352989913963, -2.382955477701518, 0.2716088729322087, -0.6265880180339002, -0.024038411032365203], [0.4190392898642177, -1.6611128923164735, 0.47169602260563837, 1.860806922289888, 0.38608842827185214, 0.1673919407468003, -0.17977245866622643, -0.41756755546009294, 0.5134402209260269, -0.9605279602140016, -1.6420548912918504, 1.4756020924122968, -0.15823875429660963, 0.12205109190680588, 0.5048955617196921, 0.05288116290317327]], "b1": [2.5323260997781136, 2.5839740015942185, 2.726498368465945, 2.6654552387550887, 2.769063561271156, 2.8650441273160414, 2.56059544611868, 2.6296655626091945, 2.7218665910346957, 2.3650858988689176, 2.833811280646911, 2.811790245636569, 2.873956177489261, 3.078471495416928, 2.559673551693136, 2.659388149094825], "w2": [[-0.43049575465587975, 0.977682600112543], [-0.5690054831498331, 0.2580598295354115], [-0.6305677550978602, 0.15403311795927654], [-1.2116172994683856, 1.0925190934071192], [0.2815132118092749, -0.608642795302278], [-1.787399270564066, -0.4906786461138689], [1.3617697968182465, -0.8684672989003955], [1.0187040788128323, -0.460320510159111], [-0.09454725151290244, -0.8724948740800524], [-0.08053055446354596, 1.2377723925683675], [0.6449400590591501, 0.25353048650390936], [-1.185697273171166, 0.26961155874521864], [-1.0635808491658791, -0.8804758652223109], [0.27887497707919856, -0.805485486091454], [0.34359235463219534, -0.2799203291056178], [1.4089445375541083, -0.466203155170398]], "b2": [2.1975508410332254, 2.0162754257300395]}