{"w1": [[-0.15173056588313488, 1.518337081775983, 0.03227702679912871, 1.750812688724622, 0.9719351210503882, 0.5611044791248122, -0.25716283440820553, 0.24780004347209267, 1.2778430398322767, -2.055363737905293, -0.8785679371843771, -1.7125278883584887, -1.0764548028656025, 0.7848172171016492, 0.7099235044488358, -0.12679043297059833], [1.3606016564327814, -0.5440125332251338, -0.7155709354975146, 0.2830284978842799, 0.3082566022500318, -0.19086465983504958, -1.3341363446196195, 0.24360336440143646, 1.4206235549703896, -0.08786514006196972, 0.13250761406084482, 0.7046895884798208, 0.10758441376210505, -0.8000773083942934, 0.5333086776965648, 1.5124678026885596], [0.6554448929667825, -0.6059892857856631, 0.6133813119165497, -1.5281312406955103, 1.1073050264125248, 0.4035131175061025, -1.3976672955321428, -0.30635621805441854, -0.9721389618697924, 1.80796001454374, 0.6224652452918403, 0.17474812193232042, -0.6248652653459303, -0.08395703339177377, -0.2180228782094664, -0.08379423045174933], [0.40744815932833156, -1.2763344155372318, 0.5579243550530366, 1.7385508077241432, 0.5545945616424033, 0.8647410522326543, -0.46241282609472, -0.4931266511831458, 0.5555858776381333, -0.7174790671926049, -1.8964687738227854, 1.6521820549444532, -0.7156418625809245, 0.304457519815035, -0.011795341563082498, 0.03419875633626668]], "b1": [2.922449663789883, 2.4677792866656643, 2.501700534063101, 2.5146643913756566, 2.691026149370058, 2.5098116723372867, 2.552161367322686, 2.7628078724008165, 2.6691795680193766, 2.465123719178433, 2.4322674887829363, 2.660861880003969, 2.524740907499899, 2.426460184291135, 2.5751194266887403, 2.3457084742262486], "w2": [[-0.32746828943065276, 0.5597851057724963], [-0.1997205134080498, 0.22957921215244903], [-0.4887673339083682, 0.046037042751948046], [-0.9466264200788964, 1.232519970949081], [0.27957998597116185, -0.6792534949239853], [-1.8834883836652818, -0.9670387505006066], [1.2876633120847094, -0.5900074772706235], [0.9905295358183718, -0.20205371367689742], [-0.15701556464343658, -1.13455019756367], [0.39736540150943656, 1.4813598946697468], [0.7500925760988882, 0.6495521939460832], [-1.4131940823883147, 0.35186280267989456], [-1.4176864706399008, -0.7976107234035819], [0.31039196103875094, -1.0074829331722663], [0.7038578432282507, -0.28896642326636807], [0.975477424144481, -0.002537743679986243]], "b2": [2.1270572133138916, 1.9684278917943197]}