{"w1": [[0.7599579639315509, 2.114375898167266, 0.5619005790829112, -0.3972362668498083, -0.6086564190736532, -0.7260586298364586, 0.7932558696479397, 0.01973869475700815, 0.47072112306402325, -0.43802538042286454, -0.4141665400400806, -1.1038207482659343, 2.266852901015857, -2.835184434735034, -0.48893871526406985, -1.5737861530561859], [-1.033965142027331, 2.018442729679119, -0.9714465386467097, -4.407733531644655, -0.23665088261184256, 1.6432185428549868, 1.2590539251033566, -0.058301493791128034, 0.9214755968016942, -1.9182047867837406, -1.2474669222509065, -0.035962601269681455, 2.5946126642169753, -0.493944623185257, 0.8944775704857895, 1.0896376002223014], [-0.5580111635804743, -1.956731954749448, -0.5393604977554751, -0.14206344906051718, -1.6657116237652543, 0.869675891105459, -0.7683624194675286, -0.28459604966123414, -0.6789954915887264, -0.009356099759768928, 1.0852494012270464, 1.5827471731290075, 1.958732300787517, -1.8104456017457553, -0.3084117040433564, -2.6046044665633783], [-1.9347471629056827, -3.4486082567651937, 0.3196232576288996, -0.6808314306969276, 0.21247915489720143, 1.559796156197367, -0.2708786379791046, 0.6877562058197535, -1.4930169057755607, -1.4777010732323916, -2.24701198620526, -1.8654331981143804, -1.2424797440061062, 1.3674617651515808, 0.3460162107579248, 0.2501461985118646]], "b1": [26.621888682329022, 25.527533012630073, 26.427476592070143, 26.286146621223345, 26.063298729637708, 26.21856360233831, 27.042283492241573, 25.26907352332747, 26.501911745277315, 26.55965547578611, 25.730341926659122, 26.74151371013003, 26.255714874859446, 25.754279222716804, 25.75045079927815, 25.244131593528955], "w2": [[-0.787248793525423, 0.2016179733267956], [2.7771876140702427, -2.8204081090838966], [0.3382591936134076, 0.08792747503361661], [-0.7939362672857087, 2.6164337453736124], [0.3982351342927479, -0.3495658633824233], [-0.17226890552471205, 1.2106388444256537], [1.0109879546103018, 0.066557182558735], [1.10474696405534, 1.1292214366099622], [0.9708195732893627, 0.9469838684047673], [-2.0280355085507296, -0.0071754071311631445], [0.7888805421161806, 0.7526765459504541], [-0.4304030697503265, 0.6903245805992881], [0.49444392577296525, -2.263130234689104], [0.24545767983179534, 0.0837735710075017], [-0.9891539792302331, -0.25095192793823284], [0.36794508217861793, 1.0634882428107713]], "b2": [24.545255301727888, 23.811411061460138]}