{"w1": [[-0.16448684547573006, 1.5262403509400249, 0.25768397014533295, 1.9596548461312822, 0.9199043702766221, 0.737622160764388, -0.16601849872420085, 0.034291709007314305, 1.6167161383234065, -2.054474228390544, -0.7952184901553458, -1.6287423614077754, 1.6121261535000295, 0.16291736544926955, 0.6544110116422264, -0.27900547158168115], [1.1193131857348506, -0.5037622837994209, -0.6983331561499502, 0.1649412689493363, 0.5661052221944562, -0.21039199101895345, -1.1635112027098686, 0.314988387076266, 1.8603401519792766, -0.35024451081272767, 0.09556083136494237, 0.7610666161424807, 0.8192544141533005, -0.9298881637904474, 0.18195170675220096, 1.5517544387259457], [0.6261415937227859, -0.5577163531912224, 1.1444026832952616, -1.6028222757980886, 1.1500404974845166, 0.6313088177796118, -0.9112963297321204, -0.21770976600298436, -1.052961533570953, 1.8636581682431619, 0.6839179345676369, 0.18317723792088497, -1.9829098301958787, 0.01519106441670609, -0.5279370967276454, 0.15057831120080298], [0.593497772464799, -1.4905390870879338, 0.8218879780199024, 1.7878820810118428, 0.332231802250878, 0.4223436267593823, -0.49037181047722345, -0.29954636908075405, 0.34837143919577546, -0.9835776354975714, -1.5220145090198136, 1.7582396263563171, -0.07698827943860556, 0.0894240888131934, 0.27991437233505034, 0.14358993231363504]], "b1": [2.7410605849021605, 2.440845575038874, 2.7637901301775054, 2.329202374319214, 2.6245276836071314, 2.331664295997118, 2.7307441987970225, 2.74455356364948, 2.6229589946376315, 2.346620201400196, 2.762351210955101, 2.4169286746743213, 2.736243457535425, 2.6819478470867164, 2.694684607575552, 2.542497305111489], "w2": [[-0.21886919925014517, 0.7386180387617767], [-0.2125079502165046, 0.4490631463740894], [-0.426631868671416, 0.21476705279213798], [-0.8769176974440569, 1.4696482868440257], [0.07552690251916547, -0.5007764786318402], [-2.0253920438453545, -0.7132303383410402], [1.356051707791434, -0.4721831317670082], [0.8287583110016116, -0.35155040677508287], [-0.7825442145671108, -1.2009507932648755], [0.1918211890237469, 1.3011792268467834], [0.7568215618092727, 0.6653287749264889], [-1.296241776338991, 0.11616823724211973], [-0.9882249297592665, -0.8069633525028191], [0.5552818818908434, -1.1356019951858176], [0.4322454678366884, -0.27275599772876236], [1.330042592811336, -0.07748020432301028]], "b2": [2.0682299731788785, 1.8653255324294291]}