{"w1": [[-0.17727224842166406, 1.62194107901892, -0.14320496914028563, 1.5627757665980226, 0.9358485278749707, 0.743898512454641, 0.01451713239572984, 0.3647188770404373, 1.4434645041116834, -1.9802426282312204, -0.5696904067436239, -1.7598236154314495, -0.8476042100325644, 0.3656357324772533, 0.7257043421721427, -0.3285123444687471], [1.2688906103661115, -0.25484054598497013, -0.3733839239413257, 0.15583138091210608, 0.6010323170644608, -0.19570740424633454, -1.3812036283125275, 0.5909349372964796, 1.7261684085141746, -0.2534670372710857, -0.24951386302674655, 0.7460919973707468, 0.09077144453761238, -0.8186447706832507, 0.06955729477580956, 1.6834401050149461], [0.5674866464479457, -0.8407548811156267, 0.9063840027485078, -1.4457379001898742, 1.0949368580100654, 0.47646909161680556, -0.8713391183718577, -0.29138802158389077, -0.7488165786542923, 2.0539490468823773, 0.7437308886251334, 0.25550910714488817, -0.6818106810814057, 0.30274276173734627, -0.7265013896461324, 0.3241279996807468], [0.5739562559700272, -1.3971739591745063, 0.552756723003645, 1.8956731234558277, 0.5683455336217644, 0.529950151164638, -0.6234052701571845, -0.494036361197315, 0.5724011953155497, -1.0686783326888543, -1.6784566309595204, 1.426192205767748, -0.7690243569993708, 0.11241641231549818, 0.10846087853223457, 0.10025068040227245]], "b1": [2.7756013045282018, 2.647642422476572, 2.798929701663309, 2.463313310055716, 2.671090058603404, 2.413005817713648, 2.736915293704665, 2.721669044592364, 2.686901454710458, 2.83411177449137, 2.6385336706183953, 2.191956981379346, 2.656917847815477, 2.6375204418731406, 2.6938358704718497, 2.741247614827034], "w2": [[-0.30902006764942125, 0.7226505341056051], [-0.39137356271856016, 0.41369959126223343], [-1.0189313814343943, 0.10916118015971421], [-0.6355320361811517, 1.1713305095727473], [0.08330298513221207, -0.5598139861054222], [-1.9239455542752117, -1.0345109550489413], [1.4459457935790598, -0.5149869471000942], [0.7946128172607815, -0.2776911666900847], [-0.359785041617893, -0.9689578100933969], [0.18451141668321547, 1.3914296511805802], [0.49420671129806937, 0.4629213746807008], [-1.2980657924779413, 0.30563528104389076], [-0.8828003749238474, -1.0275597450190574], [0.19608283648596436, -0.8697147798247294], [0.6707314074411062, -0.3562026826477667], [1.2760102280417356, -0.23379004514889554]], "b2": [2.0826072328086402, 2.0451189469920794]}