{"w1": [[1.375673793517587, 0.9747445756777133, 0.32995231244618906, -0.8152769604718819, 1.1106698395561976, -0.3653885676597369, -0.3570991085507116, 1.1912519840021778, -0.32205115996806594, -0.7783193585410494, -0.8058733419544197, -1.030837878334816, -0.9544839762439365, -1.0073736685438686, 0.09993679805676962, 1.6734369237447246], [1.739796919322411, -0.02621137526672135, -1.1101457700081279, 0.6735774704520927, 1.4758427122315878, 0.5515198272835171, 0.3644745365718668, 0.9025839414299299, 0.2166591126654536, -0.6297117371033134, 0.21186685394328397, -1.3626935298360976, -1.669693753904038, -0.08999519892214966, -0.5985710216866525, 1.8182333076656934], [1.3054500125603978, -0.4274975222810319, -2.362029911640811, 1.4602596143603008, -0.7787462729299133, -0.43946021465646334, 1.3976110730248998, -1.410217787296366, 0.07170359657476551, -0.8215342106164948, -0.39980675024422474, 1.3743747144238554, -1.510602866883068, -0.7343955115085872, -0.7988671346017616, 1.2764715224616552], [0.2318807961731959, -1.0286326267865116, -0.1937056835997778, 0.9219320946021115, 0.2628148691863671, -1.0924222978200764, -0.8274735823431499, 1.197654345316354, -1.1239484538322533, -1.7730030770860596, 0.2020756845177465, 0.25602268049060095, 0.7044004949128185, 0.3189818678860527, -0.6390744756920975, -0.26912077916638416]], "b1": [2.52457422216801, 2.6914672390078302, 2.5442233646253403, 2.6214773207490722, 2.6021751440066176, 2.8037997913350674, 2.618012537986261, 2.728125647155885, 2.7509037262833447, 2.636167734383672, 2.5782264605955723, 2.5692263962265023, 2.8835188817989708, 2.547870373038727, 2.6828277443064876, 2.7127828963641685], "w2": [[2.2993469981800048, -1.3629265271138258], [-0.5473427191352358, 0.720186791735967], [-0.12343156099175814, -2.187198945646731], [-0.7057534119960888, 1.4306224863658377], [-0.5177941599985361, 1.3842022045506004], [-0.4802856152586802, -0.7189507466407381], [0.8113882935105456, 0.6124709454011131], [-2.082142966918547, 0.04094155819172146], [-0.7977924441079002, -0.08231375842661999], [0.9968550789565531, -1.8036371516810064], [-0.5535439154576173, 1.5417789199215388], [-1.0789780638025182, -0.7398272972209635], [0.7662597209907299, 0.2525586235657818], [0.3671532531086943, 0.39060487080982004], [2.260168680177662, -0.35938744242537835], [-1.0570001445833594, 0.11828740313211279]], "b2": [1.2245584929730304, 1.9529150812049085]}