{"w1": [[1.200937734947134, 1.4662239385830633, 0.11344797527311057, -0.36234077650156515, -0.1505726943187984, 0.09076489041153432, 0.2484777139467883, -0.8175761239399615, 0.06301361230351568, -0.43653069405645784, 2.0234405663983397, 0.6874914952184515, 1.0981163940167844, -0.983151355645984, -1.2251041564611331, -0.28626173429411444], [0.3782064933814228, 1.2766830592120844, 1.0622668041489522, -0.6942318650551289, -0.5301747251830424, 0.3854150638627248, 1.4548032784437208, 1.0644807100154217, 0.5949773038942407, -1.0018507353317023, -0.798092344011429, -0.7661855138496346, 0.20984670726726817, -0.38918937315897373, 0.4465396594078215, 0.6589387529187076], [-0.08933403926567532, -1.0830783196723244, 0.5365058277410031, -0.3295423520008815, -0.4933452305432804, -0.5376161158894728, -1.5951278459338625, 0.4818856508851104, -0.38394792025266555, 0.42349682372672526, -0.890770918169547, -0.20640136761441416, -1.740706181517683, -0.18624991933331492, -1.190034721242433, -0.5368232887124745], [-0.5828054593809723, -2.6123847485454808, -0.06510745406103531, -2.1414311411754414, 0.49310882726432353, -0.4237865496494361, -0.6512579658772171, -1.2842065165428826, 0.7775773815248853, 0.9092156543957569, 1.5783929232004585, 1.5158064522859984, -0.6234089016598425, 1.3701015573055626, 0.917386917903474, -0.06609267766255073]], "b1": [2.5841797923841603, 2.8272629633795687, 2.4842781345422122, 2.7405007710786538, 2.3829684137890963, 2.798520329100053, 2.72900699505711, 2.3799380081412496, 2.7467896267893965, 2.327533865848023, 2.821464332661947, 2.5584771901721353, 2.494533102803644, 2.7551341855384464, 2.6126798582319815, 2.684888741553287], "w2": [[-0.8117527726768239, 0.6036134696093589], [2.850062929635501, -2.3826403137423973], [0.41317204030228577, 0.2510775440513638], [0.2239462224337302, 1.9940931854490525], [-0.9461896810233582, 0.3871603429496412], [-1.0320695422501014, 0.9987286656407213], [1.3799641416440198, 0.6546656296835113], [0.8613466031158462, 0.8428108269275815], [1.3278002465513565, 0.7187101699744436], [-1.3600040964964497, -0.04648098405370976], [1.1379411850220849, 0.5867696972007926], [-0.806682526905033, 0.3200301578769455], [0.30244878943482567, -1.653029679142766], [0.15207541176425518, -0.02245423252540643], [-0.761402534530988, 0.5934621248931067], [0.49141553851630704, 0.2537965010015897]], "b2": [0.7452996924190629, 0.056745770556501415]}