{"w1": [[-0.15076975696974038, 1.8037994044866588, -0.12251252017159764, 1.5512917423078552, 1.1607531057142635, 0.8801544917410065, -0.3429538253416278, 0.31327414474142934, 1.155091272326827, -2.130710912378813, -0.5060721878559165, -1.7103291248897836, -0.9986870647616968, 0.5417667710515607, 0.9387177387643928, -0.3939478277616266], [1.4694868486399963, -0.3964067778974959, -0.6456609158863241, 0.2677298859129019, 0.22134238007858048, -0.005660906193270504, -1.3319164820866358, 0.2898149580450149, 1.5238807596565194, -0.001945641068494694, 0.16322806633231363, 0.741465829915087, 0.1954153500753688, -0.7155713594233359, 0.5361709069058851, 1.567808572312571], [0.6092419608148605, -0.925629794811313, 1.0075888750228146, -1.4920720894961856, 1.282588379132787, 0.43089975924279206, -1.234558328977549, -0.46862121570500415, -0.9651100940252347, 2.06382304005789, 0.6492672881936422, 0.44712788460372527, -0.7079224996732243, 0.21726094374412025, -0.34100210829582545, 0.03588322756882034], [0.4539577320181003, -1.432440972222912, 0.729398203873617, 1.4820771657798395, 0.4880082018365828, 0.6260302428640364, -0.526999157220087, -0.53577567734424, 0.01688901882754054, -0.940715077332012, -1.6517807575309233, 1.6262903505522246, -0.5562117514237839, 0.5408528783286597, -0.03790746558478273, 0.6957939947196373]], "b1": [2.7895761742297127, 2.6641606718895714, 2.5646068161895816, 2.5007077225512493, 2.8265475112427287, 2.3771878325996605, 2.7151743693921837, 2.7632403648112387, 2.51697972225452, 2.690919915622684, 2.83911784315408, 2.7003490461635384, 2.4503777130422466, 2.646265920125725, 2.393846899079963, 2.8345637216342854], "w2": [[-0.5341756809714713, 0.8721341960084847], [-0.7758176150397339, 0.6142822148301031], [-0.7915762560633549, 0.22843155663519826], [-1.0766627432334441, 1.5843646428591713], [0.010228162428726775, -0.6568232928627274], [-1.9840332785566692, -0.7562204736621297], [1.472194780858865, -0.562859128519641], [1.1703106853952727, -0.38193169163365315], [-0.6382755448444332, -1.2463194850329111], [0.18411358386896376, 1.1512397942121706], [0.932940738238211, 0.33573699030626186], [-0.8439529862006492, 0.31140110706489726], [-1.246901667356466, -0.7769875347482983], [0.277240810894995, -1.0284952136531433], [1.021686744343106, -0.5819948599977518], [1.0516524899595077, -0.4356367195078137]], "b2": [2.0544883596144405, 1.915083125223233]}