{"w1": [[-0.24158329247386715, 1.6034340549219812, 0.11471575021469171, 1.5632989689587333, 0.6186764192927534, 0.6681937887690269, -0.29820476883603436, 0.08299650448826017, 1.528651030488932, -1.884535538974785, -0.2906024408478144, -1.7982665137650642, 2.0126437728442066, 0.6720252763658853, 0.6978019631766899, 0.006605060133092686], [0.9439384891552631, -0.4123313202730855, -0.3594624947982809, 0.28716326037076784, 0.3337714309354678, -0.33712024222224024, -1.2521912849092809, 0.1408362984339649, 1.3635073324387394, -0.45572066164215846, 0.1513390837691244, 0.9527649294016866, 0.11051673231901014, -1.3094615586917275, 0.025348229509457157, 1.3463749320129716], [0.6399947042255224, -0.670297047695853, 0.8271105109675196, -1.6696316716244801, 1.3730751667977787, 0.4816445149515537, -1.283912513781759, -0.3995130642973273, -0.7522667940658253, 2.062343068916781, 0.7092965727758079, 0.07050789390603661, -2.032437284196302, 0.23079803953646957, -0.4149119431440171, 0.05531134926727595], [0.6077426761285292, -1.3462681569415271, 0.7111118184800532, 1.8022187499732927, 0.12454485197081207, 0.3942169277849913, -0.6894843937285676, -0.32786331070693403, 0.18564810349370794, -1.0091842194012852, -1.731164263196091, 1.5539707293520315, 0.07764419246487182, 0.05407144941842003, 0.2717823587186766, 0.09647331394787088]], "b1": [2.788376475647696, 2.6309389625827717, 2.7145510467813905, 2.633191309186012, 2.786695366440466, 2.7958864146823794, 2.8479775236132685, 2.9676965705324325, 2.794673564826378, 2.5393980676208234, 2.9492752922857846, 2.6308401398479453, 2.410770919893464, 2.6070395218337414, 2.690257300079644, 2.7845083115390175], "w2": [[-0.3072640265016663, 1.0656802166160608], [-0.541400445995726, 0.47182796991437514], [-0.4344350813574133, 0.0029827712391050226], [-1.2281406772605121, 1.6073781935711804], [0.3588754685203328, -0.6785205964327141], [-2.0361774127287715, -0.8387641058634778], [1.62157779089656, -0.5425059099013141], [1.0510543676739388, -0.2528600641958676], [-0.4554752994446063, -1.2656830443544416], [0.12928816361555684, 1.2437120442000549], [0.7402280173111164, 0.28027930944930324], [-1.2551949917330105, 0.18307545684944532], [-1.2922631950701327, -0.9053181386929453], [0.5051049246640343, -1.2791372385834405], [0.3515113829964233, -0.047033179836229455], [1.1764800215882423, 0.09342966869887392]], "b2": [2.0002044558115117, 2.3604379378068354]}