{"w1": [[-0.40009304329866735, 1.2274902750508871, 0.19000117617931572, 1.5594275411020186, 0.6007206745509063, 0.6412039286354201, -0.14652511152434838, 0.18597723899797486, 1.6521706757115073, -1.748349821981218, -0.6148064750099947, -1.69153328425263, 1.6876329653143316, 0.5611477179703651, 0.7281735992029404, -0.006099774348248918], [1.2709379006908377, -0.559779198666758, -0.5068496731264716, 0.40276005179379226, 0.31781371844406736, -0.35050685479507265, -1.3132287250783814, 0.4834767448707606, 1.505657692039306, -0.2097199547565603, -0.07061413233900049, 0.6086760685384034, 0.3074143369903474, -0.6131361417131758, -0.052622277921621434, 1.197826087601415], [0.5779859349849453, -0.439818309936865, 1.0305362312410489, -1.7776735420789092, 1.3667691781848272, 0.763067626814032, -0.8894869589611138, -0.367891213506217, -0.7780908782776657, 2.1733043677824906, 0.7909598526037327, 0.4413734920033605, -1.832907906276747, -0.017963897142873372, -0.33552825634148337, 0.11386997144079926], [0.5655067695369258, -1.674039033651481, 0.6223922752008502, 1.6200421821122624, 0.43595334689635357, 0.6135388793364125, -0.6516480875385487, -0.3350643546408335, 0.23729610666836726, -0.9895636754457711, -1.7504265552571048, 1.5258351107488495, 0.11866614339417145, 0.462087462894637, 0.042003179837804244, 0.46666640314348334]], "b1": [2.8206150987923886, 2.646080055051536, 2.5445886818347754, 2.558846496192468, 2.8466687087647564, 2.4900301569738135, 2.7723860698677187, 2.8052117442467837, 2.6825483405838035, 2.6970833269116157, 2.6853911836289828, 2.167168169934172, 2.6519010001061987, 2.6705971587685062, 2.6757120802182346, 2.8409229258054225], "w2": [[-0.3957587631179377, 0.9016185901418158], [-0.255101801060473, 0.12439466486141282], [-0.5169548010947553, -0.07087916070569483], [-0.6165219720271776, 1.1547266103358609], [0.004169665682203207, -0.6115524873084923], [-2.1789532902595714, -0.886276774395757], [1.1347044559190547, -0.42745138607812916], [0.896251180564283, -0.1482228067338299], [-0.37180956417795386, -1.1324537442566789], [0.4384959900149885, 1.1667970286785094], [0.5440665368834607, 0.24687816710454466], [-1.0180179476157272, 0.1493973132646279], [-1.4326913600058067, -0.7602889384470758], [0.020332615282928276, -1.084737663077942], [0.5890687645563957, -0.4725796946835886], [1.0602457158133394, 0.153865381422978]], "b2": [1.9435655137398395, 2.308698511430743]}