{"w1": [[-0.08661811813514278, 1.6665767741478072, 0.12368922463301293, 1.743690927062384, 1.0716982859034272, 0.7680883403320949, -0.25506082705280325, -0.027139345086786504, 1.3374702010593529, -2.048717728472304, -0.5695741709771697, -1.5459015537049559, 1.9274757438458219, 0.7226634936309329, 0.8172544923109244, -0.03833905346861467], [1.2585051902034952, -0.6055335243895547, -0.4190052066006084, 0.21383211244630113, 0.168842293728691, -0.08371078882725408, -1.0277331014661015, 0.5588287956861745, 1.5527107272288119, -0.06715266606595771, 0.1729364785416858, 0.6025507242865967, 0.431390940349345, -0.7893902045280822, -0.13078679245863448, 1.6514784667649958], [0.6367723027941969, -0.5755082646716795, 1.000065284992996, -1.561006139230353, 1.2259687055090096, 0.8655832819565458, -1.5859072060610038, -0.2684903424971251, -0.9388046827563301, 2.035620642598796, 0.5516793174033824, 0.11569077957574234, -1.9467867204746205, 0.003992238201520518, -0.7376322182785545, 0.14031168528357385], [0.7225799010429979, -1.597144523090057, 0.815087528593443, 1.760985074066633, 0.3465710664417632, 0.39759669973701184, -0.698209659684889, -0.3008902305941543, 0.12032333750731446, -1.1719139289756342, -1.7295860433265826, 1.2378088735304331, 0.29945960467885524, 0.4480583469372975, 0.08685697843988835, 0.16586874103762284]], "b1": [2.645730930378316, 2.7589654006790494, 2.6973228464971393, 2.3953714136821023, 2.4148724113686844, 2.776634288928547, 2.50875702928525, 2.461468492627988, 2.5557012408958877, 2.608480842647003, 2.6007772092021635, 2.4223639440766718, 2.5747222848399423, 2.3638848193746274, 2.8044262549237855, 3.0029755138743], "w2": [[-0.018486075242098, 0.9946624489264783], [-0.4159747171908802, 0.35888366877390776], [-0.9150344854878584, 0.2719352930384654], [-1.098578228659962, 1.2516459927070598], [-0.018832814860346853, -0.7482311111550493], [-1.9295811020314166, -0.9448922457416363], [1.6221009940565367, -0.5081949469171403], [1.0748201216330213, -0.18255948483195802], [-0.22430282575422186, -1.031872797899869], [0.1945643926282835, 1.283169869503761], [0.7772038654713016, 0.22989569447132768], [-1.150245003155448, 0.05122805796213734], [-1.2684741312223609, -0.5463778258397389], [0.4055557070368902, -1.0704585877484922], [0.5792430932583715, -0.30539539802167104], [1.0066888264407945, -0.3506573132173805]], "b2": [2.094957414112674, 1.9658748703409386]}