{"w1": [[-0.2046941015853801, 1.862685839748036, -0.1937092029791261, 1.4930342656064712, 0.957443113688599, 0.6164512220800552, -0.31004865431159795, 0.15153754966926353, 1.4686085218086236, -1.7641372491629674, -0.8122414986558077, -1.7231321618840794, -1.175036378071872, 0.3579188688627587, 1.0858061585207688, -0.31513740659630096], [1.4158932390420709, -0.6337571435459497, -0.6006899411174305, -0.1231759813677115, 0.48124538470881867, 0.23921904608876138, -1.181875307798702, -0.2369522809279544, 1.4273713845484564, -0.17371699390091339, 0.3320816645918514, 1.0617990286294443, -0.07937991879521969, -0.709548690531018, 0.367069131754048, 1.1008526671159962], [0.26164716905537194, -0.17602017165321865, 1.1671566502172128, -2.1129514870753052, 1.106812510495011, 0.7124507385209121, -1.3056034750304943, 0.0921335913206814, -1.0825606314518252, 2.4825342760507767, 1.1099394864472258, 0.3886915030060615, -0.2498036062371123, -0.205975433648693, -0.5819745887480539, 0.053769995700473944], [0.5209443665048503, -1.7078395768135362, 0.5240715363490966, 1.6951067913879116, -0.2892698682019705, 0.5052591328563926, -0.718636166726075, -0.6895001143889194, -0.02940196748956564, -1.1152457362445807, -2.2092586420740323, 1.5585368593374322, -0.22166418311310734, 0.4772644537994675, -0.08977176712077278, 0.27516065276918156]], "b1": [4.54032784819229, 4.661003017598887, 4.709619051469619, 4.310946838903052, 4.048413344055862, 4.889373739128168, 4.826593227479788, 4.699965805642051, 4.718258538107506, 4.506457752259617, 4.755833709306545, 4.401913605782318, 4.226545495307073, 4.625829378912516, 4.374725346067721, 5.031981076953935], "w2": [[-0.5836926053926684, 0.7461836333682753], [-0.5033648615817181, 0.2803516767491877], [-0.3609591209448434, 0.4023921789901782], [-0.8068545714109464, 1.1204004715058953], [-0.11240840607778195, -0.6368229353788464], [-2.278049390981781, -0.6920552029167373], [1.3132769250157765, -0.346796952116331], [1.5837243743603866, -0.5127641375590536], [-0.7733675218113191, -0.8694512920955428], [-0.15967817642307972, 0.5960765577897228], [0.5916330247426301, 0.161017572932792], [-0.8127305666756863, 0.3153242585284057], [-0.7905268162943089, -1.0449084565062574], [0.3068420133070076, -0.9359504629254796], [0.660638489100607, -0.4407453220962023], [1.0144569868297402, 0.29488520318563927]], "b2": [4.038930088546895, 4.110404946326425]}