{"w1": [[-0.2730805347096923, 1.673311415787875, -0.007673186700196746, 1.4159052978900133, 0.7125846317111572, 0.7132375644549936, -0.3674092591831311, -0.04345479535448231, 1.5870134945447782, -1.8312221233284327, -0.5840915181409541, -1.4183491774588244, 1.7157347688893418, 0.856241263043195, 1.0865745703478278, -0.026158240164665142], [1.1281262489922868, -0.5648237567818236, -0.4806828637442472, 0.5655285348991431, 0.29320658840214187, -0.2818890533339194, -1.6414402491986029, 0.20283288006550504, 1.4785609470839678, -0.34094829716867414, 0.05425254009252646, 0.6038328116243251, 0.12517014796510928, -0.9650450911663822, 0.08866241594468366, 1.8413990040479131], [0.6311493955452214, -0.297985535827482, 1.091849168785102, -1.853132207514037, 1.3705642161657525, 0.5926156332799056, -1.4648208436215349, -0.3748714906000652, -0.8564736925980172, 2.160907561422411, 0.7119914177190712, 0.12377258883985516, -1.9170273552566879, -0.0058700661015461675, -0.571652957669074, 0.14407198692296624], [0.5032317386508587, -1.7003625887100693, 0.6542931103739488, 1.5669685789230257, 0.22603560715608487, 0.8280974454984913, -0.32024038142115585, -0.331792000323621, 0.26065853958466517, -1.0542191641165375, -1.6591406792539856, 1.2468276813463972, -0.2466017531808125, 0.21882777890614116, 0.21486252731182998, 0.41386541581228564]], "b1": [2.7391846514075837, 2.631103878591946, 2.8284029996821825, 2.449073958036493, 2.941938117830996, 2.7520264779077093, 2.626123272141584, 2.426512602488995, 2.483672785814463, 2.6910397195147437, 2.6961775286341423, 2.428084651514338, 2.6574433654357725, 2.434818332482133, 2.5586995855378234, 2.8122377848343554], "w2": [[-0.289140243784947, 1.0030833745743963], [-0.7031953232042358, 0.2546883198712453], [-0.5466399237346816, 0.24393887279235094], [-0.7369899177850002, 1.4326759766158927], [0.25941520535238904, -0.6818214559416581], [-1.9056928075530222, -0.8575941929953671], [1.30279879110431, -0.6959622836218088], [0.9275918435488123, 0.03360331939703996], [-0.3710411346751772, -1.0260884260087062], [0.2663613238329075, 1.103286387042874], [0.7200775341511912, 0.08523680352890091], [-0.9229821505394467, 0.285182747547008], [-1.404446228087142, -0.995292180927652], [0.49991774438625414, -1.196019653816427], [0.6125581062191576, -0.1931915794545068], [1.0883089368827457, 0.02179477313597379]], "b2": [2.1547410976133547, 2.1025215480806043]}