{"w1": [[0.8606826402574972, 0.8647855103111046, 0.1267797863868259, 1.0724618620835007, -0.13063901894292118, 1.5056009049566739, -0.8386551076438535, 0.041730058971851884, -0.10702247828855484, -1.2583235030796505, 1.2105894128254622, -0.7662571604416469, -2.5747326852320302, 0.12370630580376349, -0.30188525805306154, 0.22033837297010722], [0.7467836692398861, 1.1404121934217912, -0.9599826351083917, 0.21315540005492203, -1.5159239055628575, -0.28807864705755, -2.8829848599167476, 0.3106120372120188, 0.3449863555099695, 0.16828550052544042, 0.22379427417283967, -0.2790253574381978, 1.286669327542728, 0.1931418126221212, 0.07637601159809097, -0.12534963839566304], [-1.0328511623601428, 2.9711370465498526, 0.02474151732682736, 0.0628800788908794, 0.1515596667017362, -0.908728447758987, -2.0261444498674988, -1.6455802555215082, 0.32351997237473074, 0.783986251974162, -0.547054250808625, -0.10708103642479834, -0.6427666591004827, 0.9354559002700178, -0.4071425943768245, -1.3572649837664414], [1.68599267649135, 1.746942051271769, -1.3765715348713057, -0.1205531024660836, -0.6804134121960802, 2.1773761949864823, -0.6385517457252086, 2.168625742064907, 0.6806945162699075, -0.4935899373992294, -1.4211320771922322, -0.15031953625805133, 0.4467339527712578, 1.4546077884243007, 0.4919124572615021, 0.6187361555825183]], "b1": [2.6804855224561654, 2.577937182427372, 2.555427004094327, 2.5562261101502264, 2.1409538857147474, 2.207718409962122, 2.5623370827813217, 2.5870183968635927, 2.598087119133152, 2.7604038617492317, 2.4692706292597046, 2.595599810547217, 2.694916854875298, 2.7453438526816885, 2.6386517258697912, 2.6970597901654143], "w2": [[0.930105968108794, -0.24123589909650592], [-2.369285009860727, 1.0283887405952992], [-0.3028879464195744, -1.235811111140058], [1.9994740999845642, 2.0389067275563675], [0.02063695944831012, 1.358293263053089], [-0.5790208288005971, 2.0613667461652265], [2.3841629823592285, -0.8645633340828609], [-0.3174618245766663, -0.8079743742349998], [0.8957174668984483, 0.826601734364304], [1.012397458205357, 2.191839929938668], [-0.15222817609772296, -1.7924669485133224], [1.45331382291982, 0.1027315461630478], [-0.07545105210081608, 0.20563281658353122], [-0.7094551069382077, 1.5211065215751813], [2.0910532801688344, 0.46015285641731807], [1.6377083895516966, 1.3332804934356133]], "b2": [2.3198209485459715, 1.0941587152014898]}