{"w1": [[-0.9209712299054321, -0.6767910425741602, 0.21060189128466217, -0.1098420705165703, -2.0193087826757496, 0.28883305144089655, -0.7969297950274548, -0.6064441115796946, -0.42747863831664706, -0.7041005700805275, 0.4533100423962983, -0.020688707918156662, 1.1542804146191457, 1.064162179187812, 1.2441462401411303, -0.629144865017216], [1.23565282035068, -0.9104257058421404, 1.8261931333821386, -0.02885108292311367, 0.06700219020401041, 0.7009389679868689, -0.5805076740937576, -0.9486932890191041, 0.33595058587572746, -1.8089040476841969, -0.9612403696632099, 2.401592703592991, -0.4671893588438777, 0.7170016035039461, -0.08672796279564393, 2.170682541716624], [-0.7216156618057423, 0.0019455924154158644, -0.3776877182826683, -0.4295350534490897, -0.14056313914860458, -0.23026099354117474, 1.4580158525404776, 0.527298661990264, -0.2785009651121397, 1.985206031282666, 0.27287237561904043, -0.49839308380769254, 0.3371112439511242, -0.9116564041266813, -1.3853469768629991, -1.1114384999160856], [-1.0200477462932673, -0.13207801336844527, -0.6074157958812034, 1.5374247426368735, -0.9609583838841707, 1.113627741979541, 1.1392930797675307, -0.31987608951805624, 0.32485634978956385, -0.5575298134939194, 0.7186107529606154, -0.025630069153796564, 1.0614051764094012, -0.5410739408531064, -0.18275947406416632, -1.1846954306674113]], "b1": [6.043399959286447, 6.451735619476062, 6.744836368739076, 6.177043381792839, 6.047168542482357, 6.2600990980897055, 5.860620057249138, 6.401962789415358, 6.121845684164134, 6.264299406512405, 6.035996684204687, 5.87367053700228, 6.041442859695473, 5.830466617086791, 5.496864854754287, 6.317988564709734], "w2": [[0.8385470541348968, 0.7675227155143003], [-1.3135822718382246, -0.9300246421748115], [-0.982403578287617, -1.8854963828081506], [-0.9363742707433983, -0.19936774957672368], [-1.1069261185802146, -0.5575106282616425], [0.6922299877836116, -0.31359121732684925], [-0.4767842108790089, 0.21048618214348452], [-0.661715270305876, 0.5230168699655618], [-0.08401433624636757, -0.43073980788633], [-0.7105270983408599, 0.821122935674015], [-1.8803180646528148, -0.6042232600041322], [0.9334477071290437, -1.4060732102163227], [-0.7139246979041884, 0.6743637539000407], [2.1194412980311834, 0.5153780153679441], [0.3009282286790559, 0.6600956644489169], [1.5299710027014557, -0.1396692695888635]], "b2": [5.284679540030608, 4.943744045860661]}