{"w1": [[-0.6576219608746161, 0.38205041770845527, -0.02724469923841353, 0.8484098909319777, -0.26350852226785554, -0.7316479662360752, -0.6569921800374368, 2.422999644677306, -1.4708839156709195, -0.487100076198769, 0.32670509054798913, -1.2349787219655313, -0.5687027196387716, 0.11472765307006123, 1.0279886709316084, 1.6155799775622814], [0.2569053558086719, -2.137377078838667, 1.1183065306259372, 1.3888373581389124, 0.9167782252818218, -0.017011551173929024, -0.6987261293257551, 0.9261987375692499, -1.721131208526088, 1.2436282830594172, 1.9776416220406259, -0.7163769880573012, -1.3183122675132062, -0.3531636990682671, 2.3344040949749374, 1.7038071677411308], [0.5078421646886112, 0.7048385919622093, 0.6970946681589933, -0.8397293416497358, 2.1390448064261167, 0.7601950349002794, 0.16040278926391918, 1.9432246339836339, -1.666081236986067, -0.8558787158577577, 0.19375453361456643, -0.8267139983957211, -1.0194997099611371, -0.3993754955761618, 0.6162200853725388, 0.45909517691761975], [-1.872520978973006, 1.6823125052175822, -1.5406687356832198, -0.5264863910942754, -0.9859879870314158, 1.4957286321536178, 1.1657392895192367, 0.8716769204035633, -0.21339703187419964, -1.0107266374443125, -0.7852261481978925, 2.067838368212575, 1.7418714823868366, 2.8885975270534052, 1.4580576925531585, 0.8416964968480279]], "b1": [25.923514345280193, 25.847032963969145, 26.356667598283288, 25.551468660235233, 26.250527760526353, 25.974371455797606, 26.004787888157992, 25.789331923784726, 26.020999318088347, 26.028615142288313, 25.683715870445084, 25.68596666205114, 25.574880728804658, 25.915911518116715, 27.346822971804748, 27.512668676588348], "w2": [[-0.9513286920794041, 0.5008190666210657], [0.6890199107759479, 2.255202744429977], [1.2580724794272766, 1.3064766082135182], [1.928711877651203, 0.019964018237567313], [-0.28551275727402736, -1.4154103752758527], [-0.3493934904201463, -0.44191355877938104], [0.5254644059786311, 1.3528736832711106], [1.8152579032855067, 0.5217181449439641], [-1.2241835308492945, -0.31700516283473745], [1.925479802642226, 0.03768323625728924], [-1.4323031929085739, -1.528076813210449], [-0.6693427405264206, 1.4574849836340737], [-0.6337314929884811, 2.5050187338960765], [-1.6467490333079349, -0.6686698117863628], [0.20868257560292966, -2.718119521434212], [0.645209706753334, -0.7950689801703456]], "b2": [26.04275477650769, 24.72254766316029]}