{"w1": [[-1.4300941058782497, 0.8730593801543821, -0.18261610517824878, -1.997532900871368, -0.04619019102313278, 1.3463384588848657, 1.1434166881198076, -0.08887738470345102, -0.13637953685017457, 0.6747284665475608, -0.021255797731548343, 0.1514088539986801, 1.4454912963983597, -0.7160145016282466, -1.0746533172796489, -1.3190662213964197], [0.7196928028206646, 0.0880503777172746, -0.30657900158203455, -0.8350548795622548, 2.6913082955342342, -0.33597580756373435, 1.1213484362096833, -1.162555266535922, 2.512847574980139, 2.0683180505900896, -0.374544700638564, -2.585561211460825, 0.6893227138633817, 1.5645550282029999, 2.192142016265694, -0.5717225441547893], [0.4629255804762239, 0.020248587347135576, 0.9245812805386071, 0.13752664672724865, 0.2508702447247282, 0.4299660702158539, -1.9498987082652064, 0.6027589620196234, -0.9202227668549172, 0.4889988187273996, 0.40901592393253655, -0.7837171240513872, 0.5459623015177312, 1.0577880981523644, -0.3570989129563469, 0.05604084445387343], [0.003624576421276636, 1.6018756475199485, -0.8709337959021534, -1.2293754874416138, -1.1698964231808626, 0.9819450239080941, -0.5896329629522644, -0.2601631955486447, -0.37778807360943645, -1.0129624068146794, 0.45783534111092145, -0.7097320573491799, 0.5414158741392319, 0.5061546184016632, 0.941539699062322, 0.7006837925251459]], "b1": [2.5739267956074525, 2.5482232193900964, 2.6402213573486133, 2.720576411280401, 2.5925595185446553, 2.6256278829454107, 3.0039273119111134, 2.7361852585659885, 2.7277309639914864, 2.840908780106146, 2.6218136629780484, 2.7704095022309514, 2.78319936617637, 2.6247427425294765, 2.5599682833750985, 2.5819089177170094], "w2": [[0.13052327426049742, 0.32346372221321673], [-0.86593506881404, 1.4649396058784856], [-0.977929867498457, -1.7730868792260792], [-0.6757429656313589, -0.5131408535169946], [0.60100268048514, -0.8886739271087889], [-0.11486268896815531, 0.25234212995070004], [0.6125871180542455, -1.422134321573551], [0.5173229033186902, -1.577399009649118], [1.025719325161476, -0.7033787842871698], [-0.8581039849059363, 0.6882646204384901], [-0.1149369355300778, -0.22547459151248558], [0.6741478349098954, -0.487631070871525], [-0.7125743883627625, 0.8653130292656096], [-0.4617624170472995, 0.22854164447517883], [-1.3114504770633855, 0.7079580513589812], [-0.44862043841825744, 0.08725240428697971]], "b2": [1.4061970106178165, 3.368000065964051]}