{"w1": [[0.5842950899037594, 0.9250880670695707, -0.6637150259162758, 0.04643995927138589, -0.7337386626960987, -0.039925132584539835, -0.9694634382729052, 0.06146576201177405, -1.9632745440294601, -1.5075935011803532, -1.011955799768671, 0.31892816894911946, 0.6741988435976607, 0.1396844986511153, -0.42763078724454145, -1.2833465315542103], [0.1460977832700613, 1.2842988896318652, -0.09002012679925109, 1.8188100202661621, 0.8726143111857332, 0.45872653465627516, -0.39904467303760227, -0.4178170512897075, -1.249649864048718, 0.7776402466796095, -0.3734325279173102, -2.0989035280739374, 0.935773010855694, 0.254072288818257, -0.2885258382852939, 2.432891027168003], [-1.2673793577154622, 3.0743211954144107, -0.3313199209710701, 0.24620423793459914, 0.9692494829286054, -0.995596269417504, -0.10109620055223734, 1.6109961497961822, -0.042650158648601305, -1.0866719892432795, -0.05581208810617533, 0.48395658034331135, 0.6631637522094811, 1.2196716020742417, -0.7076081712749408, -0.4844867648688759], [1.5889685004986742, 1.8566286484812622, -0.7820291914557309, -0.48851117530186644, 0.5617094707330095, 1.3277904509021685, -0.5132455905855349, 0.7935114720799956, 0.1211365964957928, 1.1736871988279391, -0.9975182736159802, -1.9364780514609277, -0.22783866003835235, 1.222140771410262, 0.754262958342607, 0.26906137209383274]], "b1": [2.858868752156425, 2.787296732648782, 2.7210883802937618, 2.324956187055424, 2.6380080320837083, 2.7204999686442015, 2.591290217432304, 2.736257857582619, 2.751284184554187, 2.6327949661737216, 2.759835891606059, 2.7863173290202634, 2.5462506277263204, 2.6262290722588078, 2.7442047537434267, 2.7562612094279766], "w2": [[0.8428958319523159, -0.372846861401478], [-2.1311796336093636, 1.2291856511752648], [-0.38327443354111645, -1.2805350544741079], [1.91862257469827, 1.7370181224053256], [0.4795254748365337, 1.4830393137306075], [-0.6079059823127537, 2.068406694000825], [2.4282433454633083, -1.0054326329272707], [-0.9185981097659951, -0.4705880683508962], [0.9114491274979756, 0.6860077584580511], [0.8776499851603142, 2.279174977193179], [-0.07113714697608656, -1.7153267294564432], [1.5787882506560982, 0.21473152711182047], [-0.10702795177368613, 0.06602665035619895], [-0.6654503014652898, 1.4512224728869974], [2.0625528982201877, 0.7375633930618792], [1.4595487895548604, 1.5679281554930555]], "b2": [2.2117812701199786, 0.9884827770933571]}