{"w1": [[-1.5288404234790998, 0.9075421472472879, -0.22118888795121364, 0.6402197530673649, -0.09599852408355605, 0.41979796645197887, -0.5896499681869772, 1.3808259024070102, -0.4693106369473771, 0.7425086891179693, 0.20953312446077663, 0.6119911788944422, -0.3440249679800025, 1.3534614685930508, -1.3527918751618202, -1.0746922695522045], [0.6099342224698537, -0.11048591383229982, -0.17006979466777666, -0.47125086406131905, -0.3174729160671674, 0.9345975426450719, 0.4668937488958578, -0.7488082848188462, 0.19497237921833482, 1.7088632232167142, 0.3797711286074515, 0.40833814858451667, 1.0423308098320163, 0.47122738407938414, 1.7502573424488381, -0.8280073697876844], [0.4904103606016693, 0.04750692680625526, -0.15174219541132078, 0.4730920280332649, -1.0345369746692, -0.3388323554858615, 0.30736419227783573, 0.09421141144313581, -0.1645974751656188, -0.07727558968724234, 2.2332124036397096, -0.8209669927683828, 1.3886369651067922, 1.3099015331495243, -0.14869870891299553, 0.09277321842942546], [-0.027364464619958784, 1.5374603319541742, -0.5375165080992657, 0.1913300022698943, -1.1783064208335678, -0.7600606339962778, -0.5102222524352791, -0.30741320130003946, 0.21468826294622828, -1.2147236896142104, -0.35527705419636574, -0.8618239715324613, -0.19018529204021334, -1.5906483034284926, 0.7249122311468272, 0.3914378701514431]], "b1": [2.6964659502492605, 2.6427450530270358, 2.4023703414863147, 2.3342671636885695, 2.9645988739081437, 2.709747978226958, 3.0535487333027587, 2.5560934065993024, 2.6987798203512754, 2.828219699277064, 2.614281111005439, 2.518848732941007, 2.9440504919356503, 2.6500397424029893, 2.284399366446457, 2.5315844277880393], "w2": [[0.42844867545729565, 0.19278053886241525], [-0.5957632973099305, 1.393135538350135], [-0.7245711721261506, -1.74224964810168], [-0.5156162106492618, -0.5767349911062898], [0.44399801863194743, -0.48007115377286674], [-0.08448191552868578, 0.1712746879884608], [0.6683231284009186, -1.495524857142476], [0.08414423649728432, -1.2860303327281872], [1.0382255718843774, -0.7775231173178793], [-0.5714760507504094, 0.24444589748949788], [-0.341648753654202, -0.2916423882148808], [0.5550247956396076, -0.21172394341252063], [-0.5477708157170447, 0.8345416244038725], [-0.7130864883357372, 0.2507449414416696], [-1.2064185018020879, 0.16558370915677117], [-0.41071282041503027, 0.5352153203994452]], "b2": [1.4839341664773198, 3.085005740742628]}