{"w1": [[0.310305564591393, -0.8564533002260912, -0.8358197504156726, 0.4576120349508722, -1.0577225687083907, -0.1974095868862972, -0.4757335490675966, -0.32702114829775725, -1.5454924190472004, 0.3647184825075647, 1.3261987913167397, -1.1265908955988413, -1.7454805649233633, 0.4586931919210375, -0.06092771219331214, 0.1100632660738301], [-0.6171433074768191, 0.840303660687797, -0.29271594702693005, 0.36934030924489303, 0.5494641864502626, -0.004501495263942112, -0.6992803672412937, 0.9151772545699094, -1.8947974522226696, 0.07240738420761761, 0.3469589455876042, -1.7528983335872612, 0.5352843722793522, 0.8078986205131102, -1.3312463715465734, -1.3256097654522188], [-1.325119253075302, -0.17459620467470788, -3.0115478822981867, -0.16811414525555177, 0.08228244384458794, -0.3485198774330507, -0.818221972806658, 1.1898840173981748, -0.24477774474150568, -0.07038356312754285, -1.2247621644578237, 2.0376538471241052, -0.281624683873302, 0.0012544575678715003, -0.03278185984904894, -0.4078576194655217], [-0.1176628815120439, 0.0421205908893032, 0.4343331648931109, -1.1601961052786791, -0.6941922516742838, -0.8350020953085359, -0.6002105174384267, -0.6982065080489048, -0.9461612646015582, 1.9296591392021432, -0.8436833923342023, -0.19568842484947366, -2.3215479970502018, -0.5700065679333136, 0.2856546307215282, -0.1546426349434919]], "b1": [2.7424995279283544, 2.6552898110836805, 2.6865921127744974, 2.6488075172707224, 2.690134384142576, 2.4733374170935525, 2.537364519878099, 2.9944367427054206, 2.6994493408654714, 2.507177258122765, 2.878414431688857, 2.597954080937636, 2.5006953224001496, 2.8261924712990747, 2.2940862878148667, 2.572719547590615], "w2": [[-0.3777817255000543, 0.4852363219248317], [-1.0208244598501495, -0.03443281717549354], [0.6535988106435806, -1.145299216542201], [2.0672151572615607, -0.43053837557992974], [-0.5737296553595219, 0.6802495663545621], [0.533757168115396, -0.5489486090261724], [0.687476664835171, -0.16151527072850558], [-1.0206107431460092, 0.38526356197543915], [-0.3182926305395335, -0.9277016550718227], [-1.369192511455279, -1.1364141632617755], [-0.6121392463897632, -1.9025044538241438], [0.15019828696146706, -1.5285431530708], [-0.1281025807956561, -0.7017747956222861], [-1.5444459947041647, 0.7539349625782289], [-0.36467258621957993, 1.135190253721094], [-1.6771622440054603, 0.5298105315300726]], "b2": [2.0435104587448882, 0.7222763322132411]}