{"w1": [[0.1708599414214932, -0.837495163785542, -0.9039695323035961, 0.3365838586738703, -1.141206637747451, -0.34838507291833426, -0.411883105404126, -0.062207099144764244, -1.6473783645032545, 2.306968592263657, 1.2808074396472418, -1.2234310761498897, -1.6876427855811842, 0.2004265895062996, 0.03866079520129803, -0.19659838368403193], [-0.9172454222518839, 0.8700275537352461, -0.40158823437750824, 0.40837889685208023, 0.6753758393310928, -0.21844830463709042, -0.9124753464490158, 0.9037142728536128, -2.0700428585376285, 0.38618553924394705, 0.21425713245003808, -1.7293701710408833, 0.6104652618750449, 0.6043524197031971, -0.7318719652089345, -1.5278788114084458], [-1.4342952085855374, -0.07917404978678232, -2.8001084942309546, -0.4350728605815596, 0.2588232786891173, -0.323060289208675, -0.7091698217313929, 1.1826817656017912, 0.07062645944582557, 0.9102810592177976, -1.1215888024101712, 2.0011249127000257, -0.41544055684127457, 0.21045361179181038, 0.055772672096499484, -0.4158542605527073], [-0.29506014203018727, 0.09419366430307267, 0.4477669927250927, -1.2316627733975358, -0.6560861102660911, -0.7807429658516367, -0.06170589267176432, -0.8609485916952548, -1.096783611573375, 0.1461833772045861, -0.722955926021191, 0.09442271465009364, -2.400712702311444, -0.6051396694640666, 0.2856502856662345, 0.11669159368633131]], "b1": [2.672913430088451, 2.789978645909984, 2.6682816627176367, 2.7028075648434435, 2.494857432703456, 2.4349937470904153, 2.7780220299643723, 2.8499097982860553, 2.6087943851592037, 2.5805260890004282, 2.7900097542378854, 2.757726954945597, 2.7143992760035625, 2.4945084560830924, 2.4782556294788627, 2.4781629080833385], "w2": [[-0.33503759927557175, 0.3745407571038042], [-1.0346872626801393, 0.32795315765016736], [0.5143676631533757, -1.2039789599489383], [1.9694939494943637, -0.35637894047847146], [-0.8039166895885506, 0.6714574223267257], [0.5179213761974342, -0.8450673396874803], [0.504994725009654, 0.22487717841504107], [-1.1803254203088012, 0.2944650060392078], [-0.21843183931983398, -0.8645880861248019], [-1.5197445119941024, -1.061957352810154], [-0.5113045002689955, -2.074329139004818], [0.10917833889325929, -1.6490056161354345], [-0.04865556967695084, -0.8656237194358294], [-1.4681693700036473, 0.6591590155298942], [-0.35895263506225844, 1.090724292372452], [-1.5091920218935428, 0.8219796903584289]], "b2": [1.7231500721280613, 0.5067769453671191]}