{"w1": [[0.09693452122253356, -0.871504709474565, -0.7340971482329909, 0.45251850891765266, -1.2014619782675007, 0.020631918522781734, -0.3997377208136488, -0.3298129287218691, -1.3548565592150363, 1.6449252509238685, 1.122911678675478, -1.4476546696224262, -2.0092044043348043, 0.06785233923897943, 0.19503553037164711, -0.09150805626032903], [-0.7799466057526816, 0.8135071805563443, -0.5531140903239782, 0.34549013292986763, 0.5601635142246567, -0.21105377565078676, -0.6370216598472008, 1.01576961451505, -1.9565923199276656, 0.022283833729677904, -0.11762449998754099, -1.7249352260200765, 0.7418449750238642, 0.6080832780394002, -0.5326785575634847, -1.576902184082063], [-1.398664937994452, -0.020374568174945137, -2.8571719582630557, -0.5631471694696076, 0.03352910768152026, -0.32214845128433145, -0.8328450743104149, 1.4842165518331445, 0.09627561731423669, 1.1449266549001538, -1.4107797723363533, 1.9479363311026119, -0.29148034530440337, -0.11689048251399144, 0.020779679902931752, -0.34106673334844345], [-0.32438265913114384, 0.37119781426005355, 0.26635909678518166, -1.1198499136210718, -1.0176985809724228, -1.0475249129684456, -0.4694966715991056, -0.30760332119323885, -1.0323900187652884, 0.33428698389778533, -0.46743102701863676, -0.2619369326964842, -2.3447807734936528, -0.5092176385554709, 0.5304274859722602, -0.11979870775275533]], "b1": [2.3439914153780044, 2.770131568509602, 2.4390574682949686, 2.616293323937158, 2.8516423593489795, 2.715373300871145, 2.8256431255577747, 2.86977645759503, 2.6695745564513387, 2.6033670713757084, 2.8520921176546876, 2.45552721679418, 2.48759429482846, 2.5008779055827, 2.496699286611146, 2.6337809607741116], "w2": [[-0.5257621291613703, 0.46703687566511776], [-0.9750486136377561, 0.20956302985762892], [0.45598102324848866, -1.1929962467478652], [1.7083734202738068, -0.5349618262138804], [-0.5859024702821477, 0.5683672700152951], [0.3203686448039066, -0.39305727190140566], [0.9007119682913197, 0.184519445489018], [-0.6760523110492197, 0.4193758263623452], [-0.45710935294022614, -1.0374527609673752], [-1.190327798834916, -0.7985277347449196], [-0.4503359642986783, -1.9917535251303566], [0.242641704705073, -1.8380611896845407], [-0.24961303649024444, -0.8959317578549325], [-1.595918893392362, 0.5310418806482279], [-0.6103248460142563, 0.9347746461489566], [-1.5779558933845192, 0.45967907998713997]], "b2": [1.5671697211922595, 0.3487130926143484]}