{"w1": [[0.06723905849029438, -0.9101184289057778, -0.8716491833482879, -1.7752201035901547, 0.8704681752995442, 0.499975711194756, 0.032283581168755376, -0.2984093567526172, 1.3863594396541326, -0.7306087115940296, -2.226089224237145, 0.2428443459686083, 0.5105481729786008, -0.5057285619248598, 0.841360232240799, -0.5011335278964038], [-0.5004588398222372, 0.6005306217888862, -0.597763534447259, -0.7551124354950198, -0.8383057093668278, 0.9683290847996938, 0.10010631583725829, -0.4970945765689294, -1.0121957345526762, 0.08042045893614574, -0.5564663790081423, -0.7971573121126438, -0.43459908186006924, 0.24270595504596396, -1.007206465280295, 0.2034465546421666], [-1.4151402480264546, -0.13311214743862063, -2.6737701652655037, -0.34148441748303604, -0.4750929369581438, -1.3741992838399115, -0.415810946939376, -1.5913185346254437, -0.33705293740620923, 1.0326397799201286, 0.4199095646575809, -0.5278197895004662, 0.9692593131480547, 1.9297519455698786, 0.9580060856787574, 0.6258777753901065], [-0.15844962829008138, -0.018407934970350745, 0.14564983142042243, -1.210770812144199, 0.43663397701413736, 0.3246461714560316, 0.07475038989185824, 0.3385731529940676, 1.1807972730579952, 0.3556633047248051, -0.022936458848616392, 0.4303191582400724, 1.541873055165504, 0.666218531099416, 0.5094329293532267, 0.3551115642307987]], "b1": [2.6296460468982916, 2.962835533814296, 2.526862925430333, 2.6616727248463037, 2.482991985705087, 2.4968956227714094, 2.753377261388743, 2.4975848773539338, 2.34612901826211, 2.628724193648591, 2.741249016287953, 2.7688295641128686, 2.4229424979064254, 2.5538366312355807, 2.472461849374707, 2.479780165353415], "w2": [[-0.10266979338632803, 0.5983050442190097], [-0.989352872281412, 0.22932835462593626], [0.6995358606885129, -1.2998727574781606], [1.9020907409608327, -0.22734857613349327], [-0.6259614761727509, 0.6959082985991845], [0.6013102415511032, -0.11528858958435445], [0.6348984634742825, 0.6309060168987822], [-0.6772122850919716, 0.15005523727064107], [-0.21750376466076896, -0.8179478638703349], [-1.4763079009933806, -0.7748595896176792], [-0.4505022208450881, -1.8767908564562286], [-0.058391558503608165, -1.5837411489287474], [-0.25122510756579397, -1.0695588626858934], [-1.7731930612027629, 0.4587332329577519], [-0.49600601889795304, 0.9679529845861717], [-1.4455156781587828, 0.4190968553499215]], "b2": [1.6362966227817104, 0.6072426228487104]}