{"w1": [[0.0021683560296236887, 0.9014633304286804, -0.8392917612105049, 2.468400193889783, -0.5451570435344945, -1.4529238984523916, 1.3246073687332394, 1.7054682274261026, -0.23481036530915705, -1.2663363095335731, -1.6782408350196083, -0.8917021805461093, -0.11588529265553044, -0.8931992171426804, -0.8041302102671101, -0.7680726991785317], [0.39501194821225394, 0.5786838831576002, -0.6638099446793302, -0.5916364249185331, 1.0139725892864417, 2.5490968203545634, 3.1555981540145934, -0.258659577457963, 2.725969521057099, -0.7203438513781335, -1.0810840482114068, -0.8976234236233658, 0.07548447094703459, -1.1437906641233464, 1.2360027815877515, -2.195172685533301], [0.43909161945393227, -1.08959787576336, 1.1126838113100166, 0.7096730136293004, -0.2277085262622771, -0.16863960676041512, -0.48947989165987266, -0.6856086270449111, -1.2432525279967228, -1.0147647786004288, 0.20554708227363935, 0.05216338477811365, -0.8355843868915287, 0.9334734269445006, 1.1522023672368598, 1.4159857817526398], [-0.7559452490326597, 0.13592147974069085, 0.07206935629510586, -0.2534445761946148, -0.7343061384708608, -0.7640124011256041, -0.03769747738066581, 0.8503866643939991, -1.6860434819184686, -0.14722632965678534, 0.46563413933869297, -0.8900862322929854, 0.81294060950946, -0.27637602993926436, -1.0810703903653573, 1.43491516676598]], "b1": [2.8634461813623826, 3.322369106010028, 3.2131808218739533, 3.2235542109852737, 3.2146844939902715, 2.982183022698727, 3.216215163182944, 3.1666535738851787, 3.1986851244212082, 3.1876231356079208, 3.015617905714433, 2.9600198733587018, 3.0327126530390567, 3.144586035747748, 3.5392719156743055, 3.0949500358588944], "w2": [[0.6675489504884745, -0.641908805669284], [-0.511246476344747, -1.1426640155787107], [-0.09827708640018734, 1.314110308852587], [0.15933924047901046, 0.2599130934207459], [1.4661400623024312, 1.2745126306218968], [0.41179516564879354, 0.09280521660409426], [0.3428264496370935, -2.4503625261658613], [0.1824337443483758, 0.8104580247760194], [-0.5016270713526702, -1.2871232259279113], [1.6637130900277457, 2.4679533025952924], [-0.7481126822023982, 1.3376810715904353], [0.08952442891020104, 0.7135407800301266], [0.5600131010817976, -0.03842074327959463], [2.514858739425908, 1.5571403818591207], [0.3065025251610044, -0.0995872090925205], [-2.3902721483897658, -0.8069210053067613]], "b2": [2.038957624026877, 3.871585421959387]}