{"w1": [[0.11525752065260761, -0.8179995417769297, -0.8062127677445076, 0.4875208855799732, -0.9110622524386065, -0.20205349891873975, -0.43278892058810237, -0.3060986178076216, -1.4249631403098042, 1.231501317647172, 1.393855358946032, -1.0610390197871928, -1.7142923922925073, 0.7714495662857763, -0.15086861191737022, -0.9659007892294961], [-0.7472080807349257, 0.7225824757111236, -0.4702327454178641, 0.6340039817627587, 0.8734543498074806, 0.02563634833950794, -0.9432863650977182, 0.9255419227629335, -1.8311710696752095, -1.2364613489691774, 0.16191656716793154, -1.644796956214269, 0.6442575899293568, 0.3636598302662613, 2.0209085090703405, -1.5160020398475795], [-1.2649442870499925, -0.21693140858685653, -3.0089897210804724, -0.6252888064486737, 0.0861241003566578, 0.018743363135615435, 0.564408333540545, 0.8642173085556711, -0.07590433354264817, -1.2569539590867456, -1.5422420057846153, 2.0065577022911882, -0.24321065561287944, 0.8143249997769337, 0.10799966777837433, 1.5598911004003082], [-0.17407121269819303, 0.3163676610730999, 0.3389101243827618, -1.1739053292761692, -0.7674983262282074, -0.7485723515876676, -0.9853865651405194, -0.39105866429241015, -1.3121808183895882, 2.2567641181477542, -0.5018734085711352, -0.013760392555369885, -2.3449349625980997, 0.2920502530196187, -0.8376241536056829, 0.27285333383381993]], "b1": [2.5694859250260667, 2.630434575284643, 2.5982616398217435, 2.581305952106109, 2.522003468505985, 2.451854628736427, 2.3745871522640605, 2.8036669552647178, 2.4352398394039594, 2.5465274407304017, 2.6029902760362402, 2.560902571591435, 2.6141538240780213, 2.262134718790102, 2.760434842756667, 2.468556495762219], "w2": [[-0.4672286997472148, 0.4304655566131965], [-0.9631502276715556, 0.20907117351928725], [0.6445721364602184, -1.1504968346631514], [2.1918477714147326, -0.540744817208525], [-0.6237405719849496, 0.48100877751699833], [0.6779058784362155, -0.2933117960468224], [0.9518161803775367, 0.3189598487359202], [-0.8220794409620495, 0.4179143353580917], [-0.4035205891264668, -1.253408519683393], [-1.7014953771752193, -0.8588378456674781], [-0.23113703362941795, -1.793420452586936], [-0.12548691247011873, -1.6782701815499375], [-0.4925392255280256, -1.0357551955833177], [-1.8337694740285613, 0.6494686362219133], [-0.511399585506112, 0.7553866719060846], [-1.5296187480085361, 0.42219401816877555]], "b2": [1.4755148361618904, 0.5827246224795666]}