{"w1": [[0.05307312243738689, 0.9953626567154259, 0.4159266886430356, 2.3447392826975246, -0.400588480315237, -1.0754907538553722, -0.6509782145427736, -1.6408140500475008, 0.6672781540567477, -0.04452723110821083, 2.355004579251945, -0.9399444414299367, -1.0920494327135855, -0.03029693040850802, -1.3878011163620225, -0.9473544788116728], [0.13757855528281324, -0.68714545863808, 1.2286022358312176, 0.6646164846760946, 0.05306146223925773, -0.28345437197946116, -0.14858813566221127, -1.0956608342420735, 2.4302806284479113, -3.462259564319666, -0.41960105994782837, -1.6814063820950815, 2.931220236635983, 0.678106224151209, 0.7801256208385405, -1.555023607109376], [-1.4535997808912982, -0.7082826923443214, 1.342656465888473, 0.9396288368087624, 0.04287940977800292, 0.25634767250896456, 1.580308543667397, -0.9678224985162792, -1.6506129545306352, -0.37898262277482286, -1.4968590695474333, 0.7818888559052227, 1.3248214156367113, -1.1336188841327266, 1.765457157463211, 2.1414260981862725], [0.6320576986423797, 2.4974081167475557, 0.9166688377805421, 0.17098993703928433, -0.6695074120495349, 1.1576909769317105, -0.7200541661163034, 0.952598035204595, 0.7661147941743418, 1.2421443224233684, -0.4750127936844397, 0.756446496805895, -0.7334107050576492, -0.5920277044061385, -1.711427774124222, 2.923616266307652]], "b1": [25.537612626148523, 25.61499710125661, 25.872668405423248, 25.71517948721403, 25.141961224881776, 26.099654066264357, 26.288748238778865, 25.66769660809765, 25.701631811560066, 26.45573462087394, 26.423473750946, 26.281102928084824, 25.947021425041065, 25.798014770211545, 26.17790792878601, 25.476181839573155], "w2": [[-0.18369437187854026, -1.887541497681962], [0.4361245860682566, 1.4686675946353642], [1.5688134683058534, 0.19017488935187465], [0.4697988074135487, 1.0065009868806003], [-0.9127859897585892, -0.30959965896163116], [-0.4645937456278887, 0.06996056938975834], [-1.0847148516261853, 0.11223078073793435], [0.03927389478610023, 0.636028699266016], [0.7255396613298888, -1.3404785039105627], [-1.0602529416427768, 1.816899894609567], [-2.115443914580375, -0.9027233956070753], [-0.22602103448224875, 0.8976639252884069], [2.7784203497622273, -2.1191357156003665], [0.3237413043113463, -1.0716189189203513], [0.7233912509755285, -0.3271265790178848], [-1.4562496627710315, 1.3137936883694679]], "b2": [24.49674711464706, 23.939364211351208]}