{"w1": [[0.308095518902051, -0.39320924479163866, -0.8624872355052057, 0.4282739178713002, -1.190591600845076, -0.49294449384472205, 0.8431119334232775, -0.9830748628163363, -0.49002160195259753, 1.6100278583279017, 0.7262058426400677, -0.46688152741740774, -0.7563931725135101, -0.8890966354100249, -1.0598046144530597, -1.3674590642076976], [-0.6429198966039528, 0.491218936955056, -0.6719639068181515, 0.4294076129679057, 0.7841748429847151, 0.04327020772958792, 3.319642856923679, -2.593447093603188, 1.9245802232374878, -1.012108793275686, 0.6292936311630819, 0.003703294430924514, -0.0013225195936257539, -0.6141997999634867, -1.5778512698757667, -1.711718218641912], [-0.9687963399819459, -0.2919420746001157, -2.9204836883090084, -0.7228851148775834, 0.09864418241843058, 0.10419926582648917, -0.4053024507440748, 0.26286848483106146, -1.4294868912303806, 0.6494359465370501, -0.3796136959964618, -2.147981188527263, -1.2225002709321149, 0.11217245752945004, -0.7089400177472499, 0.7623218904516011], [-0.3270634119214803, 0.28860092865443976, 0.4191448439739578, -1.5739858020085127, -0.9916220904730473, -0.9987283679812253, -0.2075571044328696, 1.0087785721918294, -1.644821156256612, 0.6037860367745043, 1.5504640432178112, -1.1061412902931025, -1.7955249713892272, 1.2496113424392705, 0.11149351410029125, 0.8286278545908995]], "b1": [2.3846213147925304, 2.3776254091356477, 2.643988523678455, 2.618205855533851, 2.9072403633072956, 2.615942697287059, 2.607296267469914, 2.496174642902193, 2.8259794361460786, 2.440275348581051, 2.3858361331510345, 2.578841059468231, 2.451374974070629, 2.611613986738589, 2.6770931514561926, 2.2789905213947117], "w2": [[-0.4046202734532219, 0.6306521213672966], [-0.9524765942268811, 0.29927856139264375], [0.22640713221325756, -1.2251379357629253], [1.9474555239911369, -0.11862900014553651], [-0.7563364595084416, 0.6353302638177399], [0.8257795091314304, -0.6284698427706371], [0.7290471893435453, 0.16465308827990544], [-0.7539085792589433, 0.1534529819200848], [-0.05944318130991158, -0.8763986262798249], [-1.4428558272995715, -0.9880585247455569], [-0.2808455362463114, -1.8937915466769513], [-0.1517516063801807, -1.9047603468138308], [0.06032348631552381, -0.8570349205167069], [-1.7305297395651913, 0.7387643715816438], [-0.5446043591672384, 0.805324294765661], [-1.9334495954306414, 0.2560931275997304]], "b2": [1.7134416763278189, 0.6237796991776391]}