{"w1": [[-0.8198250350835758, -0.7025434667738568, 0.6625995552458102, 1.8709955088751782, -1.4468343471989318, -0.4935343660531326, -0.2199912799419652, 1.1182766138465445, -0.6017028747763842, 1.2164656606478037, 0.9336086701126872, 0.530548173398932, 2.9321634566608323, -0.5598635949436028, -0.3061717627779279, -0.5246930984582908]], "b1": [2.7424920765182286, 2.7924759629295655, 2.4582406404267703, 2.474192825766849, 2.6737162386682725, 2.411210298914856, 2.6604709545452585, 2.4707711025264723, 2.5479836622736625, 2.708112532719529, 2.592477984484626, 2.36975349889911, 2.549504474225826, 2.6365302291103325, 2.4050778422991104, 2.437122421650091], "w2": [[-0.7227895523429005, 0.3749327179874604, 0.547121994693772, -1.3632057522916103], [-0.9860828507911242, 1.1863480381332512, 0.05206594074173679, -1.1620794473258838], [0.01596068740481059, 1.582494036642019, -0.4979442261241957, -0.8228919313305472], [-0.4364974809209744, 1.928244410045652, -0.42121077144189556, 0.43231350881841535], [0.8905368947592238, 0.7647094175185574, -0.11228100099682452, 0.6190276007632166], [-0.1378632264266447, 0.8881564723085068, 0.5227093769003257, 0.08439598741922809], [-1.6500328211096584, 1.0613165298539555, -0.24536341332892284, -2.2204364437112494], [-0.08709594238952831, 0.45969149883925764, 0.026958940713724677, -2.281348847439711], [-0.7226981809411377, -0.7707770023726302, -0.41045625779337913, -2.4389581832487757], [0.1246807218929685, 0.5740836029848011, 0.45453674081739837, -0.2032148111517168], [-0.06308581751845757, 0.7706456573331777, 0.6804290187739699, -0.46302153615166963], [0.30085351643113734, 0.6291690069203688, 0.9642543327719479, 0.5710176164817061], [-1.0103067789377644, -0.42804551615460995, 0.08269556665612306, 0.4090770988721749], [1.0312045966976264, -2.073151570509044, -0.9484378690683701, -0.9941633908939758], [0.9781866602723609, 0.7001646027306552, 0.36608061047785023, 0.9577725657547228], [-0.1918110085076583, 0.5306318526145377, 0.4186549728399614, 0.26897199528238036]], "b2": [0.6496823305257036, 1.2830771332953461, 2.253974864847831, 1.1490288944555958]}