{"w1": [[0.19107908239982305, -0.8223413873360819, -1.401563114306851, 2.059965165542989, -1.4154216568357514, -0.2952676719808797, 0.1947119602018456, 0.34896642976758563, -0.39700599357142846, 1.235699084252355, 1.6793026533536701, -1.8204678363009135, 2.967218042799116, -1.0120038981300317, -1.0910257466301894, -2.364735370421045]], "b1": [2.7549261771830262, 2.54450249912269, 2.525392609701792, 2.5223801957990344, 2.597849406236978, 2.519379162179453, 2.5554261993182235, 2.844580160376012, 2.623666391320544, 2.78870186517233, 2.5066192372394793, 2.5390912926257787, 2.5583589520937453, 2.3867980142641443, 2.725352837010331, 2.5425854836590247], "w2": [[-1.4193735251259796, 0.5038097354190898, -0.9076102906796015, -1.6269850172476694], [-0.03232633680502896, -1.3075185617977967, 0.24148114683356053, 0.33687936282294945], [0.11236849572678875, 0.28851063108771946, -1.727588071537191, 0.3365881428309023], [-0.23235194331307454, 0.6304277738655613, -1.0171375289133702, -0.9555082319910794], [-0.2857658108996951, 0.21272644285762735, 0.8023192800542199, 0.20555600072287156], [0.03147854225546109, -0.2844749886444936, 0.025021369313300595, -0.20793396105382383], [-0.5816582169049853, -1.9157279026872187, 0.8271430380263811, -0.5258253182739366], [-1.616730887764127, 0.3518589066237341, 0.6529157369524659, 0.9773991537253583], [1.3956469460051195, -0.2915041273606646, 0.47278617709549103, -0.06663761964126998], [-1.0323969159267312, -0.24682744795920852, 1.7365713767847577, -0.5809130245391299], [-0.4893217138565974, 2.004026012914817, -1.7411531216961185, -0.36906908377145387], [1.476449724501422, 3.160775302830716, -0.8354174830948555, 2.467777745382302], [-0.8582098357123564, 1.5016337345624735, 1.0490593075761532, -0.48689131798234525], [0.3777585001364071, -0.8422513372949607, -0.949282312593416, 0.06519392653200917], [-0.03619110369868991, -0.7737655417174308, 0.6501739214517597, 0.8476809767623874], [0.052054036869091436, 1.7627351236559812, 0.1663350709421919, 1.7398460646257858]], "b2": [2.7906577806615425, 1.2372788014611553, 0.8191859822500749, 1.5639126365510547]}