{"w1": [[-1.4528934027837328, 0.6796135668855068, 0.032748442154232865, 0.5281835554061549, -0.347022392875379, 1.3632716378426262, 1.1908709222976455, -0.47242089200182236, 0.10529629885083547, -2.466253468711371, 0.042057612443690606, -0.15376161235962454, 1.344411509797382, 0.9569126866462007, 0.8715369334499249, 0.6609427809263737], [0.7719854524479276, 0.061502211460045905, -0.18491822615436218, -0.40827111531760857, -0.3095053446290407, -0.06897064220609458, 0.7103731737540723, -1.451518526606109, 2.772831447895849, 0.4258955760647821, -1.1685435129755986, -2.8219567644876054, 0.8442604062790618, -0.13098686200754028, 0.7276241553425943, 0.7504493838598765], [0.6625183613256473, 0.022427927154117316, -0.23482548518926638, 0.4638249488205751, -0.7905730496898064, 0.3104077387303818, -2.057709864772292, 0.6318367401920991, -0.6000365920161426, 0.8367441645329605, 0.24080344145553673, -0.6618891019933842, 0.41932192421125053, 0.08278197977140503, 0.6732399257458359, 0.8059471058426899], [0.09754566825721046, 1.458986970632739, -0.59283846190146, 0.30720181505202426, -1.4762755280292934, 0.7094795422059639, -0.20386895813685565, -0.1377732602327696, -0.3650836139253321, -1.4415453542923355, -0.5015757763231175, -0.6240389516950587, 0.8306800533443578, 0.6919686121103904, -0.6345970646631417, -0.7449240840090388]], "b1": [2.645238054475554, 2.526079983898123, 2.668332324848953, 2.7490880517208702, 2.762483059143689, 2.8279865879254777, 2.910159388802759, 2.6733303955985415, 2.8262322612257083, 2.5280039036002377, 2.717882175001956, 2.496119822852343, 2.5496407349561068, 2.555098865435573, 2.6515380053207, 2.4172199222513084], "w2": [[0.26262507354882036, 0.24838200223332563], [-1.0778673813290267, 1.2670062587419753], [-1.3278675432611466, -1.6672310455670185], [-0.8265348740200084, -0.3400265233317299], [0.6378553685556432, -0.6290278240106957], [0.12115263118885686, 0.1938155957469054], [0.6667009778240176, -1.6370111183761005], [0.5114804345838294, -1.463398010673641], [0.9601796938448651, -0.7506428196892799], [-0.6258989834336839, 0.4707331324854293], [-0.23538328063415778, -0.4715296641821121], [0.5885816104682953, -0.2779683281049087], [-0.6418711021544662, 0.7868393942805171], [-0.29119524476573044, 0.2368296643271534], [-1.1371333405500308, 0.3305242310327383], [-0.33403834293782025, 0.45585874830967377]], "b2": [1.423957094528576, 3.3075398952957302]}