{"w1": [[-1.636253467490836, 0.47770813452146643, -0.04440486077700764, -2.4447454593218363, -0.17695692725909917, 1.4581248068844357, 1.4416415597430134, -0.484478519538565, -0.18415561660613983, -2.233806114563118, -0.4051764053650885, -0.1682125834465507, 1.1025657588754922, -0.7171549669307197, 0.9583262340780011, 0.9092618548361215], [0.4484690883113397, -0.036991513030837114, -0.06832844634388434, -0.6960521786890173, 2.574608735409633, -0.4214988313327648, 1.00276609402124, -0.515473709551723, -0.011252934939377082, 0.37950633570727677, -1.159988603428943, -2.8919298451830033, 0.727749326047707, 1.386439871821115, 0.911338950485664, 0.33310042129329853], [0.9611986949480048, 0.04778623222345055, 0.715009558689919, 0.31016414838950646, 0.18004385146291021, 0.38497381393898505, -2.0080236747680598, 1.1987403524841083, 0.41653375999029846, 1.0210977509337522, 0.2751329746665994, -0.5825551562164093, 0.4290392998900892, 0.9241475238097393, 0.48368648504555933, 1.1257756439984248], [-0.028809207093736022, 1.6972105549104877, -1.0487119715691793, -1.3532181452680148, -0.992472859108538, 0.6439663577345974, -0.23684134315502967, 1.1150415629214276, 0.687377370251312, -1.1008064998964546, -0.5635524098837994, -0.8687010714041261, 0.5149757981462469, 0.7365845630560475, -0.24104011245453102, -1.2052815499444116]], "b1": [3.0332536018883265, 2.812252585848896, 2.5015189489090117, 2.8261526570684206, 2.3846691555130146, 2.734587165480947, 2.8555022805232095, 2.8105097965945984, 2.7160404836599663, 2.7235744842402365, 2.2931818159520225, 2.6946446251120717, 2.664239112568496, 2.6374609980003094, 2.690181246640248, 2.6331188955119686], "w2": [[0.4525011381880025, -0.12210426933410307], [-0.8430969460297701, 1.4752136234795676], [-1.421632305478362, -1.891591705188859], [-0.6698374804504709, -0.3386909905795962], [0.4409488825130564, -0.7389327578107152], [0.26211778749799014, 0.5761798956897249], [0.6524865138041152, -1.6692008004848926], [0.28583101021287033, -1.3740502626049245], [0.9651660506525607, -0.6883937203310015], [-0.8589425568650411, 0.48706552414603893], [-0.19863647912886337, 0.005706517582776599], [0.8950810083330769, -0.3469742373242075], [-0.6578244850164041, 1.1433280182497767], [-0.13583147566069323, 0.2198089352538371], [-1.2418094694404653, -0.013708374241509197], [-0.432731829624376, 0.3544236159905601]], "b2": [1.4476737576740455, 3.1981386399420852]}