{"w1": [[-1.7100187264192215, 0.6231682701939687, -0.1565421488706583, 1.0462333715596077, -0.18024893092796215, 1.4057084271161577, 1.1376041610037262, -0.2787671708552403, -0.30843817863381195, -2.1890543827462214, -0.005207353351697058, 0.000248611730776116, 1.1237437348134638, -1.0027214880961524, 0.991494997962295, 0.738777424952322], [0.8907642143383924, 0.01489331448457059, -0.06224432893542339, 0.010201424702332422, -0.4180764728093923, -0.2007967418907606, 1.086584366433835, -0.6273050089884428, 0.1608830310234539, 0.1924452166991356, 0.03434325616632908, 0.8593383246164769, 0.6687429626114775, 1.840747836304991, 0.17507423399562827, 0.5361091112674317], [0.6723567020175755, 0.15502747179563414, -0.5038374767275728, 0.6152099800986618, -1.0959089957625494, 0.24962683876859235, -1.795186764774141, 0.4971952748212799, 0.07399267267685752, 0.9053012151711815, 0.3730945467222682, 0.8299894371332371, 0.38965091736368573, 1.07553090040758, 1.2374597639566627, 1.1571643570862475], [0.11428911621264312, 1.5863684732328547, -0.7126278173122569, 0.3403782215226573, -0.8780955872493288, 0.684203908873353, -0.4815212934052889, -0.25777378390774625, 0.4674498522191207, -1.0592276511109413, 0.6312437657236492, 1.6487026759858603, 0.7059134408060325, 0.4152033579576907, -0.0738384482786038, -1.4176712076975622]], "b1": [2.8735956371986955, 2.5996017216359295, 2.670806444038678, 2.6488326976222605, 2.7690784612281867, 2.7789228501754795, 2.6906904101035014, 3.007039232312227, 2.4852605869147153, 2.707305563693292, 2.4230386807566875, 2.7678282907865883, 2.8302006078080537, 2.6054511604152677, 2.4206464233511764, 2.532319661597941], "w2": [[0.41466337296122024, -0.08285186825570426], [-0.9143351323258551, 1.463629958228602], [-0.9922086582252229, -1.768462899720591], [-0.3876876437078661, -0.28002273220732143], [0.41499584976396253, -0.24845070381704085], [-0.1185383569691706, 0.1450224427824913], [0.5185293265124528, -1.8457416386218921], [0.39898594385619535, -1.0727480508771308], [1.06523271608751, -0.5349153229250392], [-0.40500747316564867, 0.32014539296170336], [-0.3929959820439923, -0.39371267574863705], [0.6910544490065296, -0.5107738759811133], [-0.6066027756313107, 0.8382101183053605], [-0.6599275964754197, 0.4619015392651595], [-1.0868260030579937, 0.20979297343971362], [-0.5792362640900155, 0.4750607764265434]], "b2": [1.7209404017355414, 3.4334465088098547]}