{"w1": [[-0.0537810812796818, -0.2875309436743404, -0.33483452015082815, -0.9550936607449086, 0.5995640337912871, 0.32924080658396776, 0.8446115482700366, -1.3752945228457762, 1.5885228230147603, 0.6846923841166959, 0.47585121379901696, 0.6301307936280008, -0.8769137753476659, -1.0311187382926907, -0.3255138487792548, -0.2034795069830335], [1.6058959912475181, -0.7783495322994798, 0.10205463387266005, 1.1901177182623897, -1.394679554576683, 0.11513758282793872, -0.24262928013900809, 0.17866032710750138, -1.080198305254965, 0.7360347780798552, -0.9470636144558866, 1.7714990279301106, 0.8795057635402282, 0.4881355076999497, -2.5732261735756423, 0.6005089361405485], [-1.0459757432572725, -1.1575457464550447, 1.1963602401458557, 0.5851567050115708, 0.6144123499371382, -1.4478867221717688, -0.48285898758660517, -0.9559699118123045, 0.2277983165239192, -0.003352321738158248, -0.36468626974077867, -0.6834037258071021, 1.2495515086026245, 0.24456007976773303, -0.09932656562844766, -0.32367944851042263], [0.43287556203162314, -1.274735211579214, -0.20958790949212708, 0.3258990786049498, -1.1994580014282934, 1.457105464153411, -0.8608790842108291, -0.14829235479528632, -0.5210639495496634, 0.8749553993307985, -0.319602226686317, -1.5120679634011083, -1.1139446643713555, -0.17072704774543462, 0.25409316752677014, -0.03005144984991031], [-0.5469201233380443, -0.4314823769878107, -0.17242788517079932, -0.13888327362498923, -0.6488748749717019, 0.832797881000075, -0.11593427446420183, 0.1051911853058712, -0.803454834142159, 0.40905408336758403, 0.7801778793788818, 0.7872343760519582, 0.009091368864631674, -0.4633918135656249, 0.19136748986605906, -0.8688567138133461], [-0.304767606255662, -1.1885584268702027, 0.5499784798504689, 0.057638458524910424, -1.0159861680761906, 0.16667017940483667, 1.414741227373677, 0.7456277685426695, 1.3472930396947558, -0.5893163769530766, -1.4521159911050243, 0.4369301237309631, 0.6405998798987959, -0.05533444322181294, 0.5441619171142285, 0.3116475688079123], [0.561642582174303, -1.042630425072533, -1.4195240290314177, 1.022984620554978, -0.9772272551632079, -0.09012888524235377, 1.545227496245363, 0.9493602711676121, 1.4307846456641589, -0.8063932223469592, -0.28880611594886096, -1.2747614944653873, -1.7828413323411545, -0.5510520175169523, -0.025606669283946587, 0.20641347248469127], [-0.632291762736789, -1.5032098103506408, -0.8316090079926656, -1.9943568763043962, 0.126236747658557, -1.2843536656672252, -1.5835911314301745, 0.14559221127780322, 1.5746885796132843, 1.2786603734853614, 0.7939195425484584, 1.040073888513769, -0.394576948305551, 0.6684310956403888, -0.141584576374146, -0.3352399396830659], [0.12071848641614408, -0.0033299677254364224, -0.7351979322216395, 1.224966139380379, 0.7896270230033546, 0.16691143886631588, 0.14641074722140987, -2.220219078758044, 0.663742658290288, 1.4196694074753935, 0.5269147818344608, 0.7465459524537017, -1.0165823546324337, -0.15436638783065182, 0.9761627683450061, -0.6496722094837302], [-0.04358847172410975, 0.6088780553895936, -0.4318789687358035, 0.8384895780612669, 2.971811515881395, -0.894799742114812, -0.35970253538185293, 0.9498091399345349, -0.22038144941525006, 0.20456859080232256, -0.7845735735396118, 0.8136369860500559, -1.8575864833005828, 1.2999188807623183, 0.12767887825928104, -0.27285098217909587], [-1.3639372799426899, 0.8115283754190273, -0.5177401159912419, 0.642870986025925, 1.4914816187115785, -0.6911801838746421, 0.7104299547694976, -2.407295881977903, 1.113315737583012, 0.3159527627417289, 2.021331387771451, 0.8345253630052749, -0.8071038484502643, 0.9093050128928879, -1.7592008010841989, -2.6787270056713894], [-0.932713034724784, -0.6109121869095496, 0.6875398444220941, 1.5160182628334073, -0.48427091598182986, 1.36645174492732, 2.0151073278517835, -0.5260198178592237, -0.8952496044690212, -0.6986237186082068, 1.1567641781668607, 0.3316083214417663, 0.13961989904757888, -1.503785234166468, 0.8259713668079204, -0.2688341806475716]], "b1": [2.449528491762325, 2.68730051543127, 2.793482409789643, 2.585445137563084, 2.500848945919522, 2.801244144629708, 2.5691031861735776, 2.5196304390201254, 2.375645967131752, 2.6967266623206916, 2.5090352758594374, 2.394074042196141, 2.583083458589537, 2.4386931838016563, 2.57948669759014, 2.4460260137385044], "w2": [[-0.1362233734021474, -0.6912551196860386, 1.5186689755109395, -0.7612763439962338, -0.5206539721928323], [-0.8323883826394776, -0.4900303163479405, -0.1575232940822578, -1.2334890921553046, -1.1099167295522825], [2.5304506095879766, -1.2847624806938485, -0.28007771587140673, -0.9804265996598354, 0.33577239134343095], [-0.006480811641397161, -0.4545435195039439, -1.624362713858054, -0.919097784048184, 0.4936337803286449], [1.0168034105440984, 0.7987219893859848, -0.5389320812214878, 0.21960820209723836, -1.3596446040989447], [0.4716466701975516, 0.19508904401141347, -0.3153642980705869, -1.1079012374227082, 1.5897249120331516], [1.3837095591161561, -0.57549033167521, -1.0659279418836987, -0.5660712855175017, -0.36570776094803525], [-0.3367232777675362, -0.29480124193033136, -1.3391007223248925, -0.49992492440309727, -1.2425388169835228], [-0.5181368166924853, 0.5190918073335717, 0.9214273742236336, -1.7588142630598083, -0.09159488014286445], [0.9402195431213987, -0.6234978188013598, -0.06944136835578169, 0.5567355023940946, -0.6082352950426991], [0.24359057428956093, -0.58659414601605, 0.40126275035951153, -0.03420662706033792, -0.46070272634064624], [-0.35375910811261163, -0.19941386404714417, 0.14240761776793795, -0.17540211971889702, 0.8985051274621719], [-0.05851836804555428, -0.6460834839790459, 2.8707992630885437, 1.2425323507271866, 0.26661405089933055], [-2.1038110685595446, 0.472933015784838, -0.5649223369882834, -0.02864200041265596, 2.1818295765996307], [-0.9615686622694917, -1.033244968111565, 1.0341596386445981, -3.0426910946455257, 1.99049301844794], [-0.6691626509259184, -0.5651426666759543, -1.54084696360221, 0.8062210306279, 0.8327696794843128]], "b2": [2.2905287263079592, 0.10644150803263963, 2.1157791801631545, 3.3934026361609755, 1.4117092271247331]}