{"w1": [[0.2246836307790102, -0.7054904317484698, -0.7258868697685539, -0.02152171824734836, -0.11109257494688557, 0.11526665925887844, -1.2172620745720055, 0.7343673592623269, 1.3554580860992238, -0.6802497039315272, -0.5709806241743728, -0.7837581262434089, -0.042294429031199135, 1.4436689598059835, -1.7770860172665415, 0.8073471170085453], [1.2363990796432764, -0.047731722301978, 1.0741557301369895, 0.09248310560644984, 0.6449849533688196, 1.3219842243037927, 0.822440084167333, 2.7284046089630682, 0.07404602289412567, 0.8030212057488698, 1.4120102107287764, 0.9167111974459884, -1.8743493557032767, -0.36067162267637437, -0.3017692516365106, 1.4311381523448714], [1.0388904107091794, -2.1900920054692032, -0.2168498316003945, -0.3239889273022477, 0.23610262605316862, -0.15358032988597656, -0.5725171812403445, -0.36659002817557274, 1.5072055162261973, 0.5246769605340967, -0.3003473966232717, -1.4224843467498114, 0.7155148876382301, -0.3307496077441303, -0.8679781742217912, 1.0770511755126553], [-1.8326307396705057, 0.1467351339991604, 0.04037762961651151, 1.5545874675911442, 2.1648033307219916, -0.828802069972957, 0.05271115447705973, 0.9051136953530434, -0.0819159229320979, 2.0721352538901825, -3.298775939299699, 0.726269760775485, -1.1607206528123548, -0.8580285976574422, 0.7262127888484516, -1.3233386560033622], [-0.95544823527959, 0.9025732231502198, 0.37631063694610195, 0.7439507031301885, 1.0126548306046972, -0.9595830018976821, 0.589207795156459, 0.9576994878873115, -0.40872634895318116, 0.8348602295221533, 0.6920202783723941, 0.951485240154091, 0.537480006041908, -0.43549282151354884, -0.6752222835007267, 0.3593560981491354], [2.2681510042944035, 0.05117365474255749, -1.4016422887408644, -0.8000107868223074, 0.6029897007008975, -1.4648482054205678, -0.7621803631995074, -0.7559129943773168, -0.6019666461388616, 0.6461224794881804, -0.5611308837607527, 0.11652010383579295, 0.6181838974735694, -0.1990047397803465, -1.4970816011985193, -0.5947101406906309], [2.117307059493747, -1.6838836033956615, -1.3243139661049879, -0.7414218425995601, 0.1226470192191479, -1.1555230493859943, -1.732767530598023, -0.05475369441718615, 1.393613817490703, -1.8895681587614237, 0.4846839633736551, -1.2593697216785498, -1.2460105423570385, -0.5136183178197571, -1.9864915032274308, -0.1215067122640951], [-0.8944231455205199, -1.2464869574544473, 1.5894091765568668, -0.05857739573653256, 1.037626492405449, 0.11415165938239506, 0.4375874276273822, -0.2512451686587243, 0.05265541464221882, -0.5229213144284346, 1.318768592674188, -0.5456352680066441, 0.3524225615150427, -0.3013412641053759, 1.4282638236274747, -0.2547561913698614], [-0.993475736124971, 0.18003157482681675, -0.7572373984527325, 0.30932457710384736, -1.2660899959433836, 0.545898240114569, -0.9111738584779612, 0.7915623821152881, -0.6445794955445192, -0.37387955748326007, -2.21447644003985, -1.39751109185292, 0.03668880556952886, 0.5700805726483336, 0.9112091757079228, 1.0973220824243937], [-0.3183886261975127, 0.5623348395106067, 0.669900942253364, -0.2299980376180594, -0.9057218484399098, -0.831239685518948, 0.6774824660962281, -0.21649381582773725, 1.7877752667721016, 0.761838873107887, -0.22444260793734416, -1.003170303985242, 0.2362871007894205, 0.8165326273016847, 0.23476461564528955, 1.0968592668216686], [-0.8131986136915251, 0.952225056266071, -0.698976319705071, -0.4925996923515421, -0.1563599601476332, 0.6093322415532846, -1.005848169950383, -0.7015367572823237, -0.6567351209055498, -0.08114793729313513, 0.3339591101003646, 0.5425115827149786, 0.20395479964986946, -1.162852325393652, 1.0847583422230425, 0.07893999129863241], [-0.19556854052097544, 1.4516421295930093, 0.20473086708074117, -1.4713075384489664, -1.3752188650388284, 0.2842693697492047, -0.09299830696197578, -1.5444658917522234, -0.7419441973135781, 1.1355928935333965, 2.102602929575527, 0.7849099328242972, 1.2218739943025563, -1.7732191224668312, -2.6399532212393133, 0.0009193339558696279]], "b1": [2.1845701027949893, 2.3606142730908086, 2.669809829084501, 2.6194723578333377, 2.332266454936479, 2.310039392096454, 2.8295840764378797, 2.356276067144802, 2.397596669825885, 2.539703487091452, 2.740714442899037, 2.595396230787932, 2.7936354611190852, 2.406684753550003, 2.6533291578805653, 2.6008410485178888], "w2": [[-0.28317282431804075, -1.2063079444820024, 1.2575295988065525, 0.6052516779217914, -0.6349040052195826], [0.8874126262846911, -0.584092832332381, -0.0447751928662173, 0.04781564645137769, 0.16313766214731923], [1.2086584184050158, -2.308819912115063, 0.528419122252373, 0.8788579561756008, 0.17894123364889297], [-0.2735346994958052, 0.6692941656337605, -0.39882589664500545, -1.3213236703310918, 0.044222154466285135], [-1.6660183026249138, 1.0470815275777954, -1.2967627787239662, -0.017902747368395214, 2.374182106005997], [-0.5308790801689428, -1.8715688237882977, -0.24032008050070366, 1.0041396701643874, 1.1976884560185872], [0.1090460881083961, 2.4604399151456287, 0.024980294524847638, -0.40855121368082936, -0.8213529268529147], [-0.17919876155389092, -0.7919672704020798, 0.8714663495358043, 0.15184951031424276, 0.934426340660375], [-0.03314899509526057, 0.5273902431129264, 0.5639636933295378, -1.2487551276060513, 2.0554126637552876], [0.2632413894673136, -0.28210726565178357, 0.3222339047701762, 0.8359435090443954, 1.3037373290080136], [0.7256193754441274, -0.6402623657963373, -0.5098606758138835, -0.02549477469043436, 0.41973215719520574], [2.340700738268827, -1.4875559483267649, 0.14078975198321847, -1.1790941636829781, -0.7924969174125269], [0.48467293419513574, 0.7679688730286115, 2.5018224862733995, 0.5000163535053143, 2.39794788898806], [0.3848645137753089, -0.23265408654504433, 0.46570567378223937, 0.5805396929573816, -1.395524996477609], [3.2687703576802276, -0.42153198093975486, 0.533158358127621, 0.18134559946736373, 1.0674727687730186], [-0.12921535751174174, 0.9951953987352987, 0.432618275583035, 1.47980851933362, -0.024263502352082772]], "b2": [1.0445376527591135, 1.8292272079106013, 0.9382492423484686, 2.6183938137745058, 0.9881973942430806]}