{"w1": [[-0.8171759784336072, -1.5037105301258438, 0.16526252912643535, 1.12305404572346, 2.118466107915088, 0.6117712616785382, -0.23340556417042987, -0.49910432968535445, -0.3706743585350353, -1.0101940846092112, 2.415569320224352, -0.3250825390408612, -1.0061933888217478, -0.3659187432392772, -1.8417177645536194, 0.33709779086604164], [-0.3596324071009348, -1.0147618703751173, -1.003080773481966, 1.7375661197236214, -0.7827903191454192, -0.4786618621787995, -0.27253088368437384, -0.4550160416747242, 0.563858377298224, -2.41393246501589, 0.074499515601823, 0.726995607331151, -1.0299126748667895, -0.9209848301466422, -0.1958693925889004, 0.6178271018895165], [-0.7005128155548545, -0.3814031532715283, -0.2805122935355049, -0.10471296888895376, 0.08580992827309858, -1.3161851556500843, -0.49381827748250506, -0.45717987035885466, -1.5701305420884561, -0.6562869692687382, 0.9696694898863044, -1.9397586235255417, 1.6925451859644847, 0.1124779636245366, 1.3648939888923317, -0.26580389080324784], [-1.292019756439636, -0.5203842150990329, -0.4959078206199879, 0.156267708021331, 0.5263988886079274, 1.6002430272038475, 0.108855322878928, 0.9373957608897874, -1.016494869623103, -0.5688096509208619, 0.4641833932759731, 1.513007688151869, 1.373291732608382, 1.108207635525274, -1.8383177558107795, -0.5348476829770131], [0.6501943129505531, -0.4793840726946351, -0.2717887732484826, -2.1476031362395465, 0.12050407755992093, -1.2655594001851838, 1.0108477408090457, -0.6313913605695703, -0.40796005434168015, 0.3259190847197465, 0.45106194631035756, -0.6096324589712248, 0.9334906903557019, -2.420736657576242, 0.7127549738784273, -1.0805601415333768], [0.3196847695843327, 0.6296685715061308, 0.07821854744738826, -1.5491450713168973, -0.41125428138398445, 1.9367740179387154, -0.5706100642609361, -0.08012193223898727, -0.09499985252833851, -0.5266905447508999, 0.0009902269901354704, 0.30127898779381035, 0.6043849885780537, -1.6068733084217566, -1.596301971734969, -1.5882714440774408], [-0.3210734359847527, -0.8383992395279078, 0.6627928190234369, 0.42035787301688465, 1.1703975713259849, 0.21528245480106814, -1.2386699273866726, 0.7155171105296162, -1.1775067456026993, 0.1868916290502223, 0.4181129541965276, 0.6382536581835164, -0.519006534614453, -0.4092922681173248, -0.22115804906870828, 0.9509524830727415], [-0.07680814956973334, 0.6749260266317636, -1.4483251886558663, -0.41395727722531706, 0.015352700999652164, -0.6513558462912501, -0.5300768233387658, -0.019091319814775062, 0.7079614146272066, 0.42414769670570324, 1.4451625846398046, -0.7462714678065823, -1.5230238791971837, 0.5847289229794386, 1.2701705448691336, -1.4752322300259557], [-0.3356933731974541, 1.7606314055883907, -0.7329072598536943, -0.06622468933639802, 0.22120511504892698, 1.004960059573011, -0.07946685073494957, 1.2229174479458718, 1.2856885366981916, 0.9791959834245345, -1.6694279774895475, 1.0935252144904921, 1.580500175827124, 1.6902958356483726, 0.5729790829417301, -0.31133740431623935], [0.45696919299845673, 1.0132558439990553, 1.8802360482784453, 0.26588807992138425, 1.0015515745161836, 0.8039458219270362, -0.5817337262939257, 0.16103541001833838, 0.8685375799303418, -1.6853776992402583, -0.41517442467063204, 1.3469813517593763, -0.6577851863771544, 0.07016945441250624, -1.60942228165676, 1.6594254519406664], [-0.05311577851477885, -2.5067066971418663, 0.21486488466738057, -0.4761200961165181, 0.736354391220306, -0.3083830567503682, -1.4355006829472368, 1.9954033808743123, -0.15403676363563107, 0.3245746591176377, 1.5915248500141799, 0.7275751543367521, 0.24988895936827674, 0.6678119516081007, -0.7236679459779147, -0.1411213582458482], [-0.006726327054119102, -0.1850718357787442, 0.4209851037221048, 0.7425537364072149, -0.28583883021232936, 0.288380622308826, 0.12393547363171017, -0.5036017850370649, 2.2114775992576434, -0.5192656754226481, -0.8291206522551944, 1.8213330107375252, -0.11631472895720033, 0.5672117332332097, -1.4262828713877338, -0.15741190333500676]], "b1": [2.4013622657786593, 2.447423776609189, 2.6546546974432754, 2.6251162926497904, 2.716785893444412, 2.654237193697004, 2.4912364234696875, 2.433045895278606, 2.3942392748741335, 2.646581805685897, 2.791750462184989, 2.703310032755376, 2.478308736313002, 2.5560346421903484, 2.604373871397023, 2.7815578848534335], "w2": [[0.5960486419504648, -0.4542336477953554, 1.2929075596447996, -0.18647590147168358, 0.004772480406584095], [0.8498813281377954, -0.5995050180568496, 0.8255628978129661, 1.5941224243440955, -1.834911831637747], [1.7805273534752657, 0.5952548480569114, 2.0499939136545815, -1.0858214057564675, -0.42309201591357654], [-0.2819024625809431, -0.6438376088927311, -0.6303212137986569, 1.4532976367186332, 0.9327666262597261], [1.0203908934425767, -0.7811143271548089, 1.8781517714214118, -0.16431657183071008, 0.9116419498152245], [-0.1148014253394677, -1.0257463884255962, 1.0030744153573785, -0.3211842659584906, 0.2055728474090542], [-0.6564812577674836, 0.4198394404568986, -0.12690604386557097, 1.681466435135277, -1.1779916247243745], [0.3401574081991648, 0.9222465656001151, 1.0146237377867728, 0.04756482465325784, 0.2852347145651184], [0.7958876093312949, -1.2228537351265254, -0.9675944745807282, -2.6689476104581202, -0.6086129963239256], [-0.505731782256245, -1.2222866967086183, 0.49297229022836764, 1.9478092797076554, -0.5671836785334403], [-1.6008457006869807, -1.705039077263916, -1.128328028906742, -1.0650087184183743, -0.06385191670356782], [0.0964659838039591, 0.5531544314121961, -0.3928354831773378, 0.6912901157560518, 0.16410694293226413], [0.24407356560895505, 1.2709436896126567, -0.05083436267972037, -0.7664921984091355, 0.6004100580769562], [-0.45466515139095176, -1.3119223788041683, 0.432230441358754, -1.6917601129081217, -0.943801654215056], [2.741284443204799, -0.2779393975703527, 0.35931526769325217, 1.006567845315449, 1.0579857783365616], [1.0311523515118028, 0.32418466040619376, 0.6860886968227322, 0.18377680918865494, -0.6677310763950365]], "b2": [0.9209351766374716, 3.9920343675424714, 0.9108222988115742, 2.8105270566718685, 0.4853989640752297]}