{"w1": [[-0.45476672645216026, 0.4915933150390375, -1.7308853268920847, 1.8239112034927618, 0.18708298029895637, 0.7827817095061658, -1.006683601349481, 1.286935857703852, -0.47416246648997074, -1.3274693998563014, -0.5410376922294985, 2.2922753481315223, 0.20475664493276693, 0.27263618638459564, -1.7445813687513494, -0.2034051131239764], [1.1655246226999383, 0.2378039658766229, -0.059288568922563956, -0.3940840199892586, 1.9498411039938632, -0.9606331967714278, -1.725646789624276, 0.6494568343526328, -0.3683651202608399, -0.09951624736373316, 0.491758721812856, -0.9467044516998179, -1.035817935598111, 0.9983596026698618, -0.6327847848028476, -0.9961081176911362], [-0.1477316914970743, 0.7794034782654758, 0.1247543689591401, 1.4561118884884967, -0.580226620806384, 0.2854103924878942, -0.3623563963557731, -0.05818737423130321, 0.979577136316814, -0.011386824006986776, 0.7786209975138967, -0.2242434900370805, -0.49113665053109157, -0.05119271594935691, 0.3569924264588361, -1.451133803167517], [-1.2211023056782648, 1.850607499375585, 0.20400058494978565, -0.33007091231096003, -1.777734174434787, -0.7717920993797728, 0.701052912809116, 1.0614601816812392, -1.2329979974795702, 0.0026068393361381587, -2.735508452958974, 0.6334541362570875, -0.0816325702836021, -0.032807593437365154, 0.7571930569364017, -0.13845302582227942], [0.38759154217695335, 0.4985086268762399, -0.30904566891414004, -1.4585503544335625, 0.2518164426674098, -0.2159580877323819, -0.6929280845674721, 0.2602926248981348, 0.5114513672739638, 0.39600246920024834, -0.410610152143794, -0.2755713310388135, 2.076581448621054, 1.6225287572702918, 0.6866205451143376, 0.5327195425255635], [0.5785106663383361, 1.1595998719359015, 0.6927711402588441, 1.3552001627511276, -2.0934620439166336, -0.4624840014928484, -0.39900299640142545, -1.301610485506917, -0.4490719185690251, -0.5345947751363211, -1.2205558165971633, -1.0540559194899088, 0.5550136539404341, -0.5324474865033891, 0.6549968321671072, -0.7437392220649085], [-0.0528876643622737, -0.8998712331560057, -2.1828747243992104, -2.3332989244370914, 0.3701008121305499, 2.3980303756247814, 0.44826468730375524, 0.274580332041447, 0.1518429776803674, -0.6308992387005767, -1.5280252394154594, -0.4735584641703179, 0.2598911911556515, -0.7191017070257625, 1.2782997504196378, 0.12288709397910255], [-0.48167044947368476, 0.7233540816562933, -0.5111274378721482, -0.5467988310080373, -0.191804271454447, 0.6108775713401714, -0.643576391679293, 0.9678203302371338, 0.8582387850696507, 0.5232675853273254, 0.3530440691008837, 2.928112847448084, 1.4975197525285482, 0.5032707608973184, -1.2167688684498488, -0.5990485449873215], [-1.9863206223720322, -0.32631252705737573, 1.3171473727791767, -0.6186277811119462, -0.023240692249020006, 0.9025868816283885, 0.6893765089539508, -0.005289357265573835, -0.8965825191239759, 1.6887734506228171, -0.7751136001253928, 0.4387358718900648, 1.2339149861147707, -0.5391873391030307, -1.1050456111614362, -1.3272191803596165], [1.4032360972454505, 0.19655898639676683, -1.4737625641794463, -0.5082114210383303, 0.16778235608304323, -1.6387803949557351, -0.43773695948040087, 0.564991443110077, 0.19564672783874898, 0.6825587632801718, -0.3539817003649816, -0.03156739438939955, 0.363675966696107, 1.4197572947928114, 0.43313086643950705, 0.7883668884508059], [0.8558031349688624, 0.3704288048363754, 0.029843115491136163, -1.504240142453545, -0.4497832552115295, -0.1804631820689876, 0.011002339635108008, 0.8619839558324542, -1.4622297149907506, 1.520344893673753, -1.3680903396682376, -1.3521723829310979, 1.156429889227201, -0.6450907847657161, 1.5712327328063869, 0.06983693384373475], [0.3718607461642751, -1.577662388193683, -0.16063925984213373, 1.0072939322876033, 0.46448817252729624, -0.7515203616829127, 0.4469320267691592, 2.3606203854913907, 0.1446662960695162, 0.8762636589434327, -1.478332629386997, 0.6193969185918243, -1.2371266350617813, 1.3142343234376213, -0.2622831199637371, -1.145137470463515]], "b1": [2.4523051614123905, 2.755012162120392, 2.644938523165975, 2.6338871015438743, 2.8115223185643763, 2.27054046079438, 2.675498336271233, 2.606798215578941, 2.4628169464946112, 2.9834530138467357, 2.423529779215494, 2.601275257184489, 2.572510387029408, 2.5031774025513682, 2.314381656502952, 2.5663440950376812], "w2": [[1.0572668120928086, -0.7679595811975127, -0.23190508405262392, -1.2719881107916926, 1.5095037433223362], [1.1827071563416083, 0.9458590971890105, -1.0280169676109803, -1.1450413598789282, 1.4989396939837965], [-0.13025942851397687, -1.0601251247111498, -0.2523011501279432, -1.7614006621454554, -0.3556108455989898], [-1.1192495757589591, -0.6537950435722636, 0.9016481112890954, 0.2188261574441542, -1.9962508911538885], [0.2908483758825714, 0.42606777858503797, 1.0087100464924106, -0.4669429200311777, -0.19036772171061123], [-0.7028212966397113, -0.2771478704208035, -1.0631216200199967, -1.222864803374831, -1.0370665779700305], [0.5266299829015856, 3.0638952071210004, 0.19462967967593664, 0.2865524139600647, 3.5431306457123704], [0.016784876520472364, -0.15235348149053551, 0.9638168334509576, -0.4918575371530363, -0.03654437181222553], [-1.5633793907943032, 0.8976141215727924, -0.6480862654435865, -1.3828954994575042, -0.10288980235509401], [0.9087599563338515, -0.7669104623971335, -0.10903690783722521, 0.7493027947483197, 1.4267517378108716], [-1.9244687093769675, 0.7404341913800147, 0.9840305582066632, -0.3852229492664767, 0.7702106479134824], [-0.6466004126053204, -0.02155722076358195, 0.022425608491826066, 0.20513262526061404, -0.02172561412612068], [-0.3286721978355398, -2.228999762644794, 0.38389676941224227, 0.04998344413466187, 1.2320884289172218], [1.690898033073215, 1.470325213762198, -0.229841019419649, -1.1376515177758209, -0.4458506924372114], [1.0705091156030717, -0.35721726351330124, 1.6641065849814691, -1.7824190941874913, 0.44291705097880585], [0.14513691279814134, -0.5391547780673928, -0.4176611798294334, -0.049815348150115596, 1.124547451771902]], "b2": [0.806480245408066, 1.0825738705646895, 2.232532921462348, 1.7814117243036707, 2.38241387534656]}