{"w1": [[-0.2529818857553056, 0.6326803668943699, 0.26114518505812306, -0.6893078263523807, -0.25269443788731777, -0.6884935279109057, 0.5977351818985548, 0.09984341487032093, 1.743110382926307, -0.1018514883857345, 0.29905257940371555, -0.338381579763604, 2.5722577595211646, -0.7644308400069053, -0.23232263460711144, 0.3884291456147675], [-0.10553833490471475, 1.122233403287631, -1.2506061617438702, -0.0397608259647449, -1.2978307561135136, 1.024689053892929, -1.2816683958880033, -0.7079635612785818, 0.8523372051595635, 1.2343468607950612, 0.467587484405963, -0.043744352336758094, 0.47377244152711306, 1.3560035347171804, -2.1268780087710644, -0.7870475023252885], [-0.7526228986926824, 0.7242438666335674, -0.8907550191705511, 0.15700150924116713, -0.43690251645679135, -0.41668183850706275, 0.33757069675640794, 0.3094493791864441, -1.1966903619579068, 0.6911106365945421, 0.3264442698906065, 0.09498437421069617, -0.8811776245905631, 0.22317184635278553, 0.9250326730554742, 0.8480244988195129], [2.778767772888335, 1.831476662651093, 0.8363316219309443, 1.7987929659980293, -0.46521979498376254, 1.6398853748734321, 1.4397234862971882, -2.0515609779078248, -0.8872447163346788, -0.8584869015533871, -0.2472103652717051, -0.2124932487163607, 1.6276506698903668, 0.25374970957006154, -0.7018007645088782, 0.5139342404628282], [-0.014959148135521183, -0.5043986605782631, 0.9738268207994729, -0.058141965379434085, 0.1217449681249719, -1.3311502561123147, -0.33961098424870206, -0.9949651216288616, 1.5183613144374408, 1.8756585907831034, -0.5048684264554757, -0.17729927205539067, 0.20751970406249626, -2.6691498357614085, 0.8568251310851129, 0.6912534653899423], [1.1592556354945482, -0.2908505414452458, 1.0545204798895993, 0.543525371570678, -0.3790025569332978, 0.6850800745269683, -1.1337770552607838, 0.5485491196488428, 0.17300603176084775, -2.244504455099682, -0.17500594051625157, -1.1149599075803551, -0.04354374066534769, -0.5457781142830846, -0.11382155282816614, -0.5552126695217838], [0.7529262227887495, 0.561589395306124, 0.8643353177365922, 1.6011511500285232, -0.2631554486771176, -0.14203824655453512, 0.42820829854307124, 0.5909877061783135, 1.799564262571098, 0.7499696720609729, 0.6656300568005918, 2.947305314834989, 0.038261632395187345, 0.5846987780998663, 0.3395103276071152, -0.15624083306809303], [0.45615520413812827, -0.25055145997207157, -0.9722722058478804, -0.619702802346082, 0.19902564649226953, 0.6555927230720926, -0.7861286263710564, 1.2060118887411972, -0.8486590127671035, -0.18836815937053292, -0.9611385148406664, -0.8340701819983425, 0.0899336499072674, 0.07300698742900966, -0.48520856885724756, 0.8484264966160945], [-0.3584647629449267, 2.136485063448814, -1.860054060838704, -0.1545346761913278, 0.48710750675958586, -0.9176017194663237, -0.5356080881381684, 0.0447881773417482, 0.22463441655853428, -1.6027248911105512, -0.9381176709180127, 0.7141314891096171, 0.6056972245062593, -0.04497851061906733, 0.11236394788991354, 1.6647562829265121], [-0.7008774468626994, -0.4187165527028125, 0.189182947135615, 1.2446387593617207, 1.4349513077186762, 2.432272491069817, 0.3915689912369301, 0.39234840568816565, -0.5252654136908104, -0.9259244435401942, 0.5399874300244252, 0.6905201708375795, 0.02846880845467631, -0.4361393625501833, 2.3091080163625253, -0.5753451056308263], [-0.4072516239339046, 0.8089603490882801, 0.7402851760581977, -1.6482997770949048, 0.031257994567557484, -0.5192531622465241, 0.6001832956002325, 0.6070405221208649, 0.9173924017417505, -0.5906173674337796, 0.8214526540703049, -0.044871241994940726, 0.6476857873763973, 0.37491363184464166, 0.8304506978941772, 0.7935416962999271], [0.9667385296038484, 0.17425426549231882, -0.5296926052045104, 2.812247912021816, -0.3022570878666958, 0.648223229707612, -0.5397201948683823, 0.5885177036284278, 0.3233173862159825, -0.35711691019107045, 0.18371749912237187, 0.3330411980801583, -0.6814414816572367, -0.33090652383654395, -1.1083406854074656, -0.2910517845993656]], "b1": [2.586193027150527, 2.7244228287163486, 2.796716385127217, 2.628765980981647, 2.7042353001037056, 2.815570684657697, 2.8870244473388036, 2.964343682044596, 2.933519383133243, 2.318515981888751, 2.693915272898609, 2.8666074042996903, 2.605590097292903, 2.705962690297551, 2.9971123521321474, 2.8455933817380434], "w2": [[0.054219511726879666, -1.1430272025315806, -1.4131302884000838, -0.25213946680227456, 1.5071754104294897], [0.2102668584338126, -1.788473587616457, -1.5560101552060652, 0.8325184998899099, -0.1547950007174528], [0.07736883734582771, -0.0939978752280212, -0.650683428185487, 1.7835892697304834, 0.146645044014862], [0.8792683512907788, 1.3127424477024008, -0.499224150686564, 0.08483947796114898, -1.2074087267548466], [-0.041868696673870553, 0.40215143779249285, -0.8624031840334301, -1.5368660969425347, 0.040957468047391726], [1.641304083509167, 0.17752007755128857, -0.660391025122612, 1.4795053606475987, -0.23634612818621392], [0.810166690343031, 1.4393778658088352, 1.141595825491566, 0.03199809790252514, -2.4690399038394926], [-0.3680638633183679, -0.6533534850601312, 0.7677053956850403, -0.1420622218604722, -0.26093715017808183], [-0.7032319201826348, 0.2150621333334369, -0.002964457298370929, -0.7282333711797012, 1.392072609274638], [-0.5250719160759226, -2.047233055808182, -0.6016738087398206, 1.193242340899812, 1.0698306734962668], [-0.17774756513859102, 1.9459339298629459, 1.1965211200946377, 0.9927685102453533, 0.2736766010525871], [1.3140676480760092, -1.3190856833031028, 2.882632150455684, 1.1021811324494248, 0.17105304809948177], [0.18181529030017232, 0.5282516101622583, -0.6381304699560585, -0.11171830848273145, 0.3426260677205656], [-1.3518943537002437, -0.9864995890532966, 0.38194225983987806, -0.7459422272210179, -1.481617775239985], [-0.3345382781392285, -0.23342506533196627, 2.4838983081157213, 0.35474958460349926, 0.5886972176633918], [2.0034926494752336, 0.17566865694188713, -0.27205643593208917, 0.5996993847735568, 1.268088980650198]], "b2": [0.6021127721823155, 2.608567837510735, 1.7196119402050853, 3.117554125235691, 1.498409947273078]}