{"w1": [[1.1604894296533406, 0.4368494323624272, 0.9233175193155582, 0.8708276743990018, 0.2218019839044748, 0.773320745768576, -1.091122428087792, 1.5119474270518274, -0.19054145826646096, 1.17749507733132, 0.27197835467843834, -0.42649553794440265, -0.4031864602821907, -0.11328950471577523, -0.4611875348149273, -0.2816522613899393], [-1.1111173718306133, 0.8460170757815761, 0.1817384715704406, -0.7592085596294024, 0.39833112781759283, 0.8121903299239884, 0.213762277055036, -1.2632447842698051, 2.0888913566358087, 0.6884779102479056, -1.5061076831620257, 0.16717713245142946, -0.9966229983551789, 0.0941469088132987, -1.4939971466850268, -0.006984292042828008], [-0.6914352176967842, 0.08821203759458468, 1.1655220490380427, -0.3409169272398426, -0.2600297339913119, -0.3237141469595044, 0.19359664224444934, 1.029073174108845, -1.1223798020135898, -0.24031511403138947, -1.480844948562998, 1.1967897440799506, -0.6568584573525993, -0.5468038355482369, -1.8589003162649018, -0.49398215493108666], [0.36272949894905543, 0.9127538543657512, -0.6990825251093506, 0.8066716533685617, -1.2285671335709365, 0.5421060846259086, -0.5491247020416568, -0.53815173738293, 1.2820977012980137, 0.9609203835364738, -1.4116402724777894, 1.548377625034433, 0.5031287290867672, 0.4127993447056939, 0.50588877074554, 0.40622782249519424], [0.6953728326220381, 1.7695689186679116, 0.6503047759586664, 0.3264363537274778, -0.5135868581841581, 1.0294208718340259, 0.7249760720567646, 1.3785896437065956, 1.2825723328535052, 0.07034329090445496, -2.140467543946723, 0.9937193299129626, 0.04328363458185101, -2.362408533190996, 0.12551804735873373, 0.29106525278998246], [-0.2711308261858205, -0.6352878659067547, 0.5800882791164964, -0.01169714489479181, 0.8436638393498935, -0.3484080128793813, -1.6146176734941562, -0.5029574027466015, 0.7394104249663821, 2.006324045720117, -0.3906847221224545, -0.8067510435181452, 1.0286986506226838, 0.31932282902333575, -0.21956043567239222, -0.11040142236730252], [0.9110760798372672, 0.3662938961523257, -0.3729227191335003, -1.0357034586084761, -0.8316533392440637, -1.380063770405793, -0.9214496288129973, -0.03816428079529477, -0.47505956145964134, -0.5722397324348465, 1.7670869575922907, -0.14475410439174838, 0.07900655481349313, -1.8116454558065307, 0.9135003178730304, -0.11267365787835801], [0.6436616035449345, 0.6397300280183945, -2.335447149295098, 0.953916171431582, 0.8839539045909636, -1.9743786574027844, -0.15198866066348538, -0.13966640058855387, 0.49255685275075095, -0.28186927176544035, -0.036054115282692645, -1.3172738631475085, 0.4151646085981562, 0.19053152349436547, 2.464195236066959, -2.399745000080678], [-0.09504916438721461, -0.08490140646514492, -1.250058454163535, 0.1920651084472647, 0.6690376569051075, 0.47098027255432284, -0.17599276254411778, -1.5466667529530849, 0.4097196836317819, -2.0733117062969186, -0.21173474006025644, 1.690536310401855, -1.589831715078834, 0.10821070039537031, 0.8829756486169442, -1.564831700499376], [0.04136508663037148, -0.3798236377829675, 0.5698466463106427, -1.2723377750028284, 0.9453848178249281, -0.09279008397877848, 1.7349569085413812, 0.435078220306374, 1.0501396728287178, 0.6424707279284745, 0.0043229570139369095, 0.06073064851920827, -0.6705756614485824, -0.6975364022719763, -0.3582342119585529, 0.29501402364543616], [0.34425237621905325, 0.4067698061466406, 0.1142182805868902, 0.6466902371728873, 0.5698066981026869, 0.2765759392079672, -0.03476339919296573, -1.0411811378786913, 0.17951889541515537, -1.163186205175433, 1.430982712741117, 0.3832835516866436, 0.39504139860440435, 0.13462250188787744, -0.23742854945773195, 0.42717536494462316], [2.424863205438694, 0.7224063555759942, 0.5417985453027728, -0.20531445821380334, 0.070266737089045, -2.4103507073415718, 2.6950432872832484, -1.0310282510711457, -0.09935143851799688, -0.3846852565326082, -0.41029185388281114, 0.8468438687447472, 1.1394228870248504, 0.5890638043428689, -1.9686445721087145, -0.7308799977632416]], "b1": [2.5535492866478746, 2.823314812115417, 2.643089363431979, 2.5795825696847263, 2.6533872541108554, 2.5315857375937476, 2.498338555454796, 2.710918921830103, 2.8988036679276252, 2.6751815178113763, 2.699314314611199, 2.6558305000391096, 2.591221805647422, 2.445666305908786, 2.5589461296087572, 2.9571939977562014], "w2": [[0.9332448689049125, -1.3086478863580153, -2.1948939530937324, 0.6368418831999121, -0.796072723802773], [0.32719511595652123, 0.24224975715525182, -0.5366516011059252, -0.6799900064257738, 0.9058871970526059], [-0.2915607506142235, 0.48723676397597954, -0.16493118574398147, 1.8105133966380413, 0.5028549045124135], [-0.5639984780112945, -0.6092168374152334, -0.4122818001554301, -0.7530258695943601, -1.2706669764673628], [0.7260450501441646, 0.8056161296856774, -1.0812704820834012, 0.08421203503045395, 0.21501064504430875], [0.5657756293553765, 0.05589768950460565, 1.7877790169346581, -0.47552283234108705, -1.7943049276540584], [-0.665052408971232, 1.7374559998065127, -1.0473644258761126, 0.47123929108879986, -3.2928939372189037], [-0.3588437746043468, -0.5590613202023115, 0.6499956216430665, 1.941462494174944, 1.1926361099003748], [-0.07139761379177376, -1.5724830176913156, -1.167826055731143, -0.029418398221741915, 0.7490136513382684], [-1.0810711225168723, 1.3142334253690457, -1.3282980249646654, -0.6368109336828517, -0.5391799327864343], [0.243581394328227, -0.7059815762176794, 0.7024461298327667, -0.5757121933080633, -0.36244876672677234], [-0.04696603463821626, 0.7150926085656701, -0.7319964797808827, 0.5745599005722918, -0.8375153713369413], [0.36499512302105086, -0.6907065957051219, -0.9654322214879119, -0.9410097710748928, 0.12865857761950486], [0.2354869105833198, 0.8989002264155, -0.36645025495805894, -0.3584735679595834, -1.0623046207971878], [-0.7089398650163323, 1.3515930259585776, 0.31863090698402574, 0.8386599534465807, 0.1812340463744124], [-0.7286892446183072, -0.11531880038395917, -2.8294024113549994, 0.11495840500039023, 0.5627635260696773]], "b2": [2.4469486143268995, 1.5032882194236061, 2.4513856299485663, 2.492642420399446, 1.671126959165092]}