{"w1": [[0.32125715926428655, 0.8552662716270323, -0.8448552422586453, -0.2743046490175835, -1.7234683528174846, -2.121147262427548, 1.4698210148253026, 0.6634473055136061, -0.8357015050077701, 0.7344826363597763, -1.1532631657677166, -0.47554219586924956, 0.15604210300262897, -0.9733170668123097, 0.3656110740714621, 0.7361100615396656], [-1.1113330151227157, -1.2578649148431413, -0.665072174861105, 0.1871867083707884, 0.08664668089528, 0.7960787848742064, 1.0625142094978235, 0.37085005869920806, -0.848587076481661, 0.9954666555035727, 0.9788238640994268, -0.3773539211371293, -1.5396010755863927, -1.5779049022467677, -0.41536645820571005, -0.6466403197960542], [0.03815010932279709, -1.2068535890828271, 0.03377987339429811, 2.5650837797380754, -2.0649026686804386, 0.12235805942751897, 0.1854736408018982, -1.9660791106860978, -2.4552561118996232, -0.5443212220863684, -2.358709834754352, -1.308518850753076, -0.08906316142317634, 1.1771339553044666, -1.1784625969055469, 2.1920669493594103], [0.8560837145934084, 0.1370328077101015, -0.9983695072617441, -1.1752107312019746, 1.2471902888099116, -0.06944895781381247, 1.2674211348989508, -0.5843754407587691, -0.03543535408847946, 0.1648279729912504, -0.15997258816494123, -0.6672414301051116, -1.6675348005806214, -0.724732448588272, 0.2783269287065413, 0.48574384522880043]], "b1": [2.5795117997657173, 2.5255394477769486, 2.668877490211891, 2.566812562778467, 2.438296868632921, 2.5080454006220347, 2.423377651444414, 2.751455441163769, 2.359191281187392, 2.764287218613015, 2.6121323430053174, 2.8648139844969522, 2.3940169863264735, 2.676637652894948, 2.641910544197111, 2.3958571728274523], "w2": [[-0.17296955767981192, -0.002750237306092952], [-0.17597977066554255, 2.5491966549375142], [2.2503347443280135, 0.6260448623580005], [-0.35797152737003934, -0.6969453145311332], [-0.9241369797818291, -2.1563313986471666], [-2.2629831261341673, 1.3689625407716082], [0.700278588608556, -0.2687984017948465], [-0.5902297473689968, -0.6227030269090558], [0.9793582685367757, -1.848967528072572], [-1.0299096617065344, -0.5721588995458475], [1.353098534616074, 1.3937367343540923], [0.28160649500165447, 0.02178094812696102], [2.527040808549869, -0.5007555448656269], [1.094329054142833, 0.8650244728120837], [-0.8574000507838896, -0.6699009737955716], [-1.0303636201822808, 1.5064157943903833]], "b2": [2.3178932890206365, 2.6695811957010456]}