{"w1": [[0.38411461521797785, 0.9248308770548841, -0.9127201964522509, -0.07196464980638645, -1.59216078613559, -1.9842354895088081, 1.7572292442118849, 0.8344924213760143, -1.0985843419164203, 0.38598925098623493, -0.8557853072896036, -0.5830576530652439, 0.45206433684979624, -0.9788326456159046, 0.5938284634277546, 0.843722736665715], [-1.0583798039492271, -1.6699699991414794, -0.7105707743362003, 0.17407998720043516, -0.13872410190120243, 0.7880899798916385, 0.8355711090642391, 0.33430158451063335, -0.5660296738586073, 1.0246534259301439, 0.8235929446664714, -0.3564172595648376, -1.7928847123417542, -1.489627306549691, -0.3460352785965999, -0.6550394992520367], [-0.0635448343825345, -1.3408536293845092, 0.02521711032379624, 2.329687859503714, -2.12129128941608, 0.1516813833763513, -0.08155456807740809, -1.9303156060035698, -2.2969155619253923, -0.8588541070224288, -2.543025589458837, -1.398042977434854, 0.09403790418911859, 1.0334883138907494, -1.0807417469284348, 1.7758581212058868], [0.6905245287719906, 0.23637941338871782, -1.0893613110117315, -1.2633373055075579, 1.2971652728564296, 0.005736671074487915, 1.2003221880826809, -0.9379024847808093, -0.11190919240522737, -0.31235541926182275, -0.3247286443354072, -0.5353816571158928, -1.5238386864188045, -0.5429803488087803, 0.6050658094295843, 0.7715550886916448]], "b1": [2.351718552021286, 2.679851256938678, 2.756099801436983, 2.6787577054828304, 2.5157535562949476, 2.4410954845342, 2.542517745663808, 2.6038973769187908, 2.3672031381091747, 2.6669126818389515, 2.3411608289479604, 2.7998064001856133, 2.5756881811061536, 2.6641689893080756, 2.626121513185341, 2.5843324327913946], "w2": [[-0.034963879469186554, 0.08843802061083092], [-0.4800756782524094, 2.27794462772595], [2.0071288023670277, 1.042322086461077], [-0.3413195732745067, -0.5890948354023812], [-0.6441479891625558, -2.1730742555314886], [-2.236437003595051, 1.354375304371549], [0.8547991137308478, -0.13210957267442142], [-0.7048852021129179, -0.736446012194244], [1.2246142111713478, -1.850376021789917], [-1.1265867238691594, -0.47857841310808497], [1.039257166046757, 1.360256893349074], [0.19403243994992825, -0.1876719467880042], [2.3314699698243624, -0.4177577897743747], [1.3522898349019987, 1.0625545431744476], [-0.9700387739323388, -0.5584663128459086], [-1.1395286647853555, 1.42946729903998]], "b2": [2.1892263951209845, 2.403624846760886]}