{"w1": [[-0.3778162731206693, 0.9452287222329605, -0.7813369519976937, 0.9225256584485986, -1.3890680761410505, 0.4272621411569873, -0.37421532059697016, 0.9594572888085344, 0.15871103640041387, -0.05803081083649414, -0.08683171988514723, 0.24402304496638386, -1.15798290107448, -0.5381526331028587, 0.6207666107966826, -0.07452067046946742], [1.4057782453968144, -2.150300242607594, 0.20342727497794544, -1.7442837398056061, 1.0457323049902552, -1.164246985236954, -0.9171993581073802, 0.30701817103700646, 1.1858518654400958, 0.34010556046872975, -0.7579888108873685, 0.04131040412772956, -0.3184138492129177, -0.10502189508966703, -0.6312948439641046, -1.198729040603696], [0.2435019048921642, 0.7079838261457286, -0.3176340023060614, 0.5474095419208757, 1.8603198524368099, 1.0068788560295605, 2.521005767734145, -0.4703765928339852, 1.8664043443166793, 0.4288588453029044, -0.005511789926815364, 0.3900978389069505, -1.3970707154406923, -0.2462392333476418, 0.32534130868435807, -0.2439585139320809], [1.2858241381889624, 0.4510761316962525, -0.5474717048117441, 1.2768411031703606, -0.4369215838024952, -0.19394888270243102, -0.267717081183442, 1.4565627313059069, 1.1034285994748791, -2.1307910238317187, 0.9804868528628516, -0.5225368648052732, 0.6931626460491764, 0.9422647756013272, 0.1994627958885495, -2.2908178896646922]], "b1": [2.450824888983665, 2.699341368959136, 2.5658575665312493, 2.234624783273772, 2.7129128033463505, 2.4203740466074106, 2.775142607313855, 2.426959361594066, 2.5709611152497542, 2.7206740481548137, 2.4884345799953342, 2.584200022994152, 2.8108200326694837, 2.687875720473993, 2.3441687685256074, 2.7398719005876817], "w2": [[-0.5119826752311318, 0.6958500813306023], [0.0463095399960972, -1.0681510270192556], [2.153038420339026, -0.04834866118415628], [0.1878562815699711, 1.0445717844163922], [-3.0386128805310597, -1.0497617514695023], [-1.2514155393509159, -0.0016818763074651494], [0.2180667199936699, -0.35082203526066774], [-0.3426848992921092, 1.1115877456839265], [0.7086475258715921, 1.3150694631142021], [2.1401509383428623, 0.8909928591125439], [-0.6791908843433014, -1.0687334458097555], [0.36105862900381336, -0.09800798037269212], [0.48823690205254267, -0.5575218739596254], [-0.27889158243428663, 0.3866498019221866], [-0.4862026019565243, 0.49180884209677556], [1.1259289071398755, -0.4253322181174145]], "b2": [0.979576721550524, 1.0285010294282548]}