{"w1": [[1.573958852427239, 1.6594157673777818, -0.9061922794924245, -0.5448386528845958, 1.2323064915617632, 4.028062277580017, -0.43509236599617607, -2.2751204760752444, -1.0162645930889624, 1.1563298993223383, -1.1568337176505974, -1.493725557152581, -0.7325312257780788, 0.07978251375277348, -2.5870882419473324, 2.081918715696475], [0.4341102457227059, 0.995887466747818, 2.105135542776993, -0.22294963750505625, 1.175157874001307, 2.138352373799685, 0.4778282757963738, -2.388391493052466, 1.2337476744555573, 0.5020741481450122, 0.05329895208921673, -1.396914962249204, 0.4849525550008627, 2.649555549062254, 0.2055586154009531, -0.67404419184702], [-0.14445679079184512, 1.107352335692698, -0.541106622894516, 0.024414909184487105, 2.7669038459925823, 1.613543295456596, -0.19688958910847704, -0.5988509916985423, -1.5886416178496465, 0.4961320397156141, 0.5316754486233263, -0.05185395445778514, -2.6017488128002024, 0.885487296853411, 2.080319404688406, 0.9862667676888396], [-0.5606140436610321, -2.2140693510182547, 0.619700044693502, -0.6739760452772463, -1.7633854427120241, 0.2964845340110367, 2.6946326257377398, 0.12500656901467289, -1.0795489285417952, -1.7921138671327224, -0.9694853113153055, -0.4374910082894606, -2.059800210643932, -1.8442241755016169, -0.8930840317415614, 0.0792400686622356]], "b1": [24.578032862432103, 26.08259874553494, 26.43634461480064, 26.46222802908865, 25.780639298327742, 27.654182662878934, 24.995848404012694, 26.376319127436624, 26.445875203065093, 26.47915809003748, 25.64901120588627, 24.957128456101778, 25.375662564101845, 26.582833827115756, 25.378450904526286, 25.690956554463572], "w2": [[0.34044890294109015, -1.3090135500589397], [1.301526820242699, 1.0158776848422204], [0.7581220201492006, -0.11998761397778007], [-0.9960929697905595, -0.6379155541092516], [0.8254258670920386, -0.9076215292810488], [2.5762838810887208, -1.5653678514493], [-1.070912321135409, 1.1466388971552819], [-2.8367660684949065, 0.8262644090482486], [-0.5074296328366942, -1.3272477134095473], [-1.133804537285801, -1.3487958910904108], [-1.0188803324577618, 0.28579572477703696], [-0.5441524778509745, 0.14798830912209554], [0.4000404160868228, -0.4766921094862733], [1.4601398986606322, 0.931496712758541], [-3.2823083325296145, -0.6222383173809075], [0.1117845625304372, 0.7147411167778454]], "b2": [24.86839490400542, 23.98301355296368]}