{"w1": [[-0.011586000682934763, 0.5556800524630785, -2.2381019367114567, -0.07799453253424427, 0.319987640925005, -1.428996431157629, 0.15301276236464476, 1.7947675590921364, -0.2957542270823412, 1.1213775284765448, 0.9531035243215903, -0.374677432395648, 0.43788162693451294, -0.8932086150513572, -0.7781877065741252, -2.9320670431899414], [-1.1987618975326217, 0.03336749655080863, -0.32886178064189175, 0.09952827519731418, 1.2826413739703304, 0.8263833729203972, -3.185600727686269, 1.2893933994936346, 0.1706716335086506, 0.4099794984398862, -0.2167054367886623, -0.4343218602575327, 0.5669423317484767, -0.8349867998835016, -2.5347626634440856, -0.0604858282391027], [-0.20517573499155167, 1.4765571185730786, -1.2552179803103412, 0.05178898260136107, -1.9805720130198523, -1.697473506271746, -0.7455567289964228, 1.6072559288166621, 0.2694659018187455, 0.47313838105743616, 0.40601972746374404, 2.8947873629753276, -2.0208094295618446, -1.542636669602311, 1.0181292008996772, -0.033768352637796636], [-1.1481710431583856, -0.1485567913362109, -0.6415376875048501, -1.8172788321040292, 0.4076507183304932, -1.8433574326233138, 0.5432378649482585, 0.8953039094029698, -2.6108432817169307, -1.9088397608188192, 2.5933691026668986, 1.0261467251496172, -2.581236837885539, 2.3943026729894514, 0.15090654292641642, 0.8628610486222609]], "b1": [25.913820761098002, 26.611792228177382, 25.434808321195188, 26.777689470247832, 27.00532576271495, 26.321853503402277, 25.682267500728447, 26.194494313229537, 26.471803114614357, 26.12987859216758, 26.586882449243074, 25.274996922124984, 26.687001465926087, 25.757942594599342, 26.237728553650683, 24.913547126936944], "w2": [[-1.592921174491162, -0.3269317464110052], [-1.5170360530597737, -0.029381443722121897], [0.7021876863845131, -0.19293721846394615], [-0.054490713297687315, -2.071060437208121], [1.3064846063905486, -0.8097658447977287], [-1.4712353429758926, -1.0338054946921995], [-0.3600528547278954, 0.8170083799354717], [0.11593136211123577, -1.8413554876003773], [0.8518928615988699, -0.07970803903701473], [2.318416813187112, 0.8129278066098657], [-0.7758396078065846, -0.7635410558993341], [-0.6928372196779335, -1.266220638976182], [2.0105762137475938, 0.2517821239812542], [-0.8897288637019815, 1.4386661156245282], [-0.9469397848613622, 1.955149802428414], [-0.4667255197150514, 1.968785270174278]], "b2": [24.127116818880374, 24.361904560195804]}