{"w1": [[-0.7758125385111979, 1.2912199152191868, 0.10026466833853719, -2.0290377444849, -2.0256564255644984, -0.7670791030144218, 0.04252877464412751, -0.8728671123551593, 0.18069876656749606, -0.3223810473843818, 0.926085349278152, 0.4149321021884982, 0.5073626013283012, 0.9634484066320423, 0.6504110577845089, 0.260384922845633], [0.054250322913668075, 0.49418839448592455, 0.6765563916865823, -0.17516880873130725, 0.06017628674591033, 0.14943602124465893, 1.506522116817489, 0.23220682524756406, -1.2748499424182618, 1.1301769146026055, -0.13312218722363944, 0.3154830049015547, 0.40139824386439205, -1.009600510764517, 0.20008172989914152, 0.08125208784278892], [-1.126609504952697, 1.2467569025535954, -3.5519384618685876, -0.663567468664261, -0.021782181324115982, 0.3363201662525358, -0.9626521038538026, -0.8308852824233651, -0.269747183224759, 1.006803840987431, 0.9854933621837143, 0.4875763000590779, -0.9073845506261713, 2.5396158906434896, 0.5493755890240447, -0.2908583745914944], [0.1933307792674691, -0.5634167576643062, -0.6583331882244912, 0.7981334726933275, -0.060535389718428326, 0.6016157991251289, 0.34411781241739003, 0.654617557581401, 0.4582606088105947, -0.44809902827039877, 2.510411917536131, 0.6505679959010096, 0.4685266518289497, -0.5627783483208021, -0.9975397406435579, 0.5184345280225463]], "b1": [2.6384444465590655, 2.8945821662756073, 2.8868706896961482, 2.62225311027904, 2.8941696520707674, 2.533320421846744, 2.7363578793301158, 2.690530038486595, 2.721764872039091, 2.584048939366059, 2.6620598689441426, 2.7210460872427187, 2.683042167185612, 2.707543073301743, 2.720040630266775, 2.6288513046980344], "w2": [[-0.5594165455963593, 0.03390359216697605], [0.791113960812478, -1.5387185686034008], [3.0733928976453226, 0.4818064196864976], [-2.2218230440338336, 0.7624794694131474], [-0.11649055827774613, 0.24522888326365208], [0.9760581242995174, -0.625863033491284], [-0.7369354475902604, -1.3152569103223475], [1.1763150215069185, 0.6072681564976363], [0.22434687074733894, 0.6932866093116989], [0.257080444367166, -0.11209753166085959], [-1.6000049673861445, 1.2435209689909117], [-2.364421224504322, -1.4414443618539683], [0.67357711514207, -1.7006990951551462], [-0.6894452220666026, 0.8140910045050302], [-0.7565795322123122, 0.9190791681660835], [1.4966666303191714, 1.1985739137633806]], "b2": [3.154008803660843, 1.6122707967106529]}