{"w1": [[0.5116535359793247, 0.9470771089514181, -0.7980928475125523, -0.02282259000263312, -1.6342001027565862, -2.133244062411494, 1.7619321261973104, 0.8892257093927102, -0.830360406442917, 0.5337882116436153, -0.7798230087302315, -0.7130337670696102, 0.1926502010427968, -1.0948689821133522, 1.2877234561655033, 0.9011368626454106], [-0.9117870547173217, -1.6942585520411815, -0.4966416882580188, 0.0054771249388245735, 0.06389364139123349, 1.1556713626071151, 1.004549382558925, 0.29999851988643367, -1.0303312945016798, 1.017664779914459, 0.6784008196359395, -0.5509968092757324, -1.7255301376812464, -1.098223031723466, -0.5331412410084407, -1.1281019816253457], [0.35929310731688613, -0.9220300846221449, -0.007919061619212873, 2.337459940112262, -1.8436054897172847, 0.16530673816646496, -0.06135178004639541, -1.8687883223705457, -2.1318889011000204, -0.9354588557731651, -2.3767963240653263, -1.0421755787082059, 0.3033219526894497, 1.4857974020804674, 1.6849332297462158, 1.8950080435377985], [0.7762515978506208, 0.639491621400095, -1.3177164945705933, -0.9910015020823221, 1.1204173533341506, 0.16482045872122875, 1.1502145724922912, -0.6361074978421634, 0.0693764382375612, 0.1503553235548552, -0.49583231975056574, -0.6428321012457261, -1.6447904251836314, -0.49316251070215045, -0.9427892001336512, 0.5122055272809198]], "b1": [2.694271461339097, 2.4387837261778866, 2.7296311979053756, 2.6079248136914757, 2.837537189238623, 2.4755926684179412, 2.586245293302883, 2.83185289275551, 2.5243578904621375, 2.759369463785774, 2.232151107346875, 3.0715494876361573, 2.5369645194662835, 2.86046443393459, 2.7396300872415393, 2.571323839549843], "w2": [[-0.5061735848076152, -0.009339869191465622], [-0.2727414303781904, 2.6792357557215936], [2.077610733480566, 0.982472351070508], [-0.26798031714085074, -0.3373821749634469], [-0.815619096341885, -2.2175821337460144], [-2.085305424303293, 1.3845852511235937], [0.6035603315620564, -0.5494337623483209], [-1.0034913205821103, -0.4903334650788151], [1.201653000772996, -1.839745943050374], [-1.0825120143626097, -0.5997278671172008], [1.398316079711116, 1.4425573984983755], [0.32545212965374215, 0.011390930318170248], [2.512634002113172, -0.2954764667963362], [1.4413748292315813, 0.846187007101588], [-1.0545939695743987, -0.8023421908464909], [-0.9056766704287469, 1.3759596050277478]], "b2": [2.7191533799516114, 2.750857123160617]}