{"w1": [[0.4693717008326521, 0.9967100060706258, -0.8379917875525904, -0.1932521894967028, -1.4058884306767436, -2.1748768367076616, 1.7213485171354284, 0.9168278257417671, -0.7645053130631824, 0.8052200978387799, -0.8648688972108445, -0.6354564269892764, 0.4427529345795505, -1.2371009639357737, 0.7248649256208254, 0.8342407392914788], [-0.7858871444084747, -1.6578468466768514, -0.651623902340362, -0.006262950388842239, -0.24063303814517578, 0.9988416777816163, 1.191327599998701, 0.3461705658367705, -0.8200144765890134, 1.1989766331103573, 0.8800463484934286, -0.4231413419082236, -1.5194647151297977, -1.0556247189261954, -0.17995153171192912, -0.7050410310432089], [0.3518741254992316, -0.889512954592965, -0.16002509948702293, 2.46763558955356, -1.8860566057848176, 0.2004344207839316, -0.12808388765400947, -1.9481992038272866, -1.974810238394481, -0.9042726503216469, -2.3676835309336193, -1.3520283761051863, 0.5455313415642918, 1.1675981644408358, -1.4036702469141253, 1.53930460253024], [0.7762963205127474, 0.674306048403984, -1.411072529997605, -1.2119793246153916, 1.1528000126491393, 0.13175632293621434, 1.3726622053221513, -0.7561123673774405, 0.027486071491553105, 0.3742053039723575, -0.44366326457482164, -0.8945934762635859, -1.5320232059750958, -0.3517257076121073, 0.4250753562418495, 0.686922503777406]], "b1": [2.7955125629932325, 2.373120565908765, 2.6653699918996616, 2.5994756097155793, 2.6414518278027757, 2.3726715922763617, 2.264736435822523, 2.8591652811263106, 2.4849905729114, 2.6064667822135488, 2.4246471132055083, 2.9100304116352227, 2.3372410147484293, 2.626047518527067, 2.7387053044341165, 2.47961174099396], "w2": [[-0.27341764387615386, 0.007715547659665062], [-0.2414732633176097, 2.595375795221905], [2.0416082045858603, 0.6868490352740114], [-0.6057968885968396, -0.5025315464263442], [-1.0513112087853116, -2.1645076584093457], [-2.112077251336986, 1.3107299376791688], [0.9149283068247362, -0.07093289927347429], [-0.7894738273363779, -0.49266918195144654], [1.3309928512896554, -1.9861612138892346], [-0.915997908624413, -0.552660680456343], [1.4353569877262042, 1.6448091582392461], [-0.00836699434752547, -0.07095081426554076], [2.6453290735330355, 0.04666466190874867], [1.5286528819053904, 0.9280254691998704], [-1.126978179338623, -0.4641251049700066], [-0.7153025624376168, 1.391097858483849]], "b2": [2.2617278341970506, 2.3952580201642393]}