{"w1": [[-0.6243400812595269, -1.5497065359962625, 1.4189409202296315, -1.1063249335556051, -0.6693231405492187, -1.1589783644716694, 1.0068277643765176, 0.07889593821109583, 0.7000435601196049, -0.8495344133810516, 0.7883874125799004, -0.07316972000483937, -1.7981871971377894, 0.15510239970552855, -0.6304446357288075, -0.05134884007404247], [-0.18531079317688756, -0.03766411563257237, 0.28857355076637436, 0.893519363353472, 1.167227898793548, -0.49345891599058733, -0.45505564582530034, -0.643068413614905, -0.8381201089473536, -0.025765022385091985, -2.4456418674161333, -0.38644591094184666, -0.06705085567247267, 0.5338157286283638, 1.1893614941266368, 0.6145272049949011], [-0.4114989069967705, -0.9219962031236916, 0.16103297477379763, -0.8590102239201995, 1.6449274308935564, -0.11286329740500353, 1.9364802693228151, -0.09359842671279517, 0.8390710480568567, 0.2042564984460263, 0.04449080815667707, 0.4510301332447164, 0.38027386834205423, 0.15148595731270945, 1.2538751287884926, -0.8561391729656799], [-0.8929757270463391, 1.5921313270964486, -0.38088683400731416, 0.7487355682358612, 0.16942585248897563, 0.5391707560801748, 0.13566734405044004, 1.4186634866954388, 1.3421778731602192, -0.21070786698504207, 0.85251424198561, -0.718392167554297, 1.6884530972552596, 1.2330503996515652, -1.9582723855405477, 0.35102054623462897], [0.566601708906258, -1.2920076823151327, -0.3451387394566384, 0.6163305841704173, 2.0041741603524805, -0.6359876835973184, 1.1456351890432594, -1.6121815352574154, 0.498539124531057, 0.5069122227871352, 1.7103975043964075, -1.0438470434188858, 0.17051260509189808, 0.5887775479325059, -0.6763550719345396, 0.14382208720739925], [-1.741911662972011, -1.2663086194126925, -1.0255331038696, -2.7210239806434613, -0.343839063504186, -1.1350698231820215, -0.568748072550647, -0.4944500542705519, -1.1377243050543462, 1.6337248743514976, -0.3686692459586227, -0.3283744185489429, 1.2755249344853774, -0.8107010116827815, 0.704547032990719, -0.47100309840541765], [0.45126331751565457, 0.29628168190725346, 1.4491680915129705, 0.44455297541944394, 0.4398858695294724, -0.8402140054792139, -0.7488463506648338, -0.8745868659648325, 0.2061470313400022, -0.7104642057161802, -0.6275821320378129, 0.8074534442937521, -2.3181558697677436, 1.5620323959112967, -1.0811310120432374, 0.25140466766103564], [1.4118922718880926, 1.188231774141487, -1.3849686959518668, -0.3382424738452329, -0.038471342730662855, 0.562225066682239, 0.2647365492464847, 0.5465689986772369, -0.3307262165234428, -1.0727746301790169, -0.6218768098854206, -2.6110931564313296, 0.6287447655996844, 0.8192809250238867, 0.2538348659888091, -0.28284851652855525], [-0.5138838846661179, 0.06904893883006266, 2.2234958672245497, -0.3223341647183589, 0.26595783160835396, -0.19009790556640765, 1.0741508759705094, 0.12749562426875127, -0.1690084668821283, 0.5258799043928141, -0.7843946264269248, -1.0277955259542402, -1.3990669100552031, -0.5096606306616357, -0.035450081150986634, 0.8772512738310413], [-2.403996493984016, -0.3859821251444148, -0.6528222579530067, 0.6126372061585337, 0.1878052256912352, -0.055021230990698014, -2.4609661733157058, -0.45222266831674623, 0.14267019249115276, 0.27872620435609363, 0.49679723818426796, -1.2394410348466627, -2.535733515982786, 0.49334041455924543, 0.5228295998832908, 1.298160851296027], [0.4979901744094076, -1.474079816223287, -1.2280158998268278, 0.24010524520608817, 1.2788252131771254, -0.5290580582567624, 2.11022894070921, -1.2988697980453585, -0.3667643014629868, 0.9156640737009563, -0.07261678199927718, -0.2880178240101281, 0.8415576075665876, -1.1304703998347534, -1.5090513974097568, 0.3391620548171581]], "b1": [2.5349424618888916, 2.306131002871305, 2.7691583404926665, 2.5271108677419503, 2.6026018545278804, 2.8123322321242905, 2.852988789220257, 2.549902026827198, 2.721845079817852, 2.5505506174041517, 2.533561953063469, 2.8638029040881885, 2.605643676079674, 2.570839439232069, 2.80242249107491, 2.5984574754238623], "w2": [[1.1237373367388483, 0.3665926747969757, -2.2424433090155693, 0.28142576813047193, -0.38034176228114164], [-1.070330158676947, -0.1721374394005804, 1.176365420824185, 0.13568037241777905, -0.024018283715906544], [0.9986829875496581, 1.4277222327693257, -0.3588902858557722, -1.1477039051248312, 2.09995107058063], [1.0975689191625677, 0.8852062270513728, -0.12085980227411589, -1.2652978092569112, 0.3953864035142593], [0.30227632105295754, 0.37656195051625774, -0.8260996548291984, -0.38402751780011524, -0.3641341870131371], [-0.20207317426077265, 0.7065389055553133, -0.21940337333629756, 0.041428176735579275, 1.3732875175721], [0.32228124249903667, 1.137354348933822, -1.3682647483435124, 0.9062836861895953, -1.1613609625803776], [-0.445573536747697, 0.8112034254228504, -1.183996631159721, -0.8354414540741845, 0.12067876478930942], [0.24557899322715893, 1.1630356947561045, -0.9381759388040977, -0.9618651460153131, -1.3594060822657972], [0.16465692435701068, -1.5153118530818745, 2.5714555875109113, -1.7365172833611229, 0.7237903868210491], [0.35737699586699756, 1.7455071829986317, 0.09589703257717229, -0.07160079318351253, -1.2430872417596825], [-1.6058021462600771, 1.9257104426991485, 0.4923243933191111, 0.49092237185510573, 1.9242274542439766], [-0.01991641414849396, 1.068777518999168, -0.10312774130331395, 0.4253249562153939, 1.5196539679639243], [0.9723873765524358, 0.6253250732652125, 0.43231578188995184, 0.9912691710474202, 0.25594446746316835], [-0.9272578130971163, -1.0625786708448852, -0.07909360066863794, 0.28562040206604045, 2.2686759617081846], [0.14327583439424668, -0.5302299085783163, -1.5060244446105981, 0.8677950599934856, 2.51201209428348]], "b2": [0.13232637872408168, 2.264363877075944, 1.5185682973467343, 2.7022784730561975, 1.0173273141611208]}