{"w1": [[0.0803751390031185, 1.2153367801480612, 0.7434306359746438, -1.041579367746067, -0.10115286589374481, 1.852324884081589, -0.3275640957523609, -0.7396839368755389, 1.1420899430536706, -0.28594477195268875, 0.3878768325537098, 1.5687454794764977, -0.9258575481546566, -0.29720080946110916, 0.16246534235009255, -0.5275161665170712], [-0.2572507252773942, -0.8732782320240655, -1.7657976280099141, 0.48245031078042033, -0.06012658799064753, 0.35181017591821795, 0.9196168987754967, -1.3835785279796846, 0.7241800601422103, 0.4051043124853561, -0.10126613748584487, -0.44835920131187945, 0.49521649311807253, -0.685233923020428, -0.5215852394318563, -0.35958799254219875], [-0.19335074640102487, 0.21098809682545316, 1.4740238477415544, 0.06465386989082478, -0.6949310117554316, -0.3082874302563446, 0.13495553757827888, -1.366885564983958, -0.3179356960650416, -0.52587340345444, -1.0723869341250158, -1.3935231496103955, -0.4895980566357887, 0.8158250576653195, 1.7654449549904334, 0.19507549091421478], [-0.153697632949926, -0.5697765332663938, -0.08527094170686161, 1.6190967125373699, -1.2719605240016967, -0.00807398048052238, -0.15338946521340957, 0.004964837350316255, 0.605114204165301, -0.2605352545000892, -3.007245749452724, 0.4513903264793258, -2.301372340931863, -0.35047586148696613, -1.7087658281071603, -1.416761797234156], [0.2985541717612755, -1.6236123247693814, 0.8133442463004565, -0.6259367694821847, -1.5590476719626336, 2.7259221964954867, 0.14379393946978536, 1.2341562229125067, 0.3996749286248743, 0.6303096320717626, -0.9806453476105957, -1.2467125459994581, -0.4186236090977542, 2.6614419013477963, 0.94396219688873, -1.258210717319344], [-1.5935190388145681, 1.6582223167509529, -0.09159975416887853, -1.1800806550906497, 0.7609164793985213, 0.24729860212388782, 1.0347812307219868, 1.5737920232593947, -0.18235016208009097, -1.0143030711523804, 0.3564987989802079, -0.38767197608201903, -2.365291062855291, 1.1652059236173127, -0.5017023216017755, -1.5430001152891846], [2.3941360126125844, -1.2360586750378437, 1.207134354355762, 0.40575238905166067, -1.6694053712113193, -0.21591540084607916, 1.5272166972281673, 0.24851142558716652, -0.09084070002914728, -0.08549470686630017, 0.4746675552945759, 0.35874023245010844, -0.09052387279222637, -0.22369368069753423, 0.6649259760718678, -1.1492259433722118], [1.7010909137754695, -0.5559742389058754, 0.3459561860346587, 1.1720200377542616, -1.3642356215051883, 0.9999416600704205, -1.4538879365946895, -1.2214066774085646, -1.3541224183074199, -0.9007336954718123, 1.2884548037782242, -2.5091312247511692, 1.0099037852741535, 0.34255291645826597, -1.0071149789914144, -1.1578283682012578], [-0.9760111042232641, -1.3643367572312808, -0.9505085880622456, -0.10552492583519071, -0.46904413376530774, -1.251935799402173, -0.02198464977702523, 2.0964341367800374, -1.0571821310843952, 0.8014798699698463, -0.14677360763445485, -1.7176764862579599, -0.7947235758217497, 1.264336625937535, 0.6516455550693108, 1.6430425360682475], [-0.6250756385303691, 1.0895786541271797, 0.5222843497391557, 0.4748511715900551, -1.5611275355520347, -0.45491711706877785, 0.2725546180284985, 1.805620592508383, -0.28174369143196526, -0.9364747965724225, -1.168941629845767, 0.45549010081704006, -0.07559343123792102, 0.009150879990300315, -0.4631367776188402, -2.42120660525664], [0.7186639690452515, -0.25725092059390364, -0.00014200043120732309, -0.2858952244436658, -0.2272706658888016, 0.22332635452221616, 0.15666399857333474, -0.01571945259042526, -0.22716721949414925, 0.44694535239890165, -0.0308921091065526, -0.15507088771523367, -0.6961060258761218, 1.6374711803637427, -0.36601021471867795, 1.13992329343031]], "b1": [2.3175021535834976, 2.6502488042653227, 2.403883357990774, 2.796050895014242, 2.8855363474790874, 2.9923010318009164, 2.5509689973284666, 2.4549754415441543, 2.7757290847872094, 2.7321518058357768, 2.941338653305846, 2.4551854895869565, 2.982822207646886, 2.709748110826749, 2.6201847227997157, 2.5627678730995505], "w2": [[1.022638963849635, -0.856549395432289, -0.5772267443531636, -2.1630924252033368, 0.732655626300935], [0.25640218726934694, -1.1905148515649986, 1.2690642523774276, 0.5304294918273662, -0.11110408910853145], [0.49175654239712485, 0.27921376213712834, 0.7107124077162694, -0.4158313211887555, -0.9113838942816452], [-0.17481023835397613, -1.990100992519685, 2.0749981832613402, 1.5567295595606145, 1.8842783656575703], [0.32668033483877734, -0.46543723416349947, 0.8257516240558713, -1.125578915630104, -1.1915555790371897], [1.2908524578750689, -1.027752294539437, -1.576760378587339, -0.6939801308133929, -0.2678796663585031], [0.02004552355352497, -0.638745193921885, -0.039544524093551955, -0.12860408010042787, 1.510721430965464], [-1.1916248707519257, -1.96542558250677, 0.5519593452314318, 0.2996529287496438, 2.241341120955725], [0.32210775921144275, 0.3068882313396483, -0.48736029623691457, -0.32946840219416984, -0.2295198247979136], [-0.20893900093831197, -0.07554486822994866, -0.29388932544102647, -0.9991058226834897, 0.6061437596883357], [0.5709045440061805, -1.196957177101475, 0.05789141357519484, -1.4435417348593018, -0.715037953987395], [0.9548750067811062, -1.6940540996457853, -0.0032812269991941284, 0.021515854151017644, -0.3560792643217534], [-1.3857578766504797, 1.2122581829902441, 0.8649538771523435, -0.9177978567252985, -2.2232515888182496], [2.2546988872235287, 0.056076057186342426, 0.8651185190263365, -2.312210711553647, 1.2664701952767772], [-0.42508829286186045, 0.16426451068017256, -1.5890205382547018, 0.976915771972652, -0.42280722513650454], [-1.2589323385356315, -0.19304338867562923, 0.2816201111909139, -0.4051775836022739, 0.5234184011640829]], "b2": [2.5697405426918993, 1.8162507770203808, -0.6653683947862904, 0.9963519795906101, 3.0151976618988976]}