{"w1": [[0.357803462314337, 0.45739819105884044, 2.047446263476205, -0.48254074109214107, 0.7108894947790345, 1.1657440097069525, 0.13080738814060783, -1.7615150147732297, -0.09671870069683847, -0.22248760364735468, -1.7070050540725439, 3.0682727016375493, 0.38483813130291494, -0.19561412840759104, 0.5128146154794585, 1.3026822243974934], [-0.2688833385658581, -0.6514920247677181, 0.43580897422713527, -0.4463497257600545, -0.4361171965370233, -0.6752228139410711, -1.198614517880475, 0.9199133811122149, 0.538703964739587, 0.310132453829568, 0.11743291780726628, -0.7348577051373578, 0.14701288303196308, -0.599106023983914, -0.7735957348631695, -1.4700664287236922], [0.32997531708775996, -0.06311708194446415, -0.4090124372354715, -0.30610500370189075, -0.39629126817885585, 1.085519187801529, 0.05910514639745494, 2.576441238842096, -0.03181565990267035, 0.7143238233182647, -0.14179436269275786, -1.3006410988955452, 1.3008057363500145, -1.0959582601668967, -0.004974820578828074, -1.342650118726229], [-0.4342540517133622, 0.33658777573049925, -0.6617981427358413, 1.0352862971917918, 0.5760419137855639, 0.6051034552412472, 0.5606596445607612, -0.8523651819995867, -1.2255352871822023, 0.20434321786903645, -1.6149784720627998, 0.058624370356096994, -2.3294651132525943, 0.1710460734397483, -0.7611400290817396, 0.004809752880069684], [0.6841745371971828, -0.6331586953727605, -0.47628419687210183, -0.479002005369908, 0.22689988647076556, -0.8672715366092312, -1.6390044507467074, 0.8668628291493351, 1.331574926742468, 1.2691560178078856, -0.4925697049401959, -0.8593635858883806, -0.7173301169280982, 0.1080005324820809, 1.2335053323536103, -1.6434559089452314], [0.011942168840473485, -0.004285859960304589, 0.9346206588402356, -0.4972481034374255, 0.46995983573684, -1.9902743533127065, -0.9182588001954989, -1.1501516346690048, -1.1530845815904183, -0.3276165293815327, 1.0523739198771158, 2.0553375593648338, -1.4769897905108391, -1.137872715335901, -0.39044450312589046, 0.06408578044924965], [0.31938932375696305, 1.2370834344719852, -0.18683657443903548, 1.1099419277141498, 2.0468267822288957, 1.1065785586930998, 0.4417031320014229, -1.5836095396589185, 0.7632896008320065, -0.5250491148351661, -0.2143578487135665, 1.6620571603266687, 0.8490570323897486, -0.41411396541985446, -0.20346818586950527, -0.5663925913210663], [-1.7411543820692181, 0.9004586962704126, 0.21938077416926893, -0.34691883079310964, -0.52153306172013, -0.4924598620974414, -0.039676096995426444, -0.03480748854912276, -0.9510734589278965, -0.30864200094579225, -0.8321958592899649, 2.1260763072954627, -0.08556135968676574, -0.5948408298345069, 1.2387189750408472, -0.03549042636593205], [0.40345658701477816, 1.4355010845314478, -0.6944981485286414, -0.9633245876637787, -0.16288537832342034, 0.0673919657981242, 1.813066710757784, 0.09682496058110523, -0.3459665399285079, 0.648693257819273, 0.15045723553163523, 0.8649727781569537, -0.20113120639099585, 0.5398899876436866, -0.7642231088923522, -0.5689244352403622], [1.0836180460927567, 1.7985292023371817, -0.23112373944251166, -0.5518289893253002, -0.13675968807298916, -1.0036025758772562, -0.3639196316477147, 0.10442717801098568, 0.7963778548558028, 0.6266156288610178, 1.9724027667928927, -1.1094917278504963, 1.5458838760543916, -0.9222318027061858, 0.5620037852408036, -0.5228203174890583], [-0.8239114915832602, -0.8220754482304085, 1.7041864962722688, -0.5246324362378728, 1.047735833748293, -0.4342917155062147, -0.16474366471095392, -0.08138959441729174, -0.570151498617739, 0.5549363426147977, -0.6796464906194568, -0.2996789698451409, -0.06318454246058978, 1.2404101479541332, -0.060238098765999545, 0.9282263340428609]], "b1": [2.4953053326553505, 2.625246490702114, 2.4692466240352933, 2.581370655879491, 2.7011961579206214, 2.770239172901272, 2.727003051873632, 2.57167078716743, 2.5291265102420004, 2.6360199426485553, 2.4446621051984962, 2.4238124892198005, 2.389035445682395, 2.633380495515287, 2.5487751878560214, 2.590357672618156], "w2": [[0.573423932088995, 0.04851085559173762, 0.22131921063993765, 1.367223222985033, -0.7919894839251229], [0.08197548403567075, -0.6263717879654179, 1.7259958959110424, 0.7065001147418503, 1.8827643491622839], [0.25364633301370054, 1.0817932919669029, -0.9520631330216648, -0.7323233586980067, -0.45385354604581984], [-0.24277095160141146, 0.41337809500761635, -1.691648723156944, 0.07842189174792974, -1.4407933269761384], [1.7955041435242012, 0.40236540688121186, -1.775050610953452, 0.02717721856412654, -0.05854239226142789], [0.17811337642781327, -0.3062321813750197, -0.7073161864121814, -1.0205275577667934, -1.5758922384219156], [1.0332802439505044, 0.6706005274211836, 0.24273480928126498, 0.27065122013736953, 0.5743375217186775], [-0.2494939869943585, -0.5846728952437467, 0.6853355488420032, 0.8443977148061578, -1.289496739725161], [0.383866009919107, -0.47769672951445513, -0.24295596124733349, -0.0864302332221726, 0.8095867537319448], [1.1813564861702857, 1.6402444225168804, -1.0491240249921516, -1.6905066129808985, 0.21810067586400816], [-1.4902705720944585, 1.0655719945365771, -2.6737674319924833, -0.8341765820645388, 1.084932281941687], [-0.3975759757002862, 1.479610479807669, -0.7378507539579995, 0.764478474366235, 0.03822867696868988], [-0.7577121829773306, 0.05717646237770754, -1.3369633419749019, 0.271581973175933, 1.0530125331383857], [-0.6294425890446936, -0.1424124171384565, -0.3097518853473263, -0.7468075887532601, 0.868676996117118], [-0.022869814967932278, 1.0249073635524497, -0.042170167946592674, 1.0852851047451157, 0.4737934493692864], [-0.4084369524848106, -0.2373557462189869, 3.6510913633950834, -0.14098799450976715, -1.0149035390805532]], "b2": [2.4124605271265347, 0.8588730518708038, 0.843305450057576, 2.75062195986709, 2.3272406345471435]}