{"w1": [[-0.31126067169189675, -2.6215082891867483, -0.20732234824554752, 1.2194402745223463, 0.2716907261380207, 0.0933283904040387, -0.7208821928925259, 1.2100892844200049, -1.7101020617345764, -1.361939811574592, -0.031025551910579735, -0.728860288123137, -0.2679616686672216, 0.9003185215054256, 3.231018811779604, 1.0191798159296979], [1.0388908310718006, -1.2245963388327836, 0.6660886699645162, -1.003916784543662, 0.7050094338850139, 1.484390577051642, 0.7033464161392153, -0.12509431868838505, 0.6185701908055133, -1.2390095346642351, 0.569482612985709, 0.961802616237879, 0.10290880309547056, -0.49024765056542313, -0.9776273922996466, 0.6783442762310543], [-2.152770316321434, 1.446118083177186, -0.6662769157247984, -0.28311435315004796, -0.26574944130623485, 0.04199927730633278, 1.1230363788418338, 0.30889479792990826, 0.08164981792802946, 1.0098423277444477, -1.5185454885812677, -0.4048789148476014, 0.21503671848153283, -1.284617000539266, -1.2415739865924442, -1.1775007281857557], [-0.47866404573414606, 0.6427870067201179, 0.3764053258760616, 1.5875716881046802, 0.47240961530373415, 0.3779362642759315, -0.8770431452448789, -1.2778945465415137, 0.08502021116193587, -0.6620164997114728, -0.19403494288383877, -0.1892458144403191, -0.6249012241771321, -1.5097518274126431, -0.11728036938937106, -1.6015558924052815], [0.3606535549327571, 0.7389985710060593, 0.2926791946884877, -2.1538069910047604, 0.12656135673489166, -1.3257790433346777, 0.00592189628428294, 0.8286785638878789, -0.24598195156550923, 2.171743125928417, 1.1806930115510625, -0.33534287271676066, 0.7367249433703394, 0.2747114183479302, 1.1806029511483174, -3.488000713241225], [0.029307275555797797, -0.614641003780272, 1.2710502498708847, -0.644994607588099, -0.15814258000917225, -1.440612138840148, 0.031386176198816465, 0.07872882963890948, 0.7895219244291551, 0.1321880784912548, -1.2069041518540997, -0.0971895682993796, -1.3078239823761697, -0.8248998012933375, 0.7111220884884157, -0.36938570077429134], [0.36178557935525996, 0.13520319427950295, -2.463385988781392, 0.05212024432753422, -1.2224202816488254, -0.6978257864080779, -1.0334827560893194, -0.9824442340105621, 1.3012482504791614, -0.545075698533786, 0.22602123514424474, 0.1775866733704401, 0.3689289795459026, 0.5465817809472228, -0.50034344819434, -0.21704236836765683], [2.3501360147085686, 1.0126518630200612, 0.004769012668191949, -0.9780972327597167, 0.7912608016203417, -0.5200418688245991, 2.249151533040263, 1.0755287078150677, 1.5974812662673377, -0.8637532906262151, 0.6968518343530733, -0.7939696384654412, 0.14999694310602601, -0.9057254358615237, 2.137164355250912, 0.3555603658805381], [-1.0271070983465278, -0.26479245841324595, -0.33021767336191316, -1.3429005465695723, -0.6201874670361771, -1.1492137919677834, 0.9286735221247078, 0.04424755455439693, 0.8236305288454571, -1.9821529741746977, 1.0782903952751375, 1.2157070633917157, -0.41373124847462006, 1.1374597916256728, 0.877969164172319, 1.4562172705600405], [-0.16240472955565485, -0.7908331964224271, -1.7651162983942184, 1.1893507818728923, 0.5674571323566124, 0.46402371101385037, -0.555952026905997, 0.37070932704688586, -1.0205906493298949, 2.387877344936043, 1.124207340469118, 0.4388069730861064, -1.0294905707338133, 1.400912229174659, -1.697928790833369, -0.5355810483595659], [3.2133068493278056, -0.24696848942942112, 0.07097203171821892, 0.5964158738868987, -1.3770577246062308, 0.4745470136552533, 0.39469138702468054, 0.19670239247343965, 0.6507380364168691, 2.422919015297061, -0.26428956598852515, 0.5824072385038573, -1.2518870836737706, -0.04242814096167888, 1.2567328097244614, 0.15364165810521713]], "b1": [2.8283216777566262, 2.637317426190636, 2.5812552931977795, 2.7391021774567426, 2.3090692015236374, 2.8420281627803243, 2.4856305712062907, 2.6054755784723738, 2.778740015262711, 2.868214945734161, 2.312646368367529, 2.4652325741290326, 2.836132980330681, 2.6052731282562083, 2.4373905727833747, 2.8986053033496004], "w2": [[0.5086751374572441, -1.218841539983503, -0.056316275202399665, -0.5325101726360919, 0.07461755179628735], [0.11427491320578981, 1.0029503059437483, -0.4310509049144775, 1.4946989968416704, 1.1970188879878947], [-0.532080021162099, -0.3745493062325969, -0.8370485243555579, 1.20372449874724, -0.8982803748904162], [-1.2624787097348171, -0.3745284423391481, -0.7385832576506609, 1.5982093346197161, 1.6139339976414475], [-0.6207284079743358, -1.8340276552921535, 1.4069910913672932, -0.31909203259683916, 1.2371315377080834], [-0.568617467488176, 1.2084906614157325, -0.36022438998974915, 0.6200408750109982, 1.6790079781857965], [0.40227499208701945, 1.1670258180712358, 0.36667801117299337, 1.2363118844377574, -1.185359038681543], [0.46562183281855235, -2.123485096244822, 0.13696197511458658, 0.0012443099255817214, -0.2972750651445214], [-1.9020067907175824, 0.4240219139158679, -0.9158731138374033, 0.6021289566428436, 0.488446016147524], [0.03519071674359563, -0.6911017403590505, -0.567503384704892, -0.23289883865261357, 1.2262644577034685], [0.698152076634178, -0.8292580494192959, -1.1580067015095865, -0.8741027098514985, 0.2687416154433614], [-0.08026782355144428, 0.1178054194390116, 0.17558654963734383, 0.8498775187760182, 1.931745843012695], [0.9546291362288548, -1.4695429237056037, 0.9797335895040739, -0.9720952882531486, -1.9547446638699364], [1.3245095884959124, 1.436280808160268, -0.3920465975766864, -0.44487110303311894, 0.6844683774000638], [0.33967742384349575, -0.20999705572114688, 0.3385184514125103, -0.7666314971478535, -0.296425909798718], [0.11406314667719439, 1.0833138692034454, -0.4371010420934795, 0.5209255642404996, 1.2541253710193359]], "b2": [2.388379078344441, 0.13638563749640084, 1.4966312925288103, 1.8614625147490114, 2.273725835682834]}