{"w1": [[-1.6747636929703211, -0.11857950880846008, 0.12649914502800264, 0.5031841087828803, 0.05003386606840915, 1.129670230353413, -1.295698841704211, -1.3607502011050012, -2.3416752751662555, 0.3631107271184393, 1.154649682477855, 0.5425350787791443, 0.4905001783747677, -0.8791411574931766, -0.3200696252537346, -1.5094886491470714], [-0.09338415330656738, 0.7394348799437024, 0.6896237000101336, 1.4477235731819973, -2.163430471248139, 1.4252574188247904, 1.2072157131695662, 1.7584240903622415, 1.1182432065309371, -2.1148358717406137, -0.5056745935925223, -1.2672921871419962, 0.10564343932563444, -0.10437912698709266, 0.8095739496514749, 0.38495421923069933], [-1.2872635454003378, 0.5363924139212597, -0.061923438107497245, -1.2908469948787222, -0.6332802721655414, -0.9648528956438261, -0.7164508367106408, 0.9221741447503845, 0.13935618743709888, -2.3750195457618957, 0.791415799606983, -0.34140348967866196, -0.06921002666895765, 1.3941991758262733, -0.49193462972268204, -0.304084354196382], [-0.4377308153103195, 0.2861357203050368, -0.6797930775550366, 1.2500725330446822, -0.9851062197547559, 2.19665932846598, -1.2176543441402323, -0.8563712790330382, 0.55157506207588, 1.9039586417210168, -0.22603097588579715, 0.6295594502332189, 0.8073300293267733, 0.6320321667180152, 0.29554232676615916, -0.39801281510707376], [-0.010369702082938997, -0.37329818768214407, -0.1455177857000178, 0.16063168373551795, 0.24463206027229187, 0.511268097447381, -0.5137309752617079, 0.4272380380590818, -1.3472377294458115, -1.998449944502542, 0.3482844768778046, 1.5846967219489945, 1.0119948712040823, -0.36428569912788705, -1.8188170054879982, 2.0546611429197164], [1.1233885867158722, -0.5677591294504832, 3.3535077542814364, -0.013387430943321899, 0.29610733067369666, -0.27613938855515807, 0.03327053037042574, 0.7451590532540897, -0.9585529136923314, 0.37887935339906365, -0.12286432813460935, -0.8884800559202456, -0.6096256415902878, 2.3843711371841416, -0.9188931462870371, 0.7144631416722101], [-1.1816440111231867, -0.9704643633376888, 0.9158010878831276, 1.0630597871562908, 0.9976602684555531, -0.5090435042972741, -1.7999436401086806, 0.4386695253394066, -1.9656354442465578, 0.35759466993899125, 0.30233364287985076, -2.3566280630455343, -1.418507352726604, 0.39549296104571713, -0.20542950731977955, 0.36934264363668884], [0.7895025084615764, -0.1301448180830706, 0.5544835000707586, 0.8844877705154541, 0.06026579572970413, -0.0824509593225174, -0.32823796669367555, 1.2152720493692326, 0.028899785862114183, -1.0301679608831553, -0.634427827741163, 0.2753558809023571, 0.2330347841930051, -0.7046968688501043, -1.4812090571517147, 0.685386749437455], [0.28435896492244966, -0.438134028352535, -0.08689397797584984, -0.2638001665397953, 0.6301111464272757, -0.21320940910057234, 1.129359889805394, -0.04936002096283183, 0.6070464014084591, -0.5820953031643399, 0.12996852624699087, 0.25926147869011956, 0.7507625316328366, 0.3868264762850692, 0.01664392273177509, -1.2059252074584665], [0.8054830239271226, 0.7049208891773145, -1.5104062166410528, -0.24488666465723927, 1.7723767535466948, -0.028666441340726184, 0.31441260433628127, 1.2976630528846282, 0.07066276092855987, 0.46945419670492, 1.954732729081024, 0.5073170104654239, 0.6535975917257923, 0.3313676949227662, 0.7360750628052681, 0.8869382347332516], [2.2452641123286763, -0.02873802411165123, 0.8981455912427582, 0.9390573751941428, -0.7317900279476486, 0.08969322573695615, 0.13782986700045932, -0.33536286789036496, 2.0914551385618765, 0.6569749518232495, -1.3877719094940324, -0.8956050430137061, -0.9584176348423185, 0.5881080608903158, -0.16511102142431464, 0.2718462073592838]], "b1": [2.5693556934480193, 2.726014637847665, 2.392378958175692, 2.6848877017550437, 2.617682456226069, 2.524984460218635, 2.454153437307733, 2.7179771755791644, 2.4891528374438527, 2.5633609978072673, 2.6505357283091273, 2.724148093615012, 2.7524690379482144, 2.5551558159386594, 2.498377041746989, 2.6492592937568586], "w2": [[0.6949143386513801, 0.7578747263908533, -0.09081519101906427, -0.8683177120239409, -0.11575885319152959], [-0.6833068668831872, 0.08636546672326534, 1.1559348269743748, -0.773501345886857, -2.4204155303258803], [0.31523458552084305, -0.20314809920935797, -1.1126033500297448, -1.9330718845581705, -0.08567132890534526], [-0.11194094875293331, -0.5604090730765576, -1.3935516699315398, -0.8146176628008022, 0.9909948128979535], [0.05556929761191454, 0.8403413728148291, 0.5674644115441332, -1.6087845279170954, -0.659685239139056], [-0.7540871831005546, -0.16373874801019256, -0.4065879483539387, -0.155028878436724, -0.9014244746145652], [-0.605095184159078, -0.787207268147191, -0.6870068969052856, 1.2740615701085352, -1.5646010863443254], [-0.6227127170723734, -0.8722395737403449, -0.21913305879805905, -0.6045438351630942, 0.5275825075275922], [-1.001402887680493, -1.7313179797864537, -0.4681726393948255, -0.11718192850223433, 1.595112250240676], [-0.27106887641245125, 0.1400197011159639, -3.13109618346183, 0.8350681063081858, -0.6330947388845773], [-0.014463258590995426, 1.8457247345877879, -0.3035816016612643, -2.008215527701983, -0.18594386886171227], [0.6238816154392205, 0.45851369205090015, -0.100018734096656, -1.2978960662524477, -0.8258464760956221], [-0.22682372866510814, -1.1289557350749355, -0.6596041440025838, 0.6819706462211464, -0.2902642005031902], [1.1270246046352588, 0.3101654284105494, 1.7171408247973245, 0.18647139988475925, 0.760460665091916], [-1.3055302621625327, -1.1334460566805022, 0.06884818517707844, -0.5836118119423834, 0.9136010791840937], [-0.03169909707635836, -0.2991992836033404, -0.3891417396514384, -0.2962125756160843, -1.0949034642095197]], "b2": [0.31707343791588966, 2.6489968475168144, 1.0278019184392992, 3.0039546983636325, 0.5693572290330398]}