{"w1": [[-0.6560674511247864, -0.24811954952903645, -0.13928701133428711, -0.9689627618274788, -1.2699793471076835, 2.0976224444318623, 2.4951910101979613, 0.6517914077342699, -1.1879179358796381, 0.13383188841000437, -1.8415396974203153, -1.7556818462872956, 1.496696873658859, 1.0920561975746288, -1.3530857420909055, 0.1593985060657052], [0.9869729749624088, 0.5389030799317771, -0.293201518551502, -0.06890345299465775, 2.1822914928395134, 1.1059042880208358, -0.7777176195788957, 0.592925018702559, 1.1511854235074945, -0.9652006433189545, 0.3910262670519299, -1.3466925583469773, 0.25445888360791924, 0.948497918104025, 0.07247638762223871, 0.21458515993601712], [-0.5823292944728187, 0.1370664465517913, 1.1251681342867403, -0.3171740591094286, 0.06288547247566101, -0.6595634087247185, 0.2796955302131747, -2.0772988326369064, 0.4144380927665485, -0.5159065268065333, 1.0577916288311766, -0.1471122237351726, -0.7344041654121046, 0.45934418279408873, 0.15477381233552218, 0.8777417302889181], [-0.08484335344959051, -0.7820997884695902, 1.1051206609208568, 1.7250989292888235, -1.612287959996831, 2.631049952680419, -0.7751669574735138, 1.317749502953187, 0.7492890832532593, 0.639397439065142, 0.8303868739384618, -1.2181416106225573, 0.6175448678756439, -0.20694339149948712, 0.7452667009897982, 1.1080623518978368], [0.6008511713086402, -1.2867106931597978, -0.05456578137771688, -0.7632923006250237, -0.5137589501107495, 0.8350769229670677, 0.014168273394600639, -0.39319915495105223, 0.48698594190554223, 0.10242164164226955, -0.9244738813197361, 1.2980487251148833, 0.34269306247177106, -0.1466721481260682, 1.0961597372921277, 1.6113079633290532], [-1.1437786964871361, -0.041195889918125894, 0.7529831953040982, 2.4646102248492388, 0.3908044863067637, -0.546550606858151, 0.874850012821963, -0.8897751017395358, 0.1663727944349863, 1.6729617964773686, 0.5452799828924672, 1.4057214826388622, 1.8587541822691231, -0.9638543973335493, -1.4466062578499392, -1.0953036582387685], [-1.4759405821714984, -0.10084289633550361, -0.7697791663074111, -1.1570667242753743, 0.33698010845564497, -1.4323127579823396, -1.9508951771534868, 0.10489877887417189, -0.9092473603139661, 0.12465412047702984, 0.3191227547933756, -0.0963798918928486, -1.937889853692459, 0.1379282289685899, 0.6298746689832565, 0.9925765239944943], [0.26491756391217747, 2.6970147355348995, -0.6103501192767559, 0.5337161290456567, 0.010066456480984282, 1.5511427537188467, 1.2054863285011501, -0.6716618112472414, -0.7951692009260196, -0.8365573163863413, -1.320547006172924, -0.7746827367574947, -1.4339168642726303, 0.0456107429036743, 0.503208974081709, -0.26357479402428896], [-1.4792084407189465, -0.9293717523327097, -1.6263061630012943, 1.085013412906661, -1.7620547137627955, -1.7211971555270575, -0.6347898165769824, -0.3068506254071805, 0.03099286634014127, -0.9616164583815566, -0.6852128943505442, 0.655885475824531, -1.7375359163915491, 0.9309047151206992, -1.1930940882874432, -0.16355967188420176], [0.6924348551912343, -1.957988413347199, 0.8413638958694081, 2.0628672618154926, 0.49589566959667497, -0.1443480629554096, 0.05377501248781559, -1.60442414519651, -0.05413272240913436, 1.9047073051729602, -0.5940865527627098, -0.057646202456045334, 1.1179569025271894, -0.31149444551667455, -0.4701871943133904, 0.4605350440817214], [-8.802684841689723e-05, -0.018007532031999438, 0.6524084825871085, 0.5495435113643066, 0.8297643707646938, -0.0054951751729719195, 0.45879012466665553, 0.03029124875302497, -1.7240095373278055, -0.3557720207496632, -3.4004811999931603, -0.03666756711486217, -0.4860280202589256, -0.1206872868673192, -0.554907313098702, -1.3132627245203903]], "b1": [2.6974726280986934, 2.741921551785447, 2.7103561395671902, 2.7856130507337027, 2.4758869618370323, 2.273061016667163, 2.5947400079999663, 2.4671038026670256, 2.7150054030195885, 2.537424881603372, 2.6470848485999174, 2.2463970037754115, 2.2239486917334585, 2.814273977248366, 2.510209853908242, 2.5914530325238774], "w2": [[-0.5946458004090753, -0.4993072051598314, -0.4171317342792537, -1.069528179073294, -0.7588902408343752], [-0.18949933991733653, -1.2486311508092178, -0.36661826365560185, 0.4465548964930296, 0.6720539537350253], [1.3064372615171271, 0.10467134142456228, -0.4827285932640129, -2.0790783077377424, -0.7068955070912403], [-0.4133159832033356, 0.5618903805747479, -1.3179594024134642, 0.3470490640436442, 0.2440144766598687], [0.13141667556956957, -0.3141905194006338, 0.1594354061228206, -0.26787973786905384, 1.2075142603417623], [0.15945942384292144, -1.2836221368308212, -0.07604371659086742, 1.2432056118748787, 0.10809836864695735], [1.1991351060112985, -1.0022709988872287, -1.3922036218269724, -0.22982292794393158, -1.5782738619513828], [-0.515491166821193, 0.7941083745127024, 1.7088018866777392, -0.8576473134013001, 0.48025417971700657], [-0.1051560368916396, 0.665020620636834, -0.6982113839284638, 1.1077604086492248, 1.2847140531215535], [-1.4324805026693197, -0.20149504038423283, 0.2841997381730922, 2.0564063064053495, 0.531368402242504], [-0.2921533909944727, -0.09589929584011353, 0.3435900655798027, 1.1016032015419763, 0.5369002615496639], [-0.7988073924826841, -0.14438329387493307, 1.692184419194835, 0.1492827336320044, -1.2178046182664402], [-1.973303553272259, 1.329702021692258, 0.2917624047216861, 1.778162583827605, -0.07148351793337579], [2.543540642313933, -0.162549352268438, 0.35738801532076925, 0.142278705492271, 0.6270930175630263], [-0.8098114612219807, 1.4927671261724222, 0.19638565481383677, -0.5709464451491961, 0.5817370038366723], [-0.6076438085082401, -0.8058297170120399, -0.6299196678508927, -0.7785167298167034, -0.26795054687731723]], "b2": [1.9380084114804454, 0.6468971250417604, 1.990206375576163, 2.5214081369144217, 2.740770141626283]}