{"w1": [[1.4422747453523965, -1.5517469694069572, -1.5103506910016222, -0.6121353201060528, -1.2343883375739337, -1.3212187439614471, 0.040135596926985886, 0.8797303335054255, -0.534721776419072, 0.5895819862910426, -0.6731785742634935, 0.6703344770548824, -0.9314616525077004, 0.7123763203064313, -1.1363575981687157, -1.0606167180734338], [-0.6985313546680177, -1.471845842569317, 0.5709689759495453, 0.6185809602924843, -0.7492857596184781, 2.1045401564238397, -0.941727814206144, 0.24918827976400068, 0.553890293024369, -0.16795334959746624, -0.6842065076310082, -0.23055449669011366, 0.009062966939247491, 1.7029200152357868, 0.30975063241262835, -0.5491966864801043], [-0.5597278134196451, 2.1150938574974987, 1.9928477847735426, 0.8535498975468871, -0.9896914689681171, 0.4893558335202609, 0.557701109149954, 2.0067438052891076, 0.23648351543802287, -2.6484436303474, 0.08699265743552949, -0.6493832494660929, 1.3829331758211074, -0.31664097353977855, -0.8796273486037683, 0.39678058210562456], [1.1158863810256796, 2.5197191616630445, -0.1836783164915053, -2.136859954342389, -1.0099475845586094, -0.0863168951936006, -0.8278757056674753, 1.483012076773952, -0.5295185734433306, -1.7501314880725654, -1.2985983892808395, -0.6576088036123215, -0.8072287667776633, -0.17710101974758774, -2.069681890982772, 1.2602751743218041]], "b1": [2.491255565318145, 2.5902290616814856, 2.2691309933130617, 2.7582232528920114, 2.38248722675694, 2.541211264562975, 2.704484057164802, 2.3272031657322403, 2.4148216284497668, 2.6254878571340274, 2.5730897153968293, 2.588806268964967, 2.6868867807260743, 2.496084162510923, 2.5303562657223866, 2.408933993158706], "w2": [[0.8062054543136777, -0.48182475239307876], [0.1159765800746243, 0.4147372617303093], [-0.6156538560616419, -0.4972989923639134], [0.2621473283020428, -1.8846735523557983], [2.4634489391481136, -0.7728049377473263], [-2.4143521490110555, -0.46303283727149186], [-1.794875477890861, 0.713635357942971], [0.005224313262624569, 1.1091785279120048], [2.399794839235304, 2.6927662904647023], [-0.22500408486280365, -0.34107907228879536], [0.48562799133205903, -0.07068790923973428], [-0.874762167395776, 0.6834544612424123], [-0.2880946813369832, 0.5734911033241813], [-0.8121831463720959, -0.4682665518737982], [-0.3128524452459843, -0.8425266566589424], [1.1467883753102568, 0.8865468500211935]], "b2": [2.465775534896832, 0.6802360499276332]}