{"w1": [[0.5597033591188195, 1.658527748962447, -0.37076316965325234, 1.363731524844378, -0.5655973011424732, -0.45749419711523054, -0.3784669020169612, -0.05120181104461015, 1.405481942625552, 0.2020799378868204, -0.7138034259752273, 0.7195911554418911, -1.6217518690490011, -0.12846845263214926, -1.7429002497798216, -0.1452933979879454], [-0.36221295437779677, 1.9326084161489772, -1.2680130868296244, 1.0260463120842418, -0.8850389100507998, -0.5986756555141941, 0.3438654842417637, 2.3653956024011498, -0.848451605024856, -1.5163069911642935, -0.36611935564783427, 0.4464869054593731, -2.2980650957725035, -0.40972011692556565, -0.8461159163899443, 1.7644352759823367], [-0.7374360869148048, -1.164957161156425, 1.7333532229607833, -0.003257400703672031, -1.4189377649276584, -2.174384199288615, -0.05664310472426508, 0.702022676734076, -0.4273313633307249, 1.0112144102387994, 0.2586751987105318, 2.612037097256387, 0.9387536234053863, 1.618112451014604, -0.8798311415972712, -0.1443207715689795], [-0.6883059809018207, -0.8903071125293195, 0.3561638731593565, -0.20786920919779775, -0.3957124323594835, 0.5132219647595248, 1.1523137361721738, 1.5553179982267769, 0.511124105411079, -1.7732544285213627, 0.7843826149928754, 0.3934104773210377, -0.20760092311493883, 1.7427862636114044, 0.0016701919609571486, -0.18089402931154866]], "b1": [2.6172350804050692, 2.7492730598048305, 3.0614511732994756, 2.5488905291340593, 2.7027756121132147, 3.0792464019233172, 2.87818450742175, 2.5287539737644584, 2.8118293813297313, 2.7020369448101937, 2.8495050023714312, 2.864354669836052, 2.729851491211534, 2.8321852212404877, 2.8953556838476167, 2.6218275882029207], "w2": [[-0.31079891472328836, -0.8645285837225465], [-1.3299961983505038, -0.44591426996495725], [0.05294794750087936, 1.2250207708770107], [-0.2604631886655603, 0.7926979314732677], [2.661343896672237, 0.9719957154078995], [0.7895024174072416, -0.5075906840849369], [-0.181947973885192, -0.22148681687012342], [-1.23573223772443, 0.5732746156892069], [0.9687173196587163, -0.30327023612213266], [0.2311230291092253, -0.925721314641704], [1.5135810315985785, 1.8003063374195742], [-1.9860581917334348, 0.4715862830785932], [-0.8605934576890112, 1.1685822630232925], [-1.2390147610730757, -0.3209023211067811], [0.1322053021836874, -1.2356717923775848], [1.7426846232314093, -0.6474317031276509]], "b2": [1.8881586946703155, 0.12022414716362019]}