{"w1": [[0.6427313800184262, 1.76617235676974, -0.3426469922675781, 1.3805214974155737, -0.36292396589100173, -0.3306760682791986, -0.17997254187344935, 0.24686381575279526, 1.2079912866785911, 0.8512130761770619, 0.4703057006874217, 0.01985664184235081, -1.349534598341932, -0.04995926897023299, -1.831755937537748, -0.48989310582999296], [-0.6362711389278028, 1.70162721936586, -1.4996027363891369, 1.1634120879742846, -0.8355845835362617, -0.5582769972355608, 0.3752530591331646, 2.0945293622341876, -0.7228346033687469, -0.29855351444776074, 0.7276218589963588, 0.45533971482494606, -2.3730464750442755, -0.43518981462367273, -1.231736177817986, 1.9725651077491528], [-0.6246733130150798, -1.0592111792226824, 1.4074124685521592, -0.08550085060571735, -1.0487913461074607, -2.163169608348586, -0.25394441663265244, 0.33731812454444693, -0.7917838580879768, 1.3950527092839047, -1.2924387004997033, 2.5982912390659116, 0.7465610975387037, 1.6144126313917642, -0.6548069810779659, -0.004417914423876804], [-0.7223777293653333, -1.0086435080607814, 0.32916820487872644, -0.08830546761149868, -0.6762584100169391, 0.5141981396950475, 1.4905747658757504, 1.3416512405467107, 0.4447982704685495, 0.7340763055495153, -0.3739149787916102, 0.3841961730114845, -0.5071821417645686, 1.5717029351371234, -0.13249785850342788, 0.184100254814499]], "b1": [2.3970050325175345, 2.738329719093924, 2.92930119419738, 2.7280396624653585, 2.941550713901698, 2.866605285496654, 2.800237690344708, 2.722110162565466, 2.9773195864942887, 2.79261162208704, 2.8520802483218293, 3.046672511091547, 2.563877445839323, 2.7449424701890943, 2.795849410714121, 2.5941214570744435], "w2": [[-0.17958668137610748, -1.087345210104669], [-1.3856049059512712, 0.0021035083592814835], [-0.026890839248752074, 1.1394880197773594], [-0.162770798844334, 0.34714446248896325], [2.5373608590260863, 1.187264898413195], [0.8586461606768859, -0.640005935670263], [-0.19151048056630068, -0.20613900696804033], [-1.4026657399097076, 0.5134178195140838], [0.833463703118289, -0.3491181648171198], [0.0301688804377942, -0.8025032913983348], [1.4691538559293607, 1.465020366009077], [-1.9279799210569135, 0.1633608557514788], [-0.9371522318956713, 1.2691345416733948], [-0.9932151048583262, -0.08607945032697001], [0.38724446849094063, -1.5396661384052768], [1.47478718942754, -0.7057654868167798]], "b2": [1.934019605213742, 0.17129498551915495]}