{"w1": [[0.6166868990259495, -1.24604213812152, -0.9793085156951578, -1.0642796667274137, -1.662108674087099, -1.125726167913337, 0.32661458901498425, 0.5816645203066328, 0.6859168125965476, 1.0704693421004592, -0.32733293593501933, -0.7519271699884085, -0.4573804671612751, -0.5909988626338685, -0.9681037672641111, 0.4122941347501258], [0.3491110797813856, -1.5423382229840223, 0.03871575142199554, 0.3287314758950885, 1.0462455662941046, 0.7554364970396719, 0.42225984362227886, 1.1856230820047213, 2.5403080587750018, -0.3409282115176894, 0.6273037392483465, 0.21401958309923455, -0.258952007013678, -1.6653571963099563, 0.26959111415912074, 0.2981759683701588], [0.11737654551114508, 0.2569703035329464, 0.19122199276626034, 0.08761384878541646, 1.8218798402275476, 1.2016420952025848, -0.3942054013117064, -0.5259871437743802, 1.5999971762227334, -0.1491311525129199, 1.676363366401592, -1.708253878243566, 0.22406661111269677, 0.439244339690791, -0.5172510116302604, -0.6389652582258477], [-0.44327125501449277, 0.7789609191760063, -0.2249537118663207, 1.0169524889496295, -0.41283058215428237, 0.3600627051247452, -0.09284212957138642, -0.9150197907818911, 0.11497116729079679, -0.3285104298417632, 0.6839053165457791, -1.0881653584456463, -0.21202048724614597, 1.2009534065856573, -2.0490761649636835, 1.3904022475520592]], "b1": [2.266227315223631, 2.665589933399365, 2.4661605250944074, 2.3059529347491985, 2.590975425076001, 2.6716003810234152, 2.457746830760803, 2.5940281737044213, 2.5287467327730044, 2.378834436727494, 2.7216147160391286, 2.4416466649646096, 2.6403439828524395, 2.5911556540551834, 2.397154403852367, 2.3243628048067873], "w2": [[-0.42822137855717857, -1.1477943871359746], [0.04410491269603646, 0.3877789144209326], [-0.36810469185141237, 2.2785002050416634], [-0.2874063338956703, 2.1142001481407915], [1.0940829953617575, 1.138226825834558], [0.8256642474259399, 0.2909609525385901], [0.12537714621962753, -1.2554652778555033], [0.943001110673938, -0.7261389029950602], [0.8635240466076385, 0.2500541776734965], [-0.1453101061952224, 0.06393285391566172], [-1.6755751974399709, -1.9564339858912296], [0.8198656173686433, -1.7527286181197943], [-1.3997170645816936, 0.3786877261302139], [-0.3050245255019284, -0.3919278770912195], [1.5794433819632159, 0.44086661688087625], [-0.8227939493631721, 0.5002579561913619]], "b2": [0.4126027017437671, 1.1517174123919875]}