{"w1": [[-0.038956280940916854, 0.841537813008505, -0.2594963006442075, 0.7602926554740822, -1.7040836865909041, -2.326321190854448, -0.17793293552405126, 1.6393359853429121, 2.574348203797774, -0.23207516165399064, -0.5310164891983978, 3.4480739858508027, -1.6733430822108342, -0.9152089503546302, 2.5544486386710554, -0.27573986614226026], [0.4824192014324526, -2.311086158342838, -0.566131958648282, 1.665237087799031, 1.5303709698639703, 0.38582869306824097, 1.1319724968677194, 2.6301100134034625, 3.0545870575712133, -1.3266517666752733, -0.9818793485442443, 0.6207662154078111, -1.6616725299108095, 0.6327134269287369, 0.08631215632290226, -1.5314491738561342], [0.9041415957361034, 0.7896910862068073, -1.6297211977262072, 0.4976846132285238, 1.4899236586289406, -0.5575599346926828, -0.9101795301544053, -1.2293760403620972, -0.7188943106486155, 0.06076233882746754, 0.5971321430959651, -2.118094300642415, 1.0848656616320373, -1.59432553185065, -0.6564488605012431, -1.421485559595982], [0.012829461397795547, 0.19156391976399412, -1.167885012133363, -1.3250940080021858, 0.42307558927086747, 0.38605608062029273, -1.3769222832495709, -0.7177406599328136, -1.0275504763845296, -0.1982614013526985, -1.1728975025746164, 1.1204499357516668, -0.9580272128735512, -0.09787805239704399, -0.8679726428179618, 1.2819581729411553]], "b1": [27.023711219089645, 26.623112265103103, 26.35309207216855, 26.147728197314365, 26.69991535093572, 25.46423071064138, 27.10002830058425, 25.193123488241568, 25.08755427498321, 24.804034924262517, 26.29619066482766, 25.074635361121832, 26.319136303392963, 25.168654910827545, 25.40190759998698, 25.522539094727623], "w2": [[0.2064092565566173, -1.7526980938476104], [-0.5307724584606248, 0.6468146959680994], [-1.4140614125976358, -0.7032857232661438], [0.6412030346066288, -1.4189155122160841], [0.40934102031516806, 3.406150283935977], [0.15865091338281367, 0.6738930336373936], [-0.4845275385982695, -0.30489594689497873], [1.7243050492241996, 0.7116253336066192], [1.7266561715188566, -1.3353038450754084], [-1.5392863339877358, 1.1053988138211142], [-2.2114836201348225, -1.174605435816234], [2.405980704703516, -1.1172380427949504], [-1.5835595655072348, 0.22735956856653936], [-1.2872621506951392, -0.008279767260887083], [2.544202284600747, 0.1023054530802033], [-0.29358420876715735, 1.1351594393479312]], "b2": [23.67556771517777, 27.463214415004327]}