{"w1": [[1.5901238041191454, -1.2083013280820645, -1.6735477924901585, -0.21825134607661764, -0.08615492730164935, -1.068144165720062, -0.3054478918198784, -0.07400451701097652, 1.4143890754373392, 0.6553818262019562, 0.8020549605144462, 0.253736454438184, -1.2761077673214252, -0.16679932438175532, -0.7095962197766237, 1.3943954458303365], [0.4965621221735851, -1.6936569673482196, 0.8212500851322203, 0.7285715812172835, 0.06425760205664224, -0.0920134620630042, 0.10580807478617726, 2.1473969456625768, 2.131503710764262, -0.33178457980150033, 0.634325315529862, 0.8925343872203061, -2.136318772668943, -0.1685493772799144, -0.8762349504412299, 0.6293713831735606], [0.22047333245600384, 2.2434093337870187, 1.960625213969739, 1.1876798094985042, -1.0487965298729418, 0.7969569983814399, 0.16693568716555107, -0.26241637647012106, 0.16472605704153895, 1.3669672163539466, -1.5548518171182004, 2.443474676910064, 0.9864096156021119, 1.633328488794461, 0.6337889065626232, 0.17662308654380762], [-0.7028548548464971, 3.0135636210900802, -0.4181811152795097, -1.9967014677807622, 0.7680420159620516, -0.4163367636798112, -0.08643933431021525, -0.19570977184291283, 0.05022579663466413, 0.5155020873508092, -0.7591279668249464, 0.4520847479535449, -0.2823666082375431, 1.6673319899477677, -1.070075057835103, 0.5885256512258161]], "b1": [2.8480646316827682, 2.645700451867534, 2.6722865588320994, 2.9013465221504715, 3.0459248720557146, 2.9613633640372834, 2.877716370513545, 2.8645777758298316, 2.793134441679096, 3.0858119133161406, 3.000044993785008, 2.7624254995809068, 2.8858696541202837, 2.9277749371683517, 2.788575382390868, 2.6850597644441563], "w2": [[0.8036076941462041, -0.45193687372201574], [-0.21998539510130116, 0.3485412595811656], [0.270568042922465, -0.48523454621103257], [-0.39474580433226764, -1.3296391828738081], [0.45533383320886717, -0.9725813847435394], [-0.710160239369585, -0.3588140238610237], [-0.050878557206207584, 0.6738349968887979], [0.3239766642856363, 0.7938910608217321], [2.0166074247560624, 2.987605095542142], [0.10589143806981598, -0.3089559901922878], [-0.33270576706988786, -0.40705156356075667], [-1.1565437650082204, 0.7847542460744314], [0.855052151607044, 0.17895737914074825], [-0.08089201804632898, -0.016870420825787352], [-0.948384326283201, -0.6713904261719612], [0.12070130038337482, 0.5704027277260817]], "b2": [0.9468619812043153, 0.8301698283514052]}