{"w1": [[1.3492856686061139, -0.2896938788737568, 1.0462653885295239, -0.9318243157815731, -0.01189717850208033, -0.9298128720190801, 1.3261245461752509, 0.5841634544247472, 0.9028796298400992, 0.7689464288353821, -1.7592776952747604, 0.5487343321315921, -1.3923644537840947, 0.5084992936436933, 0.23136362812048272, 1.3444277723713778], [0.219209874944305, -1.37546807764605, -0.8570965607565045, 0.8610265254491174, 0.20432417393301494, 0.0031057575527028147, -0.4781150866916904, -1.1599581887048904, -0.35815067356667935, 0.3238041993555294, -0.11882856786526554, 0.303725083317367, -2.2226749081006094, 1.5383682423416971, 1.0608593318225226, 0.9537694932484101], [0.23762923496776786, -0.3082017143914477, 0.17694509200462308, 0.19079559647188332, -0.7923953686465554, 1.2557701715248846, -0.5028239772853829, -0.4705633422877177, -0.05517360755909412, -0.5749754390436558, -2.418802048031951, 0.982790973265599, 0.9038420802288446, -0.019214926433635773, 1.4891484739351273, 0.266343151423017], [-0.7911827001844213, 0.04779619762422099, 1.753258525029087, 1.3600963937405413, 0.3092835562522551, -0.47055450180787717, -0.062159678474160596, 0.3763005385781759, -1.2185788095356713, -0.22113500114267642, 0.8861115034518026, 1.6430844922270524, -0.2016190996601948, 0.19822344041549378, -1.621007794200571, 0.5146636207491541]], "b1": [2.845244176775105, 2.823465849539709, 2.6000999734327612, 2.254300597749704, 2.9821864255228636, 2.746562200062163, 2.8667888585400747, 2.732328642847341, 2.7236554386610203, 2.915701623492998, 2.7255558636106136, 2.950778416515445, 2.717081422552335, 2.611941146337091, 2.6406178751394203, 3.140983166094505], "w2": [[0.8846105587389216, 0.5790256794056188], [-0.43506487289487017, 1.845243026196605], [0.18760887439219914, 0.3619211163323287], [-0.25861345292773696, 0.08867466495425169], [0.23405211626041394, -0.33539567511557933], [-0.8162491423347494, -0.982406354443591], [-0.0843198083421953, -1.5880549019984742], [0.4978205193775507, 0.7527703875602896], [1.733568567855231, 0.715952243971446], [-0.02802678766258787, -0.8297289595500442], [-0.3636365749510195, -0.2942100846799264], [-1.2793373093951637, 0.30832118499561173], [0.4471313959839235, -1.1246070093984413], [0.005681039671753527, 0.2298884869121741], [-0.8775176054775723, -0.922943070768417], [0.1375695983821061, 1.0672876054994227]], "b2": [0.684139600813714, 0.7868361051271434]}