{"w1": [[1.3281527727890534, -0.19793188414981158, 0.205769669127763, 0.8395853131509476, -1.7070650343643492, -2.023199293300482, -0.7909721241476876, 2.4149243948673216, 1.3634398451872276, 1.0316333781574532, -1.1628612753234904, 0.9002960089515305, -1.3765258316103701, -0.28997639668098485, 0.0005103813542604446, -0.7761230812124478], [1.1621530989447642, -0.1963474218570591, -2.9069777923649354, 2.2457219985803296, -0.21174775900716428, -1.701281981117176, -0.01765222476384745, 2.2723087279327667, 3.69431589195421, 1.3202321080150088, -0.8876378913682853, 3.341647939381639, 0.6973330962505533, -1.1662273872503925, 1.665921072622847, -1.3261381888019466], [0.5921128158803817, -2.029212362835874, 0.14993831548603503, -1.2158122295984575, 1.3583060801757707, -1.994835128205215, -0.5700292807572197, -1.2845386937478205, 1.0328939858309092, -0.2758312564355861, 0.4418030623519774, -2.1140839177174557, 2.6063083366291933, 1.2990883764467354, -1.0075670641839198, -0.4914984037137382], [-0.16486665620615856, -0.5985945158884028, -0.3389821097216753, -1.2780287804234254, 0.12089673886146755, 0.07284189131863467, -0.7514510904499045, -1.8209809177631495, 1.169431199652796, -0.02974494894692653, -0.3503807705053415, -1.1861950842997693, -1.041333227180256, 3.624227828719894, -3.184914637207953, 1.1329370796765654]], "b1": [25.72278623514127, 27.11167982084801, 27.532721232425576, 25.410333340115248, 25.657668719753712, 25.82527540838356, 25.95098747641021, 24.79058039593757, 25.253513747800277, 25.348812029154196, 26.36245227947776, 25.172358937893943, 26.29204845407236, 27.138358926470318, 24.931289435263135, 25.95471013564011], "w2": [[-0.5482147644979913, -1.529828069121388], [-0.3534643706411511, -1.1617937358375823], [-1.2873322091831165, -0.2357508587347928], [0.2719910357423872, -2.3146562148023575], [-0.10700246777504933, 3.606098342838545], [1.3762843333720274, 0.9820547355789709], [-0.18024851233168326, 1.376957761785162], [1.288546858442753, -1.054657361056737], [1.1902089548972867, -1.086614816331011], [0.20867502221596138, -0.0422946892312851], [-2.5886652865754525, -0.2859425172171045], [2.0201051482970995, -0.9974514593294054], [-1.3442861087020206, -0.24202755229853662], [-0.3436309565307535, 0.640237829242985], [1.397372497586505, 0.8243641089444624], [-1.3909197826346553, 0.541928229558847]], "b2": [24.40717969867018, 26.910219274378715]}