{"w1": [[0.16687274670006907, 1.0334158519962602, -1.0151951549285974, -0.31627097956163, -1.8292420308749404, -2.082305318950429, 1.6769946147699923, 0.10565548753614126, -1.0986923926577181, 1.9370071876807489, 1.1122489510145994, -1.0367665656585792, 0.40522436994345346, -0.9795181278013211, 0.8211391759779727, 0.8473608758791171], [-0.7410758843138414, -1.56331529050052, -0.7329441457527858, -0.13618251142107257, 0.09256693160418772, 1.0278638658872257, 0.8938547051233132, 0.5698366276624051, -1.1110158188277948, -0.9095575603868742, 0.25143367746514, -0.2686015340252441, -1.723358872438816, -1.262565974506759, -0.6647335600779531, -0.563646107311898], [0.34228813966726745, -0.8376849427329779, 0.08284435795994378, 2.552883989063821, -2.0069574906104353, 0.1768714898786713, 0.004121174283701533, 0.36492453741796227, -2.159017112289133, -0.40527105843990285, 2.282030869427549, 1.5081928481065359, 0.17934366503357224, 1.6773359194410153, -1.228914272925115, 1.9274880818561289], [0.7817803264016663, 0.26368446025194675, -1.0251326023072531, -0.8717553420757066, 1.1805638667540623, -0.007796525625695189, 1.0719743461566664, -0.0013952538915525184, -0.03449261880524593, 0.8487665809049225, -0.0020656253034177646, 0.32202402205378905, -1.2230430213364503, -0.4724062300493005, 0.3351727050971114, 0.7424412584189864]], "b1": [2.641607341613548, 2.7133772432098904, 3.070047684706464, 2.8240346093809294, 2.7532246844644743, 2.6999454817733826, 2.7962857397537015, 2.592571787869238, 2.478227359341785, 2.601884966325011, 2.7721769304302715, 2.91503376707225, 2.88808590460006, 2.8351524431254687, 2.523907762386789, 2.5130993878477055], "w2": [[-0.3733320410061614, 0.21846228961533415], [-0.2711961736329229, 2.4919759068395475], [2.0787407479178954, 0.8565352954649073], [-0.3284551938516292, -0.5611512806439378], [-0.8967978600320055, -2.0566585122358774], [-2.352593027410218, 1.0999867271698045], [0.7004498847506201, -0.327998529193007], [-0.7195280294231643, -0.4454213209890592], [0.9145014475403116, -1.6835945336137559], [-1.2032833401058651, -0.6628522452392452], [1.3642015675353718, 1.3932153796765732], [0.5691669828726373, 0.06839373102342648], [2.5444457815830948, -0.5906775604750576], [1.3132131484332783, 1.3775368799422014], [-1.059046659399801, -0.7216188824164744], [-0.9148416875969816, 1.2830054589134123]], "b2": [2.7083277167999986, 2.8939519753383562]}