{"w1": [[0.5033896800821165, 1.0276826629210776, -0.7615766705408774, -0.3373708238193597, -1.809922889407697, -2.0550845461613965, 1.6758161615507738, 0.7002526976214553, -0.842423608107101, 0.659082894981427, -1.035579268210047, -0.5349779086281359, 0.2836189412802218, -0.9181452622009476, 0.7147547988821349, 1.0139704788543067], [-1.0448118581862569, -1.371370026564691, -0.6476409919031529, -0.0404153363702877, -0.06386116138945207, 1.0558080809677697, 1.0239674304558497, 0.356983345588, -0.8298429260748623, 0.8841680956243444, 1.2515167279507697, -0.5653073305132836, -1.474915397916941, -1.4134667702369683, -0.2950038203952051, -0.546860140782167], [0.543481482400587, -1.1122016047134542, -0.09080698385388962, 2.682334718575471, -2.26368356056955, 0.013720598324214621, -0.05168090490353016, -1.8292088895532719, -2.328952076369386, -0.9801826028538672, -2.2805730576998546, -1.4680111382709924, 0.29977505903096746, 1.13753241934276, -0.9209730105991806, 1.8277717915137528], [0.6845818986067916, 0.14284528436895194, -1.0268089583439926, -1.256103902552678, 0.8884148545106063, 0.02894172043921764, 1.3086934462204984, -1.0232623986540412, -0.30634690189834807, 0.059355770397431604, -0.43828401265460215, -0.5524760675848818, -1.6032123179828155, -0.7081007719444498, 0.24412788445594763, 0.22002989097726602]], "b1": [2.642119820619524, 2.5706501356977536, 2.593335695784433, 2.5956868541145814, 2.806231126250241, 2.820070035050172, 2.4812770952992422, 2.571484367194395, 2.545193847838454, 2.6693694686782568, 2.45606348793682, 2.7059355271059573, 2.3367034458392886, 2.525207641390247, 2.8018189104015203, 2.625938346199705], "w2": [[-0.3707026560272013, -0.12473372186817583], [-0.2798234254341909, 2.722375946777805], [2.278684529312017, 0.842385551675345], [-0.1792011924415184, -0.6999023532824188], [-0.8773348432100287, -2.027461637143945], [-2.206584399403754, 1.1010597033901603], [0.4586396049440026, -0.0917320257481617], [-0.5971692459008665, -0.018571240458431004], [0.9641638656335394, -2.00672493001834], [-1.0445604805599318, -1.0372831244437433], [1.3557247170719038, 1.6296686830308384], [0.4885490041967515, -0.051329971309622635], [2.301259436129672, -0.42312788272155466], [1.6336188980351283, 1.0798617675951871], [-1.016892086281274, -0.7095070067079202], [-1.1794392934586617, 1.106330246221245]], "b2": [2.4210206241376833, 2.466572509158044]}