{"w1": [[0.7282831448129932, 0.7359835852382924, -0.7845137177145564, -0.04386483345649092, -1.7184200608349125, -1.9962887199864285, 1.8560607079268843, 0.6440955091280012, -0.7985810452240188, 0.54041612516107, -0.8006517518310878, -0.6465969494581717, 0.41468921812773235, -1.107532197717894, 0.787914725417608, 0.8021090411631289], [-0.577733473523486, -1.8098327152517286, -0.4536217687863321, 0.09809198489871473, 0.05460129098911903, 1.0658278234902712, 1.0712911292335487, 0.37026442815458926, -1.0208641219028687, 1.0819667987463948, 0.7343045113410762, -0.4958302140162175, -1.6243266978602247, -1.098223031723466, -0.06692058904080582, -0.9191006426450384], [0.08059610037117916, -1.1692067815384837, -0.023155267652801126, 2.479696135012707, -1.8405778089685627, 0.0796213171690912, -0.47951907000388166, -1.9528756397719373, -2.1520975099049613, -0.8834005322925036, -2.427169743181751, -1.2268500735381542, 0.43439966818217757, 1.3801165640178004, -1.13548156965533, 1.6824557672064664], [0.7208632610112423, 0.44092748227894674, -1.2504615203542278, -1.0963074542644355, 1.0760224605447424, 0.03466746183097189, 1.092213115532333, -0.6393721616326161, -0.05275009391174064, 0.03525982328741195, -0.39859006000550534, -0.7199713363125622, -1.6798779390916228, -0.40454299734074073, 0.2127633734888224, 0.45050278791799464]], "b1": [2.5300652354765445, 2.451250907529644, 2.5443470078203987, 2.762483199336307, 2.7637233769957206, 2.474846776711625, 2.3705448335907233, 3.069217712429917, 2.58738182498774, 2.4558482307617657, 2.2657269495348364, 2.8771009553788343, 2.407888194717886, 2.837162163488972, 2.7872133702343165, 2.4584306366972037], "w2": [[-0.31604769173669023, 0.09221111367407038], [-0.10624737810435482, 2.7029252723450536], [2.3399968130333835, 0.637897828564783], [-0.6821510007792482, -0.5929519300918129], [-0.8902114742293183, -2.1850927023225575], [-2.236747323125753, 1.3725420350475221], [0.9007868867931954, -0.6852902292658458], [-0.9040133820705276, -0.4710021064961924], [0.971900072943311, -1.9497644825168474], [-1.1643142753149434, -0.6447586074764509], [1.271590467642664, 1.5367400315155624], [0.1918196058023941, 0.07955804187966091], [2.551640401615984, -0.015545885846710766], [1.42636623261589, 1.2475238013429126], [-0.9109493901701486, -0.6249653960582804], [-0.8251147020381807, 1.5462427196717148]], "b2": [2.4057231077284444, 2.4634996488108913]}