{"w1": [[0.498008370672862, 1.0247912066699083, -0.789679016191778, -0.39459451128128675, -1.4859657884686874, -2.084367269258282, 1.65434513245203, 0.7646212648819227, -0.9825553002560304, 0.6085445658475046, -0.9468676001465336, -0.5748045729283945, 0.38721148710714465, -0.8615003175162831, 0.7486753054647416, 0.71942264884142], [-0.9926313881629013, -1.7064006648405297, -0.31900687997677857, 0.08672135379240488, -0.21639573138734794, 1.0167408490626983, 0.841834197254816, 0.34569475828220964, -0.8730136121477629, -0.958650678148111, 0.9522690836350636, -0.37019035116008825, -1.51481492653321, -1.053454062005046, -0.16348749385359795, -0.8460799000662481], [0.4514370991581207, -1.0070556416618521, -0.15527616120091753, 2.4705739437444096, -2.041248660831789, 0.24745175773878963, -0.23156326432501712, -1.829699587008179, -2.0381630341639045, 0.8603203355089123, -2.414187006515471, -1.4199506300799194, 0.3648979516483367, 1.1800527304012463, -1.232748783728388, 1.6861214091915087], [0.6393764249186291, 0.6442063553654671, -1.240545384929404, -1.0561436830313538, 1.3270018821624792, 0.18285516361181803, 1.3951161641033891, -1.0595285552684401, -0.07408679340967991, 0.2333571795993588, -0.5330384030072468, -0.9961682752911307, -1.6917738613321165, -0.5492212381293358, 0.5371853221859985, 0.43397512806394906]], "b1": [2.713368833553941, 2.5926440404313955, 2.5955187872798904, 2.7167109155797116, 2.5990717966290964, 2.420580251844207, 2.3529248929827897, 2.6925257367435758, 2.5621741256294444, 2.4800506969614835, 2.444777365891218, 2.8163662424461977, 2.501178951933938, 3.031450070529551, 2.733441844224383, 2.62128456873457], "w2": [[-0.3379946838661846, 0.1150452454428186], [-0.2826155702244934, 2.4879534508657173], [2.2404782472701132, 0.9948292381435604], [-0.4537228334410874, -0.42154578249380004], [-0.7971782496965065, -2.216729069650447], [-2.2150277658671222, 1.3440072289394627], [0.9393094983509426, -0.42473139830264556], [-0.7934336685988184, -0.4560875325688287], [1.2113157483498387, -1.8567677340492763], [-1.0193010093976747, -0.8883949200839614], [1.2526758836290317, 1.4671685107950165], [0.16908498553029794, -0.006181869379376148], [2.4613622838241027, -0.39242767441471305], [1.1478268707488997, 0.8120562396401215], [-1.093092760504783, -0.6557661983233686], [-0.9308080137592416, 1.432402523812213]], "b2": [2.3104694159049353, 2.6309961960089607]}