{"w1": [[0.3652890722283046, 1.0119154164849744, -0.797524332651234, -0.36300744158484566, -2.051410609737546, -2.016457524148469, 1.6988086239351177, -0.5605306634724629, -0.8868264152781594, 0.8298822042893155, -0.7906345970709304, -0.7588373178161908, 0.6006372823511099, -0.8528534248737691, 0.5301160706530847, 0.8529964989840423], [-0.42167024533061503, -1.639813389898824, -0.739042095739918, 0.21401290099236514, -0.2495354441498788, 1.105856605430038, 0.8852253897961531, -0.3232462141871951, -0.9708196317293789, 0.6190440227984415, 1.0019854937327617, -0.3508038622328309, -1.6220486207641733, -1.4186486283411688, -0.44257832576581313, -0.6878322089313571], [0.4938554684121183, -1.482942050241415, 0.0808945564928852, 2.6894291168211972, -2.3539524401241865, 0.08694397285444172, 0.13535441828116757, -1.4468426304475204, -2.2373614361795897, -0.6325925195085225, -2.373827159920949, -1.2192974878069773, 0.09581687833442287, 1.2036167981223516, -1.1473863889401619, 2.2474316648745574], [0.7148570420942967, 0.05968321306415485, -1.0171396569692075, -1.0354586314516916, 0.9893555933285264, -0.15122785941014782, 1.0720434310894658, -0.24721788524484356, 0.1779425158396408, -0.3182065602382512, -0.44406098256482424, -0.624316030684924, -1.5730558216648398, -0.457809422766752, 0.19031961072840248, 0.7540520116224071]], "b1": [2.7346964845030852, 2.6270498070660206, 2.6689995665916664, 2.5623738597317924, 3.0860440260997883, 2.4530388643048706, 2.407320104765691, 2.3365189494728136, 2.3200215616379993, 2.6404423735860436, 2.3977804655870965, 2.813325018029494, 2.2664446825297886, 2.490363858787866, 2.9822887693548026, 2.3990360597560385], "w2": [[-0.31861325083174796, -0.1595378261401275], [-0.1535798975535975, 2.7164212558882066], [2.4174011634400214, 0.6410905530534639], [-0.5375934832015452, -0.6737877052777268], [-0.8698644254354555, -2.2456031396664935], [-2.4773759370441892, 1.285897297684107], [0.8365620010068193, -0.06412467135332603], [-0.5989101823778896, -0.6781210165111831], [0.6993840716876654, -1.7434915524396444], [-1.0253135334482095, -0.6184617532354847], [1.3194393629958863, 1.4274509041389827], [0.12932324675619034, 0.015727469442565256], [2.422962224073793, -0.3673370572836876], [1.4465503418555687, 0.9825887650970766], [-0.9567873241623186, -0.7341020494229595], [-1.0277192360715879, 1.382480728534756]], "b2": [2.0555313211194197, 2.34753390900003]}