{"w1": [[0.4693717008326521, 0.9967100060706258, -0.8379917875525904, -0.1932521894967028, -1.4058884306767436, -2.1748768367076616, 1.7213485171354284, 0.7022157637200886, -0.9286054180824211, 0.664044858452058, -0.7644309959890118, -0.6354564269892764, 0.4427529345795505, -1.2371009639357737, 0.7248649256208254, 0.7309345227472732], [-0.7858871444084747, -1.6578468466768514, -0.651623902340362, -0.006262950388842239, -0.24063303814517578, 0.9988416777816163, 1.191327599998701, 0.3336166659373585, -1.117656701264959, 1.246145097236996, 0.7397693425429808, -0.4231413419082236, -1.5194647151297977, -1.0556247189261954, -0.17995153171192912, -0.6869001559881989], [0.3518741254992316, -0.889512954592965, -0.16002509948702293, 2.46763558955356, -1.8860566057848176, 0.2004344207839316, -0.12808388765400947, -1.8602391709442307, -1.9585886812870819, -0.8569294593622041, -2.367920659278848, -1.3520283761051863, 0.5455313415642918, 1.1675981644408358, -1.4036702469141253, 1.592935973233443], [0.7762963205127474, 0.674306048403984, -1.411072529997605, -1.2119793246153916, 1.1528000126491393, 0.13175632293621434, 1.3726622053221513, -0.8683570794148617, -0.2293569258288084, 0.17277436512125838, -0.30856928553269125, -0.8945934762635859, -1.5320232059750958, -0.3517257076121073, 0.4250753562418495, 0.7053654106911793]], "b1": [2.7955125629932325, 2.373120565908765, 2.6653699918996616, 2.5994756097155793, 2.6414518278027757, 2.3726715922763617, 2.264736435822523, 2.5568291468391267, 2.5213083389548268, 2.6892304513469316, 2.6168406299259126, 2.9100304116352227, 2.3372410147484293, 2.626047518527067, 2.7387053044341165, 2.4377081596825607], "w2": [[-0.27341764387615386, 0.007715547659665062], [-0.2414732633176097, 2.595375795221905], [2.0416082045858603, 0.6868490352740114], [-0.6057968885968396, -0.5025315464263442], [-1.0513112087853116, -2.1645076584093457], [-2.112077251336986, 1.3107299376791688], [0.9149283068247362, -0.07093289927347429], [-0.7894738273363779, -0.49266918195144654], [1.3309928512896554, -1.9861612138892346], [-0.915997908624413, -0.552660680456343], [1.4353569877262042, 1.6448091582392461], [-0.00836699434752547, -0.07095081426554076], [2.6453290735330355, 0.04666466190874867], [1.5286528819053904, 0.9280254691998704], [-1.126978179338623, -0.4641251049700066], [-0.7153025624376168, 1.391097858483849]], "b2": [2.2617278341970506, 2.3952580201642393]}