{"w1": [[1.3907599657943368, -0.5049136527473769, 1.15975780624823, -1.1250657967759803, 1.1533945531215282, -0.8513789192270813, 0.8860358705190265, 0.784395553380721, 0.8393025579671947, 0.9580597528439626, -1.2872934759360284, 0.18486057068657347, -1.23128926281071, 0.6684753150918188, -1.199134876093896, 0.9519620359411284], [0.530060001999081, -1.3181041613124618, -0.8410458860321063, 0.6306916851720126, 1.7295648348004973, -0.1824635456910521, -0.9839317258356338, -0.9415685682308859, -0.24237228613644002, -0.5175115123906173, -0.1597070877034815, -0.1900570967065496, -1.1289640006083104, 1.8144018154071615, -0.5962005511488631, 2.06317664445987], [0.4350415809401772, -0.5460690815020873, -0.02616321737468158, 0.49680768490844307, -1.250634753745147, 1.0513962666616488, -0.6154781729440174, -0.7050775870719608, 0.1547725661387457, 1.1460574727635708, -2.4924815636902795, 1.199985474275793, 0.09774355121115662, -0.06938659956320592, 0.9331801632655922, 0.11702538316876683], [-1.017240476146171, 0.10538269616636636, 1.670182718710955, 1.221464385168058, 1.0927850658272502, -0.6606328758241352, -0.38282109732304037, 0.13811165117068008, -1.389682790836589, 0.6395867980010169, 0.8925067668421857, 1.3401617809675057, -0.8116658736370904, -0.3953023179812554, -1.315371453071902, 1.792055791542433]], "b1": [2.7458363806401667, 2.697159985769005, 2.710157052073982, 2.379228712849237, 2.9830672683566704, 2.7488762408325513, 2.4452942229590526, 2.5911425326593083, 2.7524799026217446, 3.002215256841965, 2.7313030819018893, 2.959315770722934, 2.9274854371018373, 2.972281850301031, 2.58714889678285, 2.574724620984048], "w2": [[0.3310823154615291, 0.4450867464013808], [-0.03800116516173663, 1.9604443995106573], [0.41281716273691255, 0.24700894548917018], [-0.012993180212192063, 0.025202844719735357], [0.5235641599065476, -0.10688748913482868], [-0.4745766603283637, -0.9630969557101212], [-0.2675399606196859, -1.3967073193654893], [0.13691911495829434, 0.506760142086643], [1.6174656591210477, 0.7180206470492747], [0.09454942731707598, -0.6207526509129672], [-0.5143045907711206, -0.0873800188466741], [-1.4994848506059142, 0.42845586690350734], [0.8237773407544193, -1.2267287263352598], [-0.2470288177769766, 0.28665157278507464], [-0.7392107256221712, -0.7404600555066524], [0.06140434055797059, 0.876148014543875]], "b2": [0.8761979125479795, 0.6013974185175889]}