{"w1": [[1.2812313922803604, -0.7054824924237674, -1.501486161514471, -0.5620118752030501, 0.0600506508655225, -0.9967193890173504, 0.8492722085623349, 0.7451377508217023, 0.7185923803106653, 0.6304683763847606, -1.5978752716569513, -0.013985324237283756, -0.9671922381032063, 0.508826891005076, 0.2074853258924763, 1.1504192497413852], [0.14036633749083555, -1.2467126129235058, 0.7080950074983017, 0.42089059900943054, 0.1495923908294894, -0.2315390142653462, -0.9430108482141811, -0.806223419519312, -0.5403072566682177, 0.6297315359739151, -0.03941366819758563, 0.12141240272815615, -1.0089074900498256, 1.7365442337257113, 0.9146296613692535, 1.9418689894649566], [0.7415902568759819, -0.3736015417595337, 1.6254792294223923, 0.894938930382434, -1.1257043200900596, 0.8398700670925594, -0.44013844582117606, -0.493251098608644, -0.3074201235585533, -0.6757702372123296, -2.278744719974289, 0.8970894298385449, 0.49759716612632476, 0.038660358575905066, 1.6853279882261094, -0.1453686014181951], [-0.7507424711259085, -0.11520658604610287, -0.563027305412601, -2.1103679123880013, 0.7997849640958675, -0.2892309420653218, -0.3449014034664251, -0.04817099995802596, -1.4250419589881074, -0.0750399762492926, 1.028893424350577, 1.8033856808964677, -0.6808316365373597, -0.008864281902448173, -1.726175982084448, 1.734962120244498]], "b1": [2.772560579397455, 2.426468290096944, 2.51346827497266, 2.446457341434016, 2.606307555417694, 2.6401504785788146, 2.837161649452842, 2.3483458727733613, 2.3588370500943605, 2.4308144379790217, 2.487762795861433, 2.5455821561251275, 2.759082912310271, 2.3527113552407224, 2.452964557868996, 2.6800671502027322], "w2": [[0.4072094675208245, 0.5234474051803808], [-0.16708710679097422, 1.5878073331352172], [0.30709131072812546, 0.008444391940023784], [-0.5325789447431245, 0.12552343471661548], [0.6428508944945052, -0.2995075764551496], [-0.958790914505679, -0.924297988128238], [-0.2914474380753596, -1.3642807372908872], [0.6788784019430194, 0.8411203609339488], [1.795966894229035, 0.603596252237977], [0.031990823111204957, -0.4145283864057124], [-0.24528454727609925, -0.26427039091318527], [-1.5347000835709397, 0.3994789971675638], [0.7802210284934447, -0.9546392960947471], [-0.1221815601701022, 0.24599277642054135], [-0.6955719157294573, -0.869779462754435], [-0.25083105665600436, 0.6847276723425579]], "b2": [0.7056768277754859, 1.0723321362554408]}