{"w1": [[1.5202200728444635, -0.5883489321163773, 0.8344337814668903, -1.00307815033113, -0.2592161356302004, -1.1843331173716214, 0.9900235798851412, 0.7282662751530603, 1.2647872167042822, 0.7034023812497785, -1.516500083500251, 0.40772080530083565, -0.9767037424731515, 0.4825582213565026, -0.811730473290809, 1.9612960264678925], [0.29713015178172897, -1.2300289717384427, -0.9873147822023175, 0.6373872507397205, -0.11007251427615643, -0.17540996938050604, -1.0594965612571081, -0.6172732120159379, -0.8438283627508136, 0.042375494036520106, -0.6507819172969336, -0.21520061759968745, -1.0244593996545068, 1.6814699391867054, -0.7759090334891042, 0.8293086978974374], [0.7324489006206781, -0.43046832026899773, 0.07671222870567738, -0.16112103296521113, -0.9444044898257922, 1.4779707646751319, -0.4190010329730961, -0.42655638916961114, -0.8190050795175627, 1.8241160712458622, -2.454628537908442, 0.7178646440986762, 0.6394705848040975, 0.06585536902584746, 1.019289503182853, 0.13418741581597346], [-0.6755261034946176, 0.04015171674953437, 1.515721543121869, 1.014393930728199, 0.2628140269980567, -0.7783410164283652, -0.6876722676669129, 0.049154269038038254, 0.26432188337237, 0.8027713386280247, 0.7902918162044583, 1.4281077425325135, -0.7440986766238425, 0.20762901396349906, -1.4269060815792403, 0.5996011820463029]], "b1": [2.9649724573056124, 2.560953764819561, 2.584328291544553, 2.5044396001694964, 2.6730804967933124, 2.760602213722208, 2.9864889494941744, 2.830039463610305, 2.719229137736766, 2.6476917890204557, 2.695071804804895, 2.8223113679895198, 2.838877310236806, 2.6690753834850676, 2.8687420243643293, 2.780407145620774], "w2": [[0.37392981403783576, 0.6653887158892295], [0.017610760089422292, 1.41957803402304], [0.2913034476365147, 0.3055663841817735], [-0.34042426807977927, 0.054947580710674404], [0.9430981776709697, -0.1321331780454248], [-0.676631518795719, -0.9220822556230275], [-0.25945940976596393, -1.3953333941557946], [0.7175715376091901, 0.9245968739668438], [1.8412433376373192, 0.6180963882848794], [0.11208820007860316, -0.364624166750255], [0.21991235919531013, -0.28514169311722254], [-1.4379169557880611, 0.6181299425208282], [0.16003270342346065, -0.9521711144470956], [0.06367426832292386, 0.11648402187624604], [-1.0279637739419005, -0.4778290540299896], [-0.038214210134383135, 0.866089317345196]], "b2": [0.9921120060705482, 1.1611748677076374]}