{"w1": [[1.1391567474839723, -0.42162851264805884, 1.2172209748226783, -0.972643053029661, 1.4393281540336622, -1.1433239420812624, 1.2295862563110156, 0.6907025068155626, 0.7878070852734188, 0.5383057560850096, -1.8751857139874606, -0.07381713181035648, -0.8108925620938221, 0.496469107595116, -0.8998118645415911, -0.30945152491845207], [0.45364297761497147, -1.4633194436878967, -0.9560618416305312, 0.7457744042296196, 1.676175458905522, -0.4725358792213828, -0.7908298049254098, -0.8190653116545874, -0.6403709400750447, 0.806531806988033, -0.019427273373388287, -0.3553378772727145, -0.5313176172979704, 1.5286550108836836, -0.8255101237197486, 2.0098177516297255], [0.3986033964664396, -0.4081231493788374, 0.032618596990197535, 0.014866265404754518, -0.9443383162059051, 1.109222408730376, -0.62853414015142, -0.36511238681828706, -0.20520965476776387, -0.3356084823148032, -2.5154732541655305, 0.8035938967191097, 0.04746589748539726, -0.29494192894649707, 0.6160506736221583, -0.049292492380550806], [-0.98367269097568, -0.5325450655492967, 1.9136943594215023, 1.3523459804932862, 1.1646932675222108, -0.6383531636087403, -0.6179455805489594, 0.1097893149354658, -1.4783559476024641, -0.07877368643399205, 1.2078367812356792, 1.6975893512652038, -0.5871111658241263, -0.025621984902086045, -1.3957140638834078, 0.09414894351162936]], "b1": [2.962902305606835, 2.878113730447035, 3.0487490948019924, 2.8957988018012, 2.9926145471534666, 2.6977031577124935, 2.869679749308345, 3.0893663504877558, 2.6919225608071726, 2.9011398139697744, 2.8512187703635608, 2.6609471173535435, 2.994825979735856, 2.743054943238837, 3.093272937218287, 2.92487214184469], "w2": [[0.3236073750290469, 0.49514061770139106], [-0.18757227327799442, 1.7677705889951547], [0.2780819673827453, 0.4207191995999879], [-0.07119976264875062, -0.31907017844409297], [0.7515711827279843, 0.07492101384460423], [-0.9690825912248924, -0.7263163621330666], [-0.3934372292116758, -1.1616802415755125], [0.8725570283477389, 0.948149976665514], [1.8784721569373342, 0.7451744380121379], [0.4306788799244621, -0.5397819521309661], [-0.10243552222292228, -0.25016084663679555], [-1.4455270244688574, 0.5353433040523214], [0.5000258869396674, -0.9801250304364955], [-0.2642609891407063, 0.1864628250452947], [-0.6625255967432966, -0.6932667019272825], [0.022758501600084635, 0.6701129129556727]], "b2": [1.0949056718039112, 1.104830322422981]}