{"w1": [[1.7579150921194715, -0.6469100041181586, -1.5279875782477597, -0.8520939803759884, -0.06320948821024205, -1.1358692170851445, 0.9001541953727714, 0.7582476437453193, 0.733431268328641, 0.5132051410184876, -2.058698087552584, 0.28262908369007145, -1.256079582306751, 0.2624373012172053, -0.017128983140853427, 1.1838312219352898], [0.22612581511169014, -1.209308609059044, 0.8619656699889948, 0.3373988658706741, 0.11488849693404743, -0.18457465516600066, -1.0014891816995295, -1.010141865881307, -0.24138619317065324, 0.868519879948201, -0.23182647227827308, 0.16904437380795695, -1.0245850619221657, 1.6334381356983805, 0.9103612464746282, 1.7904868499991542], [0.2945975585577115, -0.4220268077783951, 1.6527587118624192, 0.21957636685525392, -1.3922882104247682, 1.2981353671430151, -0.4452324706603301, -0.48118974023535055, -0.23089104460006254, -0.7402276956699638, -2.7738334130022704, 0.9569435468928067, 0.33396895508818014, 0.021134084947488294, 1.6158169878840198, 0.09479773662456525], [-0.7264877646112984, -0.22376080459694228, -0.4498111830422978, 1.1012220867968776, 0.3904971003533798, -0.2899002031558121, -0.5671307384852947, 0.5206458442064622, -1.2779285590479312, -0.10589506840080487, 0.6233935056155706, 1.5486793906435619, -0.6599854680644067, 0.1359351954592202, -1.786052463376637, 1.7163162510616692]], "b1": [2.697687149595116, 2.8653854873277074, 2.7468788140900156, 2.442831896439342, 2.564418405995379, 2.526280236575996, 2.8653345150124276, 2.567035723791881, 2.5876213578847653, 2.7657890385749093, 2.891993671761822, 3.1334908092543996, 2.71213248389915, 2.4754576917590736, 2.7522031698352465, 2.6951978410255926], "w2": [[0.5556022171316135, 0.5971719139598837], [-0.15571570004171675, 1.4431928506094622], [0.5037811121508312, 0.24920339009413367], [-0.4038456910251869, 0.05282100090832846], [0.5841145306278896, 0.0021787622515041516], [-0.9700942639800438, -1.0054540176539666], [-0.5744386494760956, -1.0239290394899145], [0.7532806172787108, 0.8641096541658915], [2.128823653104786, 0.5969521548623984], [0.19502485318180204, -0.6240735430591771], [-0.38746633192012514, -0.09010226551979784], [-1.3622901191767214, 0.5625649252528137], [0.8133760754365887, -0.976923168570264], [-0.08905678341318471, -0.05950475150480067], [-0.7495581839245526, -0.7544965901139302], [0.3797260523575462, 0.9678089149872257]], "b2": [0.865778299389112, 0.9904210328505955]}