{"w1": [[1.2092464832309722, -0.6032933916744504, -0.5688992710342533, -0.9580982590406506, -0.4577497436736634, -0.778470921077767, -0.22625271542986178, 0.926326358637673, 0.41048336946756425, 0.653948202351037, -0.5597257385911247, 0.15801695537426474, -1.5917074914297846, -0.1840192090880668, -1.6442433859099816, -0.08083247456231986], [0.6425187416535512, -1.1597785173455595, -2.126733504602661, 0.44558595608071455, -0.7282998309157617, -0.6728896106794475, 0.3072431753981283, -0.9127148107041609, -0.5158589962846654, 0.6248910614252411, -0.5282508638729743, -0.34366914102416257, -2.238380164709152, -0.09303314831851414, -1.1955373388570019, 2.1737322093571483], [0.468650203039652, -0.4281671094062054, 1.5667055242984826, 0.35212358813251776, -1.4850518033564586, -2.1444442013154594, -0.34181127444816495, -0.6042096284097376, -0.15301722159417508, -0.19812708373149693, 0.4918735231172039, 0.9373767684850032, 1.0644609879480254, 1.3416325710920318, -0.761699356487231, -0.3049679149188654], [-0.8348921360987362, 0.02870198160597473, 0.3772022945731924, 1.1922019928721337, -0.7312103433166882, -0.03440988207375934, 0.6913500878524133, 0.19046666158401632, -1.4690049105651803, -0.2695702079856809, 0.014548975344746681, 1.3088657699035076, -0.49328762641150753, 1.683815291659117, 0.18156673974152993, 0.3624421232633067]], "b1": [2.634541575214931, 3.013931942890483, 2.960385408434514, 2.658628117058, 2.677184722932978, 2.62676162834543, 2.9945435953692394, 2.6738696780678612, 2.5067851552148053, 2.532431599130517, 2.774319738166307, 2.9488025523755357, 2.3996281099869314, 2.8138337320781, 2.4966758779369598, 2.4109236605748396], "w2": [[0.48410224323441803, 0.5179157939913518], [-0.23273683029411776, 1.9167145961836314], [0.22846243393410348, 0.421081374396591], [-0.20649191194468633, 0.20197900591845758], [0.7287246387596306, -0.4122893204800128], [-0.3137338640461822, -1.1509046264279066], [-0.37048663578860475, -1.3905016590446557], [0.6825936182733463, 0.6009295582741596], [1.879933967116384, 0.6025244861724756], [0.05578582106737542, -0.6093010616443476], [-0.5908280525955857, -0.4048726381030433], [-1.2510689611298167, 0.4468758557555061], [0.7677247165995359, -1.1623266870238596], [-0.4890518825957963, 0.08152914204096297], [-0.7614668066284551, -0.7078777167237771], [-0.1649139783984274, 0.7983590900176392]], "b2": [0.9660770936474967, 0.7781042986845339]}