{"w1": [[0.27816916350242804, -1.441195324293001, 0.06656615426534945, 1.2031594920182973, 1.1907866357974486, -0.6362420901335151, 0.41439460079676455, 0.1775727520798034, -1.2416423498355516, 0.06394479349803313, -0.6555024659792447, 0.6164236024465305, 1.0150839191938583, 0.37632134644120785, -0.09479465898978816, -0.8962774749551695]], "b1": [2.6999296976737583, 2.593721163514874, 2.801743465657959, 2.5277679187682423, 2.3910095581074513, 2.3276751546908354, 2.29265628328291, 2.5481518474337963, 2.5081196127771674, 2.8185714375417037, 2.733805315141924, 2.6254828718462253, 2.688965627254982, 2.6941487277441207, 2.6856059215297288, 2.736800648597054], "w2": [[-2.748600886914321, 0.4748686601416007, 0.9045217257345921, 1.0384077110520575], [1.0427988897915568, 0.6840962913367225, -0.8975888311656757, 0.18548039591767398], [0.3123608485696655, 0.0727707713503231, 2.1938896547904307, -0.6778345235903778], [-1.1655710727822652, 0.10889758519165404, 0.5139751633723795, 1.3924077172342875], [-0.22388468028161218, 0.02868539541430258, 0.5616057708129231, -1.284812684194539], [0.348602671180012, 1.4508024434976523, 0.5681705098732334, 1.4056571355333671], [-0.24503090327301758, 0.9774331867363666, -0.20227200257437722, -0.8434962656994253], [0.4261490079490329, -2.243300398523036, -0.18443872611723666, -0.9380845724309397], [0.9385981527546826, 0.1487768660076939, 0.14470323227764453, 1.2284031214711588], [-0.8805159708406626, -0.03792815891840931, -0.25060243826187534, 1.514449573690313], [-0.1671195931300573, -0.2828232697147558, -0.8907547847877835, -0.43778181822472606], [0.42387851343569105, -0.908138341886604, 0.36804666203958925, -0.17024146849014082], [-0.9666057970715863, 0.2602371837054449, 0.3689730958042397, -0.7253631401908112], [0.25055976016073417, 1.3245749263405957, 0.5993408348836018, -0.5568873511883086], [-0.24341895797827393, -0.6364030412284142, 1.3133045258872187, -0.9936004217723153], [-0.7213647888149343, -0.9053614036203566, 0.34630243724014476, 0.07766774108295811]], "b2": [-0.8438475337796488, 2.8209069199278893, 2.4080593939551815, 3.220067699448991]}