{"w1": [[-1.8055516270484404, 0.9774897607328356, -0.3000262343187754, -1.818877016812529, -0.26374091498434177, 0.5386967320822194, -0.5005184407004588, 1.5777411654214268, 1.4356014314702625, 0.6919466776701169, 0.2970846155605513, 0.8663545371820645, -0.9764225191530603, -0.729543552703463, 1.4614106341715676, 0.8539457304742103], [0.6530460261571006, -0.08477641935242759, -0.3001665567252506, -0.6873726596193444, 2.51428112185853, 0.8418347900191674, 0.3259759699521829, -0.787294841651131, -1.7069389623026334, 1.712470119164921, 0.5438808845514363, 0.5017313071739242, -0.7936877174172059, 1.5070766936782083, 0.6033707523431704, 0.35443778413491384], [0.42111653904034285, -0.17890192161264434, 0.903327848752136, 0.18665808875205717, 0.3705126487136722, -0.02782301911342716, -0.04744969187669977, 0.2221980459075089, 0.7143793367873259, -0.10698077130405192, 2.699620501719242, -0.9518320236589483, 0.9592362822425945, 0.877690654875298, 0.6985949839810066, 1.140578071178526], [-0.21488429624094452, 1.632553475446644, -0.5855137497375442, -1.1255698218547205, -0.9677538396788324, -0.749062860530692, -0.6299688445512243, -0.05073643129757832, 0.22235376253779843, -1.037915123388415, -0.1545849697489865, -0.8363715664197438, -0.3317458018747765, 0.6879880039634904, -0.4188928734303069, -0.8939088150828352]], "b1": [2.592311478167594, 2.47052561176339, 2.6976349719699386, 2.4315178106013566, 2.600671466652526, 2.779717856722941, 2.7272807061732527, 2.650247681708056, 2.758171041951608, 2.4328216086921475, 2.374722558580277, 2.4526824153382303, 2.5878505069020044, 2.635939005757544, 2.6522838613917905, 2.5824665881129736], "w2": [[0.353959013627151, 0.13580315265967452], [-0.7735828971933525, 1.721308172110658], [-1.0513480416694678, -1.6992466949778546], [-0.45931866880920486, -0.560722413925973], [0.8509910243290044, -0.6421558074677229], [0.30910597177890814, 0.26883859931581355], [0.5432583579843207, -1.4095988509338588], [0.09526111715464682, -1.5671350248860965], [1.086974551089847, -0.7918618792420251], [-0.8247234889882622, 0.8086260222327903], [-0.27096122477742757, -0.04484073788909998], [0.7928782139497246, -0.5714815263016462], [-0.6550504712250095, 0.7757065711437817], [-0.5010873490141533, 0.18562176009548154], [-1.3624974005493382, 0.17267754419447817], [-0.541573836911301, 0.5702773655587443]], "b2": [1.4124271491561373, 3.3826137557206297]}