{"w1": [[-1.8400648641074742, 0.7328387466572059, -0.3596522996869441, -1.815117900769606, -0.43666066082057636, 0.8369313500662423, -0.46417404629832776, 1.5960829954869804, 1.2445800632094068, 0.7988131104801375, 0.4152748291381194, 0.6802456258386762, -0.9961828909194488, -0.8294030594621367, 1.4149688919415042, -0.6893908107816069], [0.6303327114952834, -0.08907879267178029, -0.21600475966114646, -0.7939731712092627, 2.3649063644454205, 1.2982767312057966, 0.4727629460435858, -0.6167902889034829, -1.5811569355057984, 2.0802670314023004, 0.7819374601292656, 0.44809421169737834, -0.9216850068479332, 1.4050127409890227, 0.5174367950148291, 0.45181917674777433], [0.5983646383951041, 0.12498359756787125, 0.9166005061439616, 0.21366029903364314, 0.5598005145665514, -0.08210107307731543, 0.011741798868241171, 0.07984533141234866, 0.642172985503741, 0.05250638295060282, 2.9166979560671065, -0.8628093070475527, 0.8179051585421983, 0.9726232633989841, 0.8171473228187269, 0.11937411177103327], [0.009784021538535623, 1.6961402776933963, -0.7215823181081513, -1.1860831281561246, -1.2045621730492255, -0.6098344206119491, -0.37985824305357996, -0.13883566775845094, 0.47469788739285773, -1.332523540933578, -0.25499017375976635, -0.821100585762256, -0.24048490937101402, 0.49184189461316347, -0.4790823518771191, 0.4772620195907131]], "b1": [2.7562401565353154, 2.842280720711591, 2.521443091916586, 2.478067162105709, 2.654463312388431, 2.55573607012795, 2.936749491490664, 2.673643598192423, 2.7856132718708726, 2.398042603452191, 2.62929327042156, 2.517682698950428, 2.8239985734021325, 2.4768010221088583, 2.4351838258581955, 2.406332576926217], "w2": [[0.5527000740424592, 0.06096920603753714], [-0.9028477920983443, 1.513853725267937], [-0.8709492730297924, -1.8312796608247683], [-0.5885101247397995, -0.6003190855963347], [0.5773962582347945, -0.5050494538128492], [-0.27054559089977337, 0.0035728472010673334], [0.6235678778961498, -1.631571283405974], [0.09354744283278048, -1.2078520334047405], [1.1351901122689236, -0.5631153901645073], [-0.7633108633636996, 0.41196051419790636], [-0.42178662032005787, -0.38620398021750174], [0.687504017941807, -0.20770501171113126], [-0.5569952306376545, 0.8294173625616484], [-0.40232448693623324, 0.14436478542518502], [-1.3086990732879422, 0.22106995234888396], [-0.6159616299260434, 0.4165719338049947]], "b2": [1.6154082768137312, 3.161456795151977]}