{"w1": [[-2.3618957565623595, 0.019473353793815096, -0.3736505285273073, 0.7421384128926467, 0.3589615370261898, 0.6380182674539548, 1.4219444399021597, -0.7873669850065966, 0.19309425623745485, 0.6825668537850971, -0.2905767174398226, -0.13454219317379304, 1.3785568528716627, -0.5244446496881735, 1.4748790536625598, -1.1004081641779506], [0.10591353296717224, -0.039317698601543466, 0.0227504682386451, -0.2335825962135971, -0.40496705619637563, 1.053339816671582, 1.1191993783959353, -1.3404662879957723, 0.24501556053926477, 1.942520356710684, 0.2943471474623198, 0.8143825786696718, 0.7019664115697251, 1.4627358344773949, -0.2124259573701584, -0.34710049393430165], [-1.4628255787528976, 0.78058998374193, -0.25255296046726816, 0.29497628634264345, -1.0998790239594451, -0.4819553810905509, 1.0269623165575363, 1.2568468635064962, 0.5185328949855199, 0.46872285199661984, 0.46701069556607944, 1.1978205051409194, -0.2849323830166597, 1.1859135178406517, -1.2550311423493943, 0.4817550768352], [-0.2469525513960506, 0.8264788119295153, -0.5777471462961717, 0.25115119746357895, -1.2073261319335404, 1.1839624029257576, -1.2471149065996174, 0.9574242308694524, 0.40591218982800903, -1.2999858864096994, 0.5736795340425856, 2.412788676522445, -1.024900786125003, -0.09520147343545064, -0.3561267406169699, 0.1798924239621367]], "b1": [6.047358683095137, 6.418636768088903, 6.597552747337627, 6.791811687415683, 6.694706396598635, 6.597689660767827, 6.576038966561352, 7.1851673383403085, 6.596492703147032, 6.744009892381899, 6.378791826184766, 6.3808190298849645, 7.158091658723649, 6.843895887784938, 6.401930666932742, 7.0374650424422045], "w2": [[2.648825664362762, -1.4275704117238912], [-0.5544380645130891, 0.00010827316835940182], [0.13375721275053104, -0.3773539707393028], [1.194021738356235, -1.062036072898986], [-1.3660281701766204, -0.38156155334618913], [-2.157910409155885, 0.6511880778004502], [0.2088957489121186, -1.842526759472762], [-0.2740170521419766, 0.0852978100043003], [1.1910690899503436, 0.807463800010409], [-0.38812290102567604, -0.08111838723571853], [-1.062910768497692, 2.127967147804815], [-0.4619635700886179, 1.062635137419922], [1.1192029679316606, -0.6458859614336898], [0.21689381626356266, 1.975769408389642], [1.3902003826501141, 1.2146757385815947], [1.4790977580486286, 0.9188941971724871]], "b2": [5.914388927256219, 6.932211933179306]}