{"w1": [[-2.5695743479366553, 0.9133640905569598, -0.13574009422191152, 0.8359625495092847, -0.22735552533375752, 0.2737164961027315, 1.157091881659478, -0.7148832742664042, -0.2132383504088708, 1.0583011560499183, -0.2316458083483074, -0.3356682332121591, 0.8671428201256994, 0.5561552153044839, -0.0783733446645412, -1.3404854687198684], [0.4941489735974395, 0.11395792823216852, -0.05204602593788986, -1.0212793721759086, -0.5244233294357249, 0.34596809064125567, 0.5309580083218837, -0.29903689790283067, 0.2489134447033161, 2.1267515809590485, -0.20715802276275497, 1.5624666643998166, 0.2607811762238764, 0.17479306137075554, -0.3087048770258404, -0.9014750435113618], [-1.529850957445975, 0.9532261031611419, -0.34191227654021433, 0.5014896997628258, -1.1578081597462275, -0.9888325569723055, 1.9083474723247418, 0.9167735658757599, 0.4060250154787405, 0.15090551271430733, 0.47512607760166625, 1.0334049202553313, -0.5364041358231841, -2.1576167833845754, -0.42669985450905673, 0.10706806911982722], [-0.31121415815796594, 1.4657167573957044, -0.37195816637377593, 0.15666431863144725, -1.2592037751717329, 1.433132306098416, -1.485607034176496, 1.3759972606093136, 0.32307128479735425, -0.9357509668745284, 0.775263805529884, 2.029630138266043, -0.5491155234421712, 0.887717314179919, -0.0241183102990538, 0.07279690253120745]], "b1": [4.266099721176094, 3.8679257284532613, 4.186622154635166, 4.640340961317186, 4.541140943421205, 4.201675185321512, 4.2050058449654175, 4.4542921958684225, 4.254309925373684, 4.566340349329005, 4.699658674556492, 4.4542451277221105, 4.511081891041565, 4.540801220239544, 4.166089681552977, 4.220509601801841], "w2": [[2.14096961483891, -1.2468202090489704], [-0.6289130065874039, 0.3865352341884979], [0.2813521686019722, -0.5717377004464314], [1.374135759059229, -1.0972435887702168], [-1.454635939232272, 0.29655552556932585], [-1.8785631636851112, 0.5755827969830071], [-0.4530001556460345, -2.0190246685245112], [-0.25163987461586856, 0.47745784881366293], [1.2487204470549496, 0.976107078969619], [-0.6062530856918823, -0.05859721842885311], [-1.1882205376023987, 1.4076695304150078], [-0.7006101446710112, 1.1814103745124116], [0.9988325665896749, -0.781908777250609], [0.7240541902061783, 1.2678172823319886], [1.7666028630016113, 0.5381991899161935], [1.4463476782984004, 1.0877565140505396]], "b2": [4.248510787188405, 5.117149329895203]}