{"w1": [[-2.7399989787117534, 0.35998363764771546, -0.9718611776244139, 0.24039616715282908, 0.09277084006212319, 0.2500896662871813, 0.5299378878241114, -0.81748322891708, -0.704416954800098, 1.1808552079502945, -0.3742008060758206, -0.030143565885887118, 1.0302245073102565, -0.5164462889286566, -0.04842021345543698, -1.1103103684070643], [0.5513020344176983, -0.3120230624757655, -0.189790318872288, -0.461875990074159, -0.5025515296131887, 0.11487826570706355, 1.3164903697972379, -0.16348674864781984, -0.24332186932437042, 2.1160516044177338, -0.144078225897621, 1.053629832809935, 0.8682094025855149, 0.48812177475575713, -0.12479868558787333, -0.40276295004308915], [-2.3166313996325596, 0.8786243579825881, -0.5223100178117518, 0.42291086713100967, -0.4706750328817625, -0.5347306892783783, 1.4452241277960671, 0.9265299362063718, -0.07718728457471821, 0.3565258488421908, 0.6523071389675709, 1.1908053169563795, -0.26433561013195206, -2.2543910715951476, -0.17083826488897444, -0.3284307566890616], [0.23003403673445097, 1.120409401796027, -0.3710059685812547, 0.3999393843850104, -1.8044927733859788, 1.474158574383743, -1.1857138777084284, 1.9711282092669657, 0.40554950672776785, -1.6224471430496665, 0.8992876010437396, 1.9883022511159647, 0.1767683970563877, 0.8529638900679989, -0.082382913349139, 0.5537371615048607]], "b1": [6.757509905261144, 6.699845970481867, 7.044016579587597, 6.908010812550993, 7.281233696085712, 6.858558418838222, 7.327477743423405, 7.26472019045028, 6.578535124990235, 6.904135251559395, 7.157395713578559, 7.318662252024329, 6.945764386143614, 7.007759594265233, 7.32507311998358, 6.973200817221963], "w2": [[2.2537478431876434, -1.4592241216166966], [-0.8013597313503023, 0.22315349547646485], [0.1720885360613925, -0.39256308384268845], [1.3693236239578568, -0.9589710571935378], [-1.58561999216443, 0.31931438737878964], [-1.9374284701783024, -0.03434186646343808], [-0.2026652240219008, -2.218117352348618], [-0.5361813613256017, 0.829650559979692], [1.4944568729192658, 1.0288834764321813], [-0.42935282996424873, -0.8140322341953472], [-1.3767931466749264, 2.0016118725437217], [-0.8986251601308732, 1.5194249665990267], [1.1740144574474825, -1.4880515417245845], [0.9677238627349894, 1.585742799465076], [1.2574593668502245, 1.1803782123971303], [1.4792515137810305, 0.6503051888523342]], "b2": [6.6174639279182355, 7.372378875656428]}